HIDDEN LAYER WEIGHTS
  Neuron 0:
    0:0.588131
    1:-0.276068
    2:0.548169
    3:-0.558908
    4:0.638153
    5:-0.138286
    6:0.234656
    7:-0.537761
    8:0.194442
    9:-0.387779
    10:0.334178
    11:-0.440210
    12:0.255892
    13:-0.358224
    14:0.666526
    15:-0.641338
    16:0.444998
    17:-0.502108
    18:0.099122
    19:-0.424878
    20:0.011410
    21:-0.170021
    22:0.096062
    23:-0.562924
    24:0.109675
    25:-0.280661
    26:0.090853
    27:-0.076166
    28:0.699247
    29:-0.152780
    30:0.359053
    31:-0.587379
    32:0.428848
    33:-0.207221
    34:0.446756
    35:-0.365941
    36:0.351517
    37:-0.673886
    38:0.210348
    39:-0.535882
    40:0.378017
    41:-0.532697
    42:0.270930
    43:-0.622102
    44:0.199980
    45:-0.242065
    46:0.583108
    47:-0.631412
    48:0.055065
    49:-0.660569
    50:0.369416
    51:-0.059732
    52:0.134550
    53:-0.464259
    54:0.623163
    55:-0.244225
    56:0.044920
    57:-0.014016
    58:0.320393
    59:-0.044177
    60:0.167155
    61:-0.679215
    62:0.632881
    63:-0.582470
    64:0.221759
    65:-0.349663
    66:0.312620
    67:-0.453386
    68:0.469302
    69:-0.376014
    70:0.449206
    71:0.071361
    72:0.377763
    73:-0.595918
    74:0.704853
    75:-0.415910
    76:0.279881
    77:-0.457501
    78:0.489112
    79:-0.222597
    80:0.495718
    81:-0.115424
    82:0.308073
    83:-0.616053
    84:0.580441
    85:-0.231236
    86:0.160280
    87:-0.622674
    88:0.245705
    89:-0.474420
    90:0.685158
    91:-0.374304
    92:0.537016
    93:-0.538712
    94:0.373148
    95:-0.525303
    96:0.451245
    97:-0.346253
    98:0.853879
    99:-0.155568
    100:0.736028
    101:0.249021
    102:1.087476
    103:-0.175579
    104:0.457940
    105:-0.387504
    106:0.567534
    107:-0.248114
    108:0.455943
    109:-0.197056
    110:0.550072
    111:-0.215221
    112:0.312924
    113:-0.158275
    114:0.131273
    115:-0.190736
    116:0.387410
    117:-0.289736
    118:0.120662
    119:-0.597626
    120:0.122901
    121:-0.063699
    122:0.338916
    123:-0.524910
    124:0.713175
    125:-0.576035
    126:0.579445
    127:-0.120231
    128:0.686570
    129:0.008929
    130:0.513336
    131:0.110316
    132:0.480391
    133:-0.166364
    134:0.083819
    135:-0.526441
    136:0.064012
    137:-0.560932
    138:0.114422
    139:-0.521544
    140:0.052171
    141:-0.665073
    142:0.036733
    143:-0.372787
    144:0.110913
    145:-0.190633
    146:0.510989
    147:-0.561105
    148:0.491645
    149:-0.746172
    150:0.166942
    151:-0.938226
    152:-0.337641
    153:-0.620257
    154:-0.224541
    155:-0.607578
    156:-0.596991
    157:-0.719844
    158:-0.063998
    159:-0.842554
    160:0.030135
    161:-0.856170
    162:-0.262008
    163:-0.363854
    164:0.546971
    165:-0.181645
    166:0.617136
    167:-0.087831
    168:0.698459
    169:-0.038095
    170:0.613877
    171:-0.071227
    172:-0.026704
    173:-0.685522
    174:0.337146
    175:-0.200892
    176:0.018433
    177:-0.579164
    178:0.272695
    179:-0.719110
    180:0.046246
    181:-0.602562
    182:0.488246
    183:-0.139307
    184:0.614027
    185:-0.112374
    186:0.243129
    187:-0.849374
    188:-0.215885
    189:-1.149412
    190:-0.208960
    191:-1.191881
    192:0.147316
    193:-0.601205
    194:-0.021111
    195:-0.527207
    196:0.583042
    197:-0.653845
    198:0.621657
    199:-0.582468
    200:0.696747
    201:-0.584396
    202:0.450268
    203:-0.903767
    204:0.165063
    205:-0.552677
    206:0.173633
    207:-0.337952
    208:0.701528
    209:0.024065
    210:0.892890
    211:0.400777
    212:0.858875
    213:0.062659
    214:0.242117
    215:-0.531071
    216:-0.028761
    217:-0.559733
    218:-0.655219
    219:-1.115534
    220:-0.326825
    221:-0.702382
    222:0.283094
    223:-0.685704
    224:0.195103
    225:-0.379128
    226:0.520710
    227:-0.059416
    228:0.360209
    229:-0.523203
    230:0.402033
    231:-0.646974
    232:0.060268
    233:-0.682466
    234:0.310587
    235:0.069382
    236:0.132242
    237:-0.247723
    238:1.051327
    239:0.445025
    240:0.560558
    241:-0.396974
    242:-0.068834
    243:-0.587312
    244:0.159540
    245:-0.410740
    246:-0.174010
    247:-0.641742
    248:-0.221220
    249:-0.776864
    250:0.391492
    251:-0.458795
    252:0.242915
    253:-0.129894
    254:0.429263
    255:-0.377493
    256:0.522064
    257:-0.260228
    258:0.360082
    259:-0.310590
    260:0.513872
    261:-0.537688
    262:0.450798
    263:-0.124425
    264:0.415243
    265:0.141687
    266:0.952169
    267:0.138440
    268:0.390103
    269:-0.276998
    270:-0.052982
    271:-0.411894
    272:0.098631
    273:-0.674788
    274:-0.058963
    275:-0.892676
    276:-0.003759
    277:-0.478029
    278:0.154442
    279:-0.140024
    280:0.689265
    281:-0.003530
    282:0.577789
    283:-0.185297
    284:0.126957
    285:-0.297791
    286:0.634355
    287:-0.495291
    288:0.591531
    289:-0.426918
    290:0.308331
    291:-0.229772
    292:0.303023
    293:-0.255892
    294:1.183701
    295:-0.123738
    296:0.698003
    297:-0.100598
    298:0.402140
    299:-0.417425
    300:0.304962
    301:-0.487093
    302:0.427891
    303:-0.988168
    304:-0.034947
    305:-0.595020
    306:0.071762
    307:-0.196479
    308:0.605805
    309:-0.338092
    310:0.355366
    311:-0.537921
    312:0.382427
    313:-0.132858
    314:0.343314
    315:-0.018018
    316:0.769295
    317:0.014659
    318:0.397727
    319:-0.334957
    320:0.377560
    321:-0.429880
    322:0.423226
    323:0.180171
    324:0.449018
    325:0.266819
    326:0.146890
    327:-0.029396
    328:0.726276
    329:-0.156696
    330:0.821540
    331:-0.511879
    332:0.389968
    333:-0.687653
    334:0.321740
    335:-0.234529
    336:0.276583
    337:-0.455423
    338:0.464775
    339:-0.122500
    340:0.240363
    341:0.112352
    342:0.276623
    343:-0.056868
    344:0.400429
    345:-0.160567
    346:-0.126531
    347:-0.577945
    348:-0.292171
    349:-0.939193
    350:0.342112
    351:0.042893
    352:0.730830
    353:-0.106113
    354:0.463105
    355:0.231276
    356:1.115633
    357:0.039743
    358:0.616782
    359:-0.095480
    360:0.320155
    361:-0.350625
    362:0.560304
    363:-0.275555
    364:0.171027
    365:-0.228515
    366:0.536861
    367:-0.364967
    368:0.806691
    369:-0.072427
    370:0.664032
    371:0.031642
    372:0.201373
    373:-0.159402
    374:0.117509
    375:-1.015678
    376:-0.507803
    377:-0.555384
    378:0.577842
    379:-0.251006
    380:0.445410
    381:0.107697
    382:0.907310
    383:0.139493
    384:0.572332
    385:0.058738
    386:0.795372
    387:0.045278
    388:0.142079
    389:-0.273351
    390:0.198158
    391:-0.461018
    392:0.564988
    393:-0.093515
    394:0.047443
    395:0.019804
    396:0.340716
    397:-0.511491
    398:0.459671
    399:-0.405438
    400:-0.126475
    401:-0.654471
    402:0.002572
    403:-0.706947
    404:-0.101054
    405:-0.443714
    406:0.250742
    407:-0.485319
    408:0.509177
    409:0.130893
    410:0.788975
    411:0.061539
    412:0.703045
    413:-0.132497
    414:0.478434
    415:-0.432764
    416:0.132204
    417:-0.023136
    418:0.624874
    419:-0.119044
    420:0.336802
    421:-0.157910
    422:0.577388
    423:-0.199590
    424:0.245517
    425:-0.652195
    426:0.416331
    427:-0.413774
    428:0.397724
    429:-0.360044
    430:-0.043503
    431:-0.508178
    432:0.228216
    433:-0.702356
    434:-0.043873
    435:-0.142877
    436:0.298722
    437:0.084538
    438:0.422891
    439:-0.111664
    440:0.731304
    441:-0.248475
    442:0.345277
    443:-0.134968
    444:0.301872
    445:-0.256162
    446:0.127557
    447:-0.274150
    448:0.373219
    449:-0.108671
    450:0.384124
    451:-0.033753
    452:0.240324
    453:-0.313219
    454:0.459154
    455:-0.115788
    456:0.325643
    457:-0.508329
    458:0.318262
    459:-0.427218
    460:0.260831
    461:-0.814280
    462:0.103213
    463:-0.317750
    464:0.406131
    465:0.252448
    466:0.591689
    467:-0.378371
    468:0.558001
    469:-0.413326
    470:0.432934
    471:-0.242204
    472:0.284384
    473:-0.504371
    474:0.522802
    475:-0.483756
    476:0.107013
    477:-0.024669
    478:0.029501
    479:-0.531777
    480:0.011038
    481:-0.556778
    482:0.565786
    483:-0.176465
    484:0.155911
    485:0.075897
    486:0.364409
    487:0.065170
    488:0.389490
    489:-0.398582
    490:0.207085
    491:-0.170448
    492:0.195086
    493:-0.507785
    494:0.305765
    495:-0.338047
    496:0.570991
    497:-0.187442
    498:0.011195
    499:-0.437716
    500:0.541193
    501:-0.494806
    502:0.607129
    503:-0.136961
    504:0.280461
    505:-0.494670
    506:0.586211
    507:-0.469307
    508:0.348606
    509:-0.859117
    510:0.036274
    511:-0.670534
    512:0.350603
    513:-0.514978
    514:0.652061
    515:-0.118295
    516:0.748856
    517:-0.136402
    518:0.834467
    519:-0.420525
    520:0.213003
    521:-0.572604
    522:0.499900
    523:-0.421138
    524:0.503418
    525:-0.503852
    526:0.262908
    527:-0.639182
    528:0.452179
    529:-0.577653
    530:0.178297
    531:-0.424409
    532:0.329426
    533:-0.116631
    534:0.530661
    535:-0.692892
    536:0.467731
    537:-0.740537
    538:-0.153125
    539:-0.865774
    540:-0.001906
    541:-0.638776
    542:0.333398
    543:-0.024537
    544:0.495554
    545:0.308119
    546:0.684774
    547:-0.545080
    548:0.428755
    549:-0.090673
    550:-0.002239
    551:-0.445723
    552:0.212799
    553:-0.237297
    554:0.387568
    555:-0.338824
    556:0.434792
    557:-0.317979
    558:0.094099
    559:-0.289272
    560:0.172923
    561:-0.284910
    562:-0.010529
    563:-0.558409
    564:0.255822
    565:-0.847581
    566:-0.158952
    567:-1.044882
    568:-0.342916
    569:-1.085214
    570:-0.156753
    571:-0.219150
    572:0.612562
    573:0.187935
    574:0.575460
    575:-0.119690
    576:0.547154
    577:-0.369063
    578:0.259477
    579:-0.558013
    580:-0.039201
    581:-0.939501
    582:0.376509
    583:-0.763098
    584:0.660467
    585:-0.526553
    586:0.233887
    587:-0.375715
    588:0.153399
    589:-0.334443
    590:0.649442
    591:-0.383648
    592:0.492189
    593:-0.901085
    594:-0.330443
    595:-1.004847
    596:-0.140616
    597:-1.000360
    598:0.157001
    599:-0.530032
    600:0.600689
    601:-0.134914
    602:0.393198
    603:-0.093141
    604:0.478932
    605:-0.390353
    606:-0.019685
    607:-0.642141
    608:-0.254359
    609:-0.689267
    610:0.144398
    611:-0.751782
    612:0.195511
    613:-0.417387
    614:0.603301
    615:-0.076844
    616:0.261493
    617:-0.139308
    618:0.443955
    619:-0.464278
    620:0.393562
    621:-0.552126
    622:-0.291500
    623:-0.831964
    624:-0.006421
    625:-0.577474
    626:-0.594444
    627:-1.031372
    628:-0.405492
    629:-0.911125
    630:-0.076192
    631:-0.897398
    632:0.030017
    633:-1.188210
    634:-0.724027
    635:-1.027790
    636:-0.203106
    637:-0.953193
    638:0.212770
    639:-0.725146
    640:0.140434
    641:-0.193111
    642:0.618641
    643:-0.256220
    644:0.629602
    645:-0.523346
    646:0.325328
    647:-0.228153
    648:0.644479
    649:-0.072007
    650:0.509999
    651:-0.524193
    652:0.381278
    653:-0.880403
    654:-0.322468
    655:-0.960412
    656:-0.513693
    657:-1.010103
    658:-0.612125
    659:-1.094512
    660:-0.929218
    661:-0.839574
    662:-0.128067
    663:-0.588593
    664:-0.297039
    665:-0.289392
    666:0.223512
    667:-0.475338
    668:0.667790
    669:-0.065988
    670:0.433307
    671:-0.049390
    672:0.275622
    673:-0.347502
    674:0.307228
    675:-0.206152
    676:0.227008
    677:-0.476081
    678:0.560299
    679:0.050639
    680:0.296166
    681:-0.212938
    682:0.433575
    683:-0.584873
    684:0.226625
    685:-0.793339
    686:-0.436661
    687:-0.620335
    688:-0.069776
    689:-0.305715
    690:0.295706
    691:-0.416244
    692:0.622225
    693:-0.425136
    694:0.207789
    695:-0.037534
    696:0.542150
    697:-0.562736
    698:0.488957
    699:-0.477345
    700:0.632931
    701:-0.219058
    702:0.526319
    703:-0.197461
    704:0.617591
    705:0.025389
    706:0.647061
    707:0.273015
    708:0.485581
    709:0.261050
    710:0.402393
    711:0.345216
    712:0.902254
    713:0.352303
    714:0.914025
    715:-0.184348
    716:0.717802
    717:0.120485
    718:0.792640
    719:0.069050
    720:0.625147
    721:0.020201
    722:0.434838
    723:-0.337977
    724:0.573598
    725:-0.647924
    726:0.368251
    727:-0.407575
    728:0.510578
    729:-0.157665
    730:0.184920
    731:-0.443260
    732:0.398035
    733:0.029256
    734:0.751649
    735:-0.106253
    736:0.331176
    737:-0.118536
    738:0.510899
    739:0.086513
    740:0.777259
    741:-0.061803
    742:0.757846
    743:0.117712
    744:0.697356
    745:0.041021
    746:0.421988
    747:-0.360194
    748:0.248853
    749:-0.449214
    750:0.024881
    751:-0.587062
    752:0.596831
    753:-0.420534
    754:0.225034
    755:-0.467572
    756:0.368781
    757:-0.593600
    758:0.175147
    759:-0.179360
    760:0.051259
    761:-0.360346
    762:0.622260
    763:-0.427167
    764:0.375159
    765:-0.570462
    766:0.686610
    767:-0.507840
    768:0.277759
    769:-0.200186
    770:0.113564
    771:0.012852
    772:0.025616
    773:-0.322653
    774:0.223957
    775:-0.476806
    776:0.579690
    777:-0.347558
    778:0.351294
    779:-0.049569
    780:0.133688
    781:-0.338554
    782:0.646367
    783:-0.030376
  Neuron 1:
    0:0.171401
    1:-0.497948
    2:0.427869
    3:-0.065001
    4:0.673096
    5:-0.607228
    6:0.116266
    7:-0.333163
    8:0.530097
    9:-0.544253
    10:0.004886
    11:-0.405029
    12:0.515502
    13:-0.520662
    14:0.645793
    15:-0.067483
    16:0.551350
    17:-0.662505
    18:0.071036
    19:-0.192428
    20:0.167525
    21:-0.566820
    22:0.066530
    23:-0.522711
    24:0.194050
    25:-0.121310
    26:0.656400
    27:-0.532603
    28:0.067677
    29:-0.686776
    30:0.591691
    31:-0.239078
    32:0.484724
    33:-0.319561
    34:0.303980
    35:-0.457876
    36:0.226794
    37:-0.420627
    38:0.085389
    39:-0.052755
    40:0.266895
    41:-0.089405
    42:0.482026
    43:-0.056327
    44:0.615508
    45:-0.410416
    46:0.145946
    47:-0.469973
    48:0.368269
    49:-0.219363
    50:0.660052
    51:-0.537390
    52:0.085460
    53:-0.026785
    54:0.360455
    55:-0.279510
    56:0.148096
    57:-0.316855
    58:0.112113
    59:-0.215742
    60:0.303611
    61:-0.003811
    62:0.454599
    63:-0.091269
    64:0.310838
    65:-0.090480
    66:0.490544
    67:-0.603979
    68:0.419995
    69:-0.686209
    70:0.590082
    71:-0.055195
    72:0.010270
    73:-0.376427
    74:0.117424
    75:-0.682125
    76:0.026336
    77:-0.318184
    78:0.391199
    79:-0.459831
    80:0.485169
    81:-0.377543
    82:0.284631
    83:-0.575698
    84:0.404375
    85:-0.645086
    86:0.155301
    87:-0.552386
    88:0.261332
    89:-0.268985
    90:0.062058
    91:-0.577301
    92:0.239469
    93:-0.647513
    94:0.471293
    95:-0.826165
    96:0.280395
    97:-0.783983
    98:0.149712
    99:-0.611505
    100:0.196396
    101:-0.575636
    102:0.153492
    103:-0.665957
    104:-0.108093
    105:-0.640927
    106:0.349556
    107:-0.144965
    108:0.066548
    109:-0.139686
    110:0.543132
    111:-0.590997
    112:0.514718
    113:-0.128818
    114:0.465566
    115:-0.220478
    116:0.052349
    117:-0.653034
    118:0.036379
    119:-0.408435
    120:0.015269
    121:-0.526681
    122:-0.273047
    123:-0.885490
    124:0.083094
    125:-0.691194
    126:-0.029347
    127:-0.868132
    128:0.437710
    129:-0.184711
    130:0.165223
    131:-0.322092
    132:0.510677
    133:-0.431237
    134:0.358657
    135:-0.312217
    136:0.493992
    137:-0.575736
    138:0.567448
    139:-0.543081
    140:0.019917
    141:-0.413285
    142:0.430925
    143:-0.542946
    144:0.470581
    145:-0.337210
    146:-0.150646
    147:-0.864049
    148:-0.235810
    149:-0.612254
    150:-0.194801
    151:-0.545314
    152:0.049293
    153:-0.466667
    154:0.144448
    155:-0.177136
    156:0.719610
    157:-0.133700
    158:0.397437
    159:-0.232157
    160:0.867304
    161:0.200154
    162:0.746353
    163:0.201014
    164:0.355324
    165:-0.407567
    166:0.056527
    167:-0.633811
    168:0.302539
    169:-0.616873
    170:0.468802
    171:-0.356205
    172:0.218307
    173:-0.448623
    174:-0.160195
    175:-0.482370
    176:-0.004458
    177:-0.496969
    178:0.055343
    179:-0.436112
    180:0.245911
    181:-0.340665
    182:0.294638
    183:-0.632831
    184:-0.104207
    185:-0.239476
    186:0.201526
    187:0.122902
    188:0.953047
    189:0.378157
    190:1.213598
    191:0.204733
    192:0.795332
    193:-0.031406
    194:0.068185
    195:-0.670242
    196:0.542945
    197:-0.078079
    198:0.582609
    199:-0.196790
    200:0.554828
    201:-0.594409
    202:0.229568
    203:-0.459447
    204:0.366449
    205:-0.718400
    206:0.437237
    207:-0.357222
    208:-0.064901
    209:-0.755828
    210:-0.007137
    211:-0.725675
    212:-0.156287
    213:-0.409777
    214:0.353121
    215:-0.319826
    216:0.579730
    217:-0.068208
    218:0.980700
    219:0.414759
    220:0.523083
    221:0.001670
    222:0.170254
    223:-0.482408
    224:0.312818
    225:-0.152024
    226:0.463476
    227:-0.171715
    228:0.111516
    229:-0.492389
    230:0.138261
    231:-0.176966
    232:0.028406
    233:-0.179764
    234:0.689007
    235:-0.465712
    236:0.640060
    237:-0.404736
    238:-0.048942
    239:-0.451940
    240:-0.036107
    241:-0.274482
    242:0.577785
    243:-0.447994
    244:0.523869
    245:-0.142335
    246:0.559837
    247:0.595290
    248:0.707068
    249:-0.153247
    250:0.732717
    251:-0.071029
    252:0.608855
    253:-0.093446
    254:0.595140
    255:-0.197962
    256:0.272505
    257:-0.295741
    258:0.461597
    259:-0.313102
    260:0.758351
    261:-0.362221
    262:0.606923
    263:0.411525
    264:0.374857
    265:-0.394615
    266:0.339233
    267:-0.321926
    268:0.081832
    269:-0.090534
    270:0.198911
    271:-0.429685
    272:0.370723
    273:0.036975
    274:0.736103
    275:0.496812
    276:0.979040
    277:-0.145435
    278:0.653588
    279:-0.380911
    280:0.141854
    281:-0.544850
    282:0.509576
    283:-0.002662
    284:0.780311
    285:-0.156587
    286:0.474546
    287:-0.010252
    288:0.873047
    289:-0.010256
    290:0.809333
    291:0.002702
    292:1.008799
    293:-0.077029
    294:0.569104
    295:-0.451134
    296:-0.038614
    297:-0.723139
    298:0.337971
    299:-0.492922
    300:-0.113699
    301:-0.236742
    302:0.285953
    303:-0.074183
    304:0.552654
    305:-0.346278
    306:0.074480
    307:-0.494931
    308:0.245681
    309:-0.598064
    310:0.234213
    311:-0.346241
    312:0.555646
    313:-0.439939
    314:0.718640
    315:-0.190742
    316:0.569464
    317:0.495198
    318:1.027920
    319:-0.029973
    320:0.694192
    321:0.022774
    322:0.470205
    323:-0.256485
    324:0.048035
    325:-0.533005
    326:0.113071
    327:-0.578081
    328:-0.358613
    329:-0.830948
    330:0.415253
    331:-0.006451
    332:0.676068
    333:-0.074134
    334:0.470967
    335:-0.103130
    336:0.648031
    337:-0.465894
    338:0.642981
    339:-0.132077
    340:0.473488
    341:0.191761
    342:0.842373
    343:0.040791
    344:0.384917
    345:-0.044587
    346:0.812532
    347:-0.143374
    348:0.441637
    349:-0.393301
    350:0.840574
    351:-0.300516
    352:0.144298
    353:-0.511809
    354:0.145848
    355:-0.329547
    356:-0.110730
    357:-1.008970
    358:0.233389
    359:-0.331027
    360:0.348498
    361:-0.376735
    362:0.273954
    363:-0.351453
    364:0.485860
    365:-0.009912
    366:0.471390
    367:-0.428144
    368:0.538347
    369:-0.081472
    370:0.844846
    371:-0.009357
    372:0.630954
    373:-0.268653
    374:0.630457
    375:-0.502184
    376:-0.110156
    377:-0.246334
    378:0.203399
    379:-0.661326
    380:-0.432009
    381:-0.628092
    382:-0.090863
    383:-0.247587
    384:0.047274
    385:-0.379133
    386:0.271211
    387:-0.520125
    388:0.064263
    389:-0.035537
    390:0.101320
    391:-0.522425
    392:0.373039
    393:-0.366819
    394:0.180952
    395:-0.197716
    396:0.352899
    397:-0.433680
    398:0.748362
    399:-0.027758
    400:0.428910
    401:-0.307471
    402:0.527687
    403:-0.497591
    404:-0.159304
    405:-0.641178
    406:0.735865
    407:-0.465515
    408:-0.314971
    409:-0.529622
    410:-0.082441
    411:-0.484067
    412:0.226147
    413:-0.326689
    414:0.524886
    415:-0.418662
    416:0.467545
    417:-0.721234
    418:0.455819
    419:-0.451162
    420:0.690029
    421:-0.561098
    422:0.278970
    423:-0.407308
    424:0.165391
    425:-0.406127
    426:0.500609
    427:-0.592442
    428:0.368519
    429:-0.406126
    430:-0.172453
    431:-1.167004
    432:-0.229197
    433:-0.422342
    434:0.083385
    435:-0.639473
    436:-0.059086
    437:-0.917147
    438:0.104353
    439:-0.580119
    440:0.053384
    441:-0.483809
    442:0.288506
    443:-0.166592
    444:0.121172
    445:-0.615808
    446:0.331149
    447:-0.368909
    448:0.553657
    449:-0.089857
    450:0.108895
    451:-0.602466
    452:0.586360
    453:-0.383751
    454:0.146024
    455:-0.296001
    456:-0.168166
    457:-0.454101
    458:-0.368136
    459:-0.922881
    460:0.122989
    461:-0.005567
    462:0.655864
    463:-0.693196
    464:0.194571
    465:-0.571341
    466:0.426575
    467:-0.190244
    468:0.415591
    469:-0.192108
    470:0.079275
    471:-0.364341
    472:0.662211
    473:-0.312928
    474:0.257696
    475:-0.605963
    476:0.099257
    477:-0.598503
    478:0.267348
    479:-0.733631
    480:0.610309
    481:-0.238754
    482:0.631506
    483:-0.782313
    484:-0.443780
    485:-0.396535
    486:-0.226335
    487:-0.367769
    488:-0.000842
    489:-0.000063
    490:0.188975
    491:-0.504274
    492:0.160905
    493:-0.365129
    494:0.499688
    495:-0.132418
    496:0.318863
    497:-0.386340
    498:0.374833
    499:-0.015260
    500:0.308263
    501:-0.563457
    502:0.607539
    503:-0.230514
    504:0.690196
    505:-0.172459
    506:0.134442
    507:-0.224742
    508:-0.031546
    509:-0.289293
    510:0.228435
    511:-0.164818
    512:-0.244264
    513:-0.750383
    514:0.488529
    515:-0.351527
    516:0.419061
    517:0.007699
    518:0.404448
    519:-0.623043
    520:0.164351
    521:-0.323168
    522:0.239780
    523:-0.665025
    524:0.131806
    525:-0.255465
    526:-0.015901
    527:-0.618547
    528:0.171635
    529:-0.578065
    530:0.582930
    531:-0.573027
    532:0.275823
    533:-0.483035
    534:0.099569
    535:-0.431079
    536:0.551207
    537:-0.111764
    538:0.496993
    539:-0.080954
    540:0.619253
    541:-0.332394
    542:0.103486
    543:-0.040681
    544:0.263850
    545:0.061782
    546:0.299151
    547:-0.125110
    548:0.136043
    549:-0.693948
    550:0.396412
    551:-0.600300
    552:-0.066483
    553:-0.556199
    554:0.286999
    555:-0.624384
    556:0.242974
    557:-0.532863
    558:0.389009
    559:-0.517718
    560:0.312813
    561:-0.262418
    562:0.395317
    563:-0.748279
    564:-0.176073
    565:-0.452895
    566:0.256757
    567:0.157349
    568:0.365660
    569:-0.016305
    570:0.503296
    571:-0.354513
    572:0.327989
    573:-0.057327
    574:0.029624
    575:-0.533475
    576:-0.001060
    577:-0.450667
    578:0.165987
    579:-0.742940
    580:-0.207599
    581:-0.622169
    582:0.172574
    583:-0.543107
    584:-0.055868
    585:-0.562434
    586:0.379116
    587:-0.275106
    588:0.336801
    589:-0.059089
    590:0.087831
    591:-0.764470
    592:0.144299
    593:-0.521387
    594:0.675603
    595:-0.116135
    596:0.704210
    597:-0.274594
    598:0.689126
    599:-0.100129
    600:0.354965
    601:-0.571337
    602:0.207595
    603:-0.142051
    604:0.306626
    605:-0.433419
    606:0.131492
    607:-0.432413
    608:0.387167
    609:-0.304415
    610:0.364424
    611:-0.105177
    612:-0.012074
    613:-0.560821
    614:0.554632
    615:-0.025552
    616:0.377722
    617:-0.230536
    618:0.279200
    619:-0.130545
    620:0.166565
    621:-0.389391
    622:0.749930
    623:-0.375879
    624:0.553706
    625:-0.151199
    626:0.398230
    627:-0.301939
    628:0.560656
    629:-0.433842
    630:0.205219
    631:-0.166384
    632:0.516243
    633:-0.166706
    634:0.158419
    635:-0.381019
    636:0.416968
    637:-0.223399
    638:0.095267
    639:-0.598773
    640:0.318723
    641:-0.609656
    642:0.563929
    643:-0.355842
    644:0.444672
    645:-0.417867
    646:0.361769
    647:-0.200303
    648:0.588530
    649:-0.630179
    650:0.197280
    651:-0.167120
    652:0.542801
    653:0.170381
    654:0.413347
    655:-0.227052
    656:0.778786
    657:-0.168275
    658:0.581967
    659:-0.062108
    660:0.680647
    661:-0.145615
    662:0.688299
    663:-0.125570
    664:-0.155522
    665:-0.463210
    666:0.100373
    667:-0.750423
    668:0.342798
    669:-0.436491
    670:0.506665
    671:-0.695177
    672:0.331689
    673:-0.368912
    674:0.339642
    675:-0.095790
    676:0.047848
    677:-0.040865
    678:0.211368
    679:-0.130365
    680:-0.098674
    681:-0.443201
    682:0.148935
    683:-0.579435
    684:0.285587
    685:-0.559447
    686:0.175059
    687:-0.432737
    688:0.078733
    689:-0.452018
    690:0.131871
    691:-0.503966
    692:0.108271
    693:-0.143234
    694:0.500343
    695:-0.302615
    696:0.320275
    697:-0.101241
    698:0.230522
    699:-0.699469
    700:0.529300
    701:-0.036180
    702:0.693778
    703:-0.156695
    704:0.401065
    705:-0.365700
    706:0.181557
    707:-0.567588
    708:0.217438
    709:-0.662850
    710:0.313321
    711:-0.439679
    712:0.005944
    713:-0.180426
    714:0.041847
    715:-0.586304
    716:0.349801
    717:-0.398679
    718:0.130464
    719:-0.722560
    720:0.066717
    721:-0.257137
    722:0.467841
    723:-0.446982
    724:0.218295
    725:-0.383335
    726:0.662761
    727:-0.555627
    728:0.483351
    729:-0.193284
    730:0.555096
    731:-0.312807
    732:0.221811
    733:-0.568350
    734:0.449772
    735:-0.652592
    736:0.135914
    737:-0.116157
    738:0.417523
    739:-0.462866
    740:0.531948
    741:-0.183105
    742:0.307511
    743:-0.506840
    744:0.341213
    745:-0.341122
    746:0.339172
    747:-0.171949
    748:0.647084
    749:-0.496344
    750:0.141437
    751:-0.173820
    752:0.661287
    753:-0.658586
    754:0.578126
    755:-0.180780
    756:0.341915
    757:-0.540894
    758:0.036407
    759:-0.125266
    760:0.034444
    761:-0.590969
    762:0.436979
    763:-0.269909
    764:0.437017
    765:-0.209840
    766:0.208552
    767:-0.613951
    768:0.238809
    769:-0.603526
    770:0.500040
    771:-0.665812
    772:0.177680
    773:-0.069590
    774:0.504874
    775:-0.528782
    776:0.414129
    777:-0.120573
    778:0.006563
    779:-0.405984
    780:0.590726
    781:-0.158768
    782:0.570706
    783:-0.552013
  Neuron 2:
    0:0.448832
    1:-0.032793
    2:0.459269
    3:-0.289726
    4:0.069200
    5:-0.584535
    6:0.323904
    7:-0.660704
    8:0.322453
    9:-0.587546
    10:0.401950
    11:-0.534010
    12:0.078814
    13:-0.353787
    14:0.056561
    15:-0.010365
    16:0.148852
    17:-0.026184
    18:0.188468
    19:-0.225388
    20:0.514603
    21:-0.020307
    22:0.651937
    23:-0.630114
    24:0.028529
    25:-0.357970
    26:0.520839
    27:-0.187297
    28:0.228676
    29:-0.372853
    30:0.304651
    31:-0.677508
    32:0.405644
    33:-0.064090
    34:0.255659
    35:-0.496953
    36:0.610454
    37:-0.625316
    38:0.407082
    39:-0.297115
    40:0.434714
    41:-0.166728
    42:0.101318
    43:-0.574027
    44:0.465360
    45:-0.171144
    46:0.567674
    47:-0.628475
    48:0.185964
    49:-0.065772
    50:0.143508
    51:-0.010763
    52:0.083565
    53:-0.102295
    54:0.632376
    55:-0.112094
    56:0.460265
    57:-0.453215
    58:0.299391
    59:-0.689218
    60:0.125880
    61:-0.604723
    62:0.652968
    63:-0.585119
    64:0.570089
    65:-0.330534
    66:0.180832
    67:-0.754108
    68:-0.050167
    69:-0.217500
    70:0.024858
    71:-0.771956
    72:0.003449
    73:-0.401465
    74:0.398287
    75:-0.715902
    76:0.397767
    77:-0.390562
    78:0.546798
    79:-0.651178
    80:0.405952
    81:-0.031237
    82:0.643637
    83:-0.489541
    84:0.133351
    85:-0.576013
    86:0.601710
    87:-0.594500
    88:0.328828
    89:-0.206073
    90:0.549562
    91:-0.562088
    92:-0.064027
    93:-0.712547
    94:0.098436
    95:-0.335798
    96:-0.234495
    97:-0.983566
    98:0.213807
    99:-0.675023
    100:0.268846
    101:-0.394601
    102:-0.046211
    103:-0.301915
    104:0.305763
    105:-0.648647
    106:0.052660
    107:-0.218426
    108:0.228564
    109:-0.651759
    110:0.164061
    111:-0.627633
    112:0.682766
    113:-0.107746
    114:0.417529
    115:-0.115861
    116:0.686781
    117:-0.330188
    118:-0.047859
    119:-0.443280
    120:0.355662
    121:-0.730245
    122:-0.085897
    123:-0.783871
    124:0.341187
    125:-0.472092
    126:0.515065
    127:-0.591959
    128:0.316488
    129:-0.626256
    130:0.060150
    131:-0.124966
    132:0.229574
    133:-0.123041
    134:0.312066
    135:-0.626851
    136:0.034265
    137:-0.375022
    138:0.156020
    139:-0.242994
    140:0.322538
    141:-0.320019
    142:0.171160
    143:-0.303855
    144:0.436130
    145:-0.574541
    146:0.384675
    147:-0.528562
    148:0.055231
    149:-0.514744
    150:-0.206203
    151:-0.240640
    152:0.083255
    153:-0.292587
    154:0.453945
    155:-0.160121
    156:0.548888
    157:-0.520136
    158:0.571050
    159:-0.712104
    160:0.526396
    161:-0.662883
    162:0.197675
    163:-0.143816
    164:0.051374
    165:-0.491985
    166:0.030779
    167:-0.084147
    168:0.152110
    169:-0.189997
    170:0.325735
    171:-0.471897
    172:0.526386
    173:-0.460345
    174:0.023389
    175:-0.334687
    176:0.274553
    177:-0.561842
    178:0.377620
    179:-0.792886
    180:0.064642
    181:-0.900085
    182:0.407278
    183:-0.416667
    184:0.309601
    185:-0.436607
    186:0.599948
    187:-0.366458
    188:0.630557
    189:-0.404717
    190:0.462521
    191:-0.479063
    192:0.348721
    193:-0.742022
    194:0.540814
    195:-0.496353
    196:0.474352
    197:-0.591691
    198:0.573339
    199:-0.628344
    200:0.095010
    201:-0.175056
    202:0.360627
    203:-0.611642
    204:0.101234
    205:-0.405532
    206:-0.018436
    207:-0.503856
    208:0.077619
    209:-0.229398
    210:0.072168
    211:-0.568370
    212:0.109430
    213:-0.157605
    214:0.318912
    215:-0.079659
    216:0.150470
    217:-0.229566
    218:0.613219
    219:-0.734456
    220:-0.196684
    221:-0.599756
    222:0.280494
    223:-0.543075
    224:0.438842
    225:-0.208104
    226:0.311160
    227:-0.225385
    228:0.106330
    229:-0.167242
    230:0.210522
    231:-0.045181
    232:0.574416
    233:-0.379494
    234:0.048322
    235:-0.468116
    236:0.237357
    237:-0.226916
    238:-0.115639
    239:-0.800585
    240:0.288005
    241:-0.134054
    242:0.668095
    243:-0.223720
    244:0.508154
    245:0.026110
    246:0.505682
    247:-0.797753
    248:0.003864
    249:-0.707324
    250:0.453395
    251:-0.492630
    252:0.131853
    253:-0.186342
    254:0.300367
    255:-0.594869
    256:0.403839
    257:-0.521573
    258:0.207261
    259:-0.246486
    260:0.227270
    261:-0.106829
    262:0.609318
    263:-0.470530
    264:0.009971
    265:-0.565502
    266:-0.810495
    267:-0.732023
    268:0.638228
    269:0.388152
    270:0.714149
    271:-0.294929
    272:0.065006
    273:0.195411
    274:0.302415
    275:-0.740085
    276:-0.312702
    277:-0.945564
    278:0.416442
    279:-0.508271
    280:0.280593
    281:-0.368716
    282:0.254388
    283:-0.431375
    284:0.541629
    285:-0.459698
    286:0.453805
    287:-0.100899
    288:0.518323
    289:-0.293564
    290:-0.098807
    291:-0.730593
    292:0.139316
    293:-1.736597
    294:-0.589046
    295:-0.474029
    296:0.921193
    297:0.645504
    298:0.806395
    299:0.281415
    300:0.731618
    301:-0.207888
    302:0.392242
    303:-0.392152
    304:0.393254
    305:-0.397804
    306:0.207786
    307:-0.075614
    308:0.081819
    309:-0.116184
    310:0.522116
    311:-0.381897
    312:0.467074
    313:-0.066702
    314:0.126431
    315:-0.287507
    316:0.572599
    317:-0.423892
    318:0.367522
    319:-0.632441
    320:-0.295172
    321:-1.204311
    322:0.394536
    323:0.311616
    324:1.548375
    325:0.410599
    326:1.063132
    327:0.227495
    328:1.063689
    329:0.406381
    330:0.479306
    331:-0.659738
    332:0.108227
    333:-0.184121
    334:0.371681
    335:-0.119316
    336:0.298050
    337:-0.685550
    338:0.149084
    339:-0.427400
    340:0.029501
    341:-0.059738
    342:-0.040707
    343:-0.622627
    344:-0.038874
    345:-0.129772
    346:-0.080524
    347:-0.441079
    348:0.009250
    349:-0.324726
    350:1.016182
    351:0.440253
    352:1.503815
    353:0.329680
    354:0.999869
    355:0.270309
    356:1.266816
    357:0.312997
    358:0.439359
    359:-0.415054
    360:0.436827
    361:-0.322638
    362:0.281821
    363:-0.006095
    364:0.435186
    365:-0.677988
    366:0.104610
    367:-0.072415
    368:0.603584
    369:-0.353791
    370:0.279787
    371:-0.206079
    372:0.140432
    373:-0.598410
    374:0.007332
    375:-0.860065
    376:0.295510
    377:0.027209
    378:0.844885
    379:0.216808
    380:0.858822
    381:0.295483
    382:0.697931
    383:0.452297
    384:0.641949
    385:-0.402804
    386:0.247662
    387:-0.477450
    388:-0.075253
    389:-0.066453
    390:0.411902
    391:-0.045213
    392:0.341685
    393:-0.695954
    394:0.044496
    395:-0.081710
    396:0.738114
    397:-0.094294
    398:0.103387
    399:-0.716608
    400:0.116677
    401:-0.834776
    402:0.144840
    403:-0.240247
    404:0.439154
    405:-0.078159
    406:0.826593
    407:0.154627
    408:1.142635
    409:0.211492
    410:0.937156
    411:0.209428
    412:0.372575
    413:-0.750953
    414:-0.228818
    415:-0.737800
    416:0.229405
    417:-0.708853
    418:0.446453
    419:-0.075855
    420:0.644195
    421:-0.168642
    422:0.118258
    423:-0.250787
    424:0.305593
    425:0.016461
    426:0.488508
    427:-0.124653
    428:0.302745
    429:-0.716326
    430:-0.391136
    431:-0.028056
    432:0.747956
    433:0.512911
    434:0.762051
    435:0.207804
    436:1.018600
    437:0.212937
    438:0.146103
    439:-0.427858
    440:0.212506
    441:-0.778886
    442:-0.225653
    443:-0.892626
    444:0.171228
    445:-0.335796
    446:0.166152
    447:-0.393045
    448:0.139440
    449:-0.617915
    450:0.467662
    451:-0.036527
    452:0.205686
    453:-0.295584
    454:0.575691
    455:0.004961
    456:0.442881
    457:0.025610
    458:0.316309
    459:-0.189444
    460:1.103446
    461:0.237047
    462:1.128456
    463:0.766761
    464:0.906557
    465:0.055955
    466:0.513639
    467:-0.440054
    468:-0.264444
    469:-0.244714
    470:0.124888
    471:-0.735073
    472:0.290693
    473:-0.454603
    474:0.350276
    475:-0.393862
    476:0.573852
    477:-0.519588
    478:0.083044
    479:0.022206
    480:0.544551
    481:-0.318650
    482:0.156629
    483:-0.188484
    484:0.972627
    485:0.038675
    486:0.331611
    487:-0.106298
    488:1.309684
    489:0.491550
    490:0.810013
    491:0.215241
    492:0.488734
    493:-0.291363
    494:-0.061332
    495:-0.985798
    496:-0.348156
    497:-0.765112
    498:0.098675
    499:-0.353673
    500:0.291786
    501:-0.051945
    502:0.034243
    503:-0.298694
    504:0.363356
    505:-0.388323
    506:0.687811
    507:-0.180184
    508:0.244926
    509:-0.000938
    510:0.181073
    511:-0.495668
    512:0.927302
    513:0.113249
    514:0.845032
    515:0.226116
    516:0.973654
    517:0.153574
    518:0.374925
    519:-0.631754
    520:0.069111
    521:-0.885435
    522:-0.324873
    523:-0.972298
    524:0.000983
    525:-1.090900
    526:0.246585
    527:-0.711531
    528:0.310424
    529:-0.199816
    530:0.204683
    531:-0.071815
    532:0.202270
    533:-0.246906
    534:0.370472
    535:-0.512930
    536:0.618309
    537:-0.430836
    538:-0.080383
    539:-0.250916
    540:0.225128
    541:-0.342589
    542:0.067163
    543:-0.543543
    544:-0.227819
    545:-0.953518
    546:-0.533398
    547:-0.671600
    548:-0.161325
    549:-0.777647
    550:-0.301794
    551:-0.649662
    552:-0.535107
    553:-0.621343
    554:0.339167
    555:-0.608007
    556:0.220607
    557:-0.337664
    558:0.582433
    559:-0.561892
    560:0.546691
    561:-0.098438
    562:0.632461
    563:-0.020394
    564:0.357872
    565:-0.373321
    566:0.474964
    567:-0.498116
    568:0.135129
    569:-0.586966
    570:-0.122548
    571:-0.952302
    572:-0.253276
    573:-1.165701
    574:-0.602455
    575:-0.716726
    576:-0.057539
    577:-0.418932
    578:0.171113
    579:-0.479382
    580:0.097089
    581:-0.707890
    582:0.020488
    583:-0.567357
    584:0.144953
    585:-0.628411
    586:0.476962
    587:-0.346749
    588:0.285888
    589:-0.370902
    590:0.208130
    591:-0.126478
    592:0.409446
    593:-0.094815
    594:0.224118
    595:-0.257047
    596:0.091961
    597:-0.345435
    598:0.330047
    599:-0.456759
    600:-0.067142
    601:-0.197423
    602:-0.016773
    603:-0.525652
    604:0.385367
    605:-0.453347
    606:0.156351
    607:-0.340494
    608:0.264477
    609:-0.023734
    610:0.379634
    611:-0.202005
    612:0.562616
    613:-0.450369
    614:0.067982
    615:-0.001479
    616:0.396759
    617:-0.550919
    618:0.350731
    619:-0.698719
    620:0.164277
    621:-0.552808
    622:0.288205
    623:-0.696297
    624:0.457243
    625:-0.506141
    626:0.193254
    627:-0.237167
    628:0.337909
    629:-0.370636
    630:0.282465
    631:-0.363594
    632:0.394822
    633:-0.276777
    634:0.437887
    635:-0.468567
    636:0.394814
    637:-0.490506
    638:0.172065
    639:-0.144937
    640:0.528837
    641:-0.463094
    642:0.363115
    643:-0.395633
    644:0.228520
    645:-0.430401
    646:0.399704
    647:-0.633280
    648:0.227578
    649:-0.077298
    650:0.652068
    651:-0.460574
    652:0.392589
    653:-0.437922
    654:0.254739
    655:-0.579321
    656:0.380991
    657:-0.354953
    658:0.467262
    659:-0.088465
    660:0.300165
    661:-0.537363
    662:0.552897
    663:-0.246904
    664:0.030552
    665:-0.094349
    666:0.198264
    667:-0.444595
    668:0.693375
    669:-0.217640
    670:0.678270
    671:-0.489722
    672:0.693763
    673:-0.340654
    674:0.186803
    675:-0.217952
    676:0.061784
    677:-0.580673
    678:0.152413
    679:-0.327014
    680:0.520143
    681:-0.342816
    682:-0.023864
    683:-0.517605
    684:0.009887
    685:-0.787860
    686:0.080829
    687:-0.734692
    688:0.276467
    689:-0.324596
    690:0.276822
    691:-0.250550
    692:0.589631
    693:-0.197810
    694:0.587985
    695:-0.537774
    696:0.405540
    697:-0.660043
    698:0.402930
    699:-0.359444
    700:0.182674
    701:-0.381749
    702:0.149282
    703:-0.176773
    704:0.014953
    705:-0.347535
    706:0.393655
    707:-0.143284
    708:0.171539
    709:-0.607486
    710:0.429055
    711:-0.250879
    712:0.415203
    713:-0.763191
    714:0.502915
    715:-0.801768
    716:0.482273
    717:-0.499351
    718:0.316874
    719:-0.408484
    720:0.479512
    721:-0.076554
    722:0.655738
    723:-0.278836
    724:0.341263
    725:-0.481911
    726:0.193435
    727:-0.031357
    728:0.439734
    729:-0.596674
    730:0.390801
    731:-0.622400
    732:0.279814
    733:-0.540216
    734:0.086500
    735:-0.316372
    736:0.142353
    737:-0.541470
    738:0.291252
    739:-0.558920
    740:0.122770
    741:-0.345845
    742:0.325394
    743:-0.448197
    744:-0.109159
    745:-0.621044
    746:0.167489
    747:-0.608474
    748:0.206541
    749:-0.603729
    750:0.294684
    751:-0.656796
    752:0.697511
    753:-0.235552
    754:0.262089
    755:-0.334126
    756:0.017431
    757:-0.455530
    758:0.365483
    759:-0.457165
    760:0.352204
    761:-0.056154
    762:0.379851
    763:-0.632197
    764:0.588297
    765:-0.486957
    766:0.222750
    767:-0.086637
    768:0.255668
    769:-0.646751
    770:0.428841
    771:-0.643598
    772:0.063667
    773:-0.302404
    774:0.146338
    775:-0.117888
    776:0.103553
    777:-0.395863
    778:0.001768
    779:-0.305916
    780:0.296644
    781:-0.293433
    782:0.265276
    783:-0.294153
  Neuron 3:
    0:0.527365
    1:-0.628279
    2:0.546416
    3:-0.282895
    4:0.293762
    5:-0.303581
    6:0.635099
    7:-0.350046
    8:0.683154
    9:-0.565725
    10:0.246296
    11:-0.461571
    12:0.104727
    13:-0.300728
    14:0.037303
    15:-0.022925
    16:0.079245
    17:-0.657385
    18:0.088769
    19:-0.376998
    20:0.122847
    21:-0.196131
    22:0.481436
    23:-0.514382
    24:0.196415
    25:-0.087803
    26:0.111025
    27:-0.489849
    28:0.353079
    29:-0.405178
    30:0.318834
    31:-0.180445
    32:0.333456
    33:-0.164990
    34:0.481106
    35:-0.597838
    36:0.480428
    37:-0.389311
    38:0.288097
    39:-0.439743
    40:0.283579
    41:-0.501653
    42:0.192240
    43:-0.351470
    44:0.146569
    45:-0.238495
    46:0.395693
    47:-0.214274
    48:0.216145
    49:-0.469008
    50:0.598280
    51:-0.330989
    52:0.669157
    53:-0.378272
    54:0.145723
    55:-0.165572
    56:0.466075
    57:-0.256748
    58:0.655422
    59:-0.119137
    60:0.661929
    61:-0.270843
    62:0.330155
    63:-0.223233
    64:0.500907
    65:0.006082
    66:0.333967
    67:-0.096027
    68:0.601555
    69:-0.358980
    70:0.766739
    71:0.115055
    72:0.458304
    73:-0.052309
    74:0.484580
    75:-0.389319
    76:0.460958
    77:-0.056185
    78:0.687958
    79:-0.628922
    80:0.545585
    81:-0.580663
    82:0.264821
    83:-0.513323
    84:0.258962
    85:-0.410544
    86:0.678899
    87:-0.023289
    88:0.667566
    89:-0.607484
    90:0.214455
    91:-0.485074
    92:0.368721
    93:-0.215081
    94:0.490757
    95:-0.382499
    96:0.818718
    97:-0.166200
    98:0.459173
    99:0.080888
    100:0.480470
    101:0.122457
    102:0.577039
    103:-0.295103
    104:0.477871
    105:-0.557870
    106:0.422711
    107:0.026103
    108:0.059950
    109:-0.322563
    110:0.649252
    111:-0.595843
    112:0.199048
    113:-0.213892
    114:0.409152
    115:-0.456306
    116:0.627514
    117:-0.327998
    118:0.612172
    119:-0.358605
    120:0.562893
    121:-0.306456
    122:0.814789
    123:-0.224148
    124:0.558228
    125:-0.034114
    126:0.588950
    127:-0.044550
    128:0.626367
    129:-0.353786
    130:0.870469
    131:0.296436
    132:0.299245
    133:0.144003
    134:0.675259
    135:-0.287585
    136:0.045026
    137:-0.231112
    138:0.358724
    139:-0.070832
    140:0.563157
    141:-0.307421
    142:0.667458
    143:-0.060036
    144:0.532123
    145:-0.300446
    146:0.685648
    147:-0.238545
    148:0.320892
    149:0.023317
    150:0.709039
    151:-0.037578
    152:0.481104
    153:0.005565
    154:0.517221
    155:-0.156922
    156:0.636176
    157:-0.278399
    158:0.468196
    159:-0.334906
    160:0.870788
    161:-0.316691
    162:0.142666
    163:-0.607384
    164:0.590822
    165:-0.650050
    166:0.333660
    167:-0.582315
    168:0.191612
    169:-0.685732
    170:0.651135
    171:-0.043701
    172:0.315251
    173:-0.565472
    174:0.236083
    175:0.042239
    176:0.455072
    177:-0.486776
    178:0.611331
    179:-0.251275
    180:0.423290
    181:-0.142705
    182:0.144504
    183:-0.357213
    184:0.296796
    185:-0.243092
    186:0.406434
    187:-0.560390
    188:0.193063
    189:-0.559302
    190:0.454656
    191:-0.236465
    192:0.327756
    193:-0.563980
    194:0.206165
    195:-0.132863
    196:0.540209
    197:-0.511258
    198:0.020774
    199:-0.040921
    200:0.497361
    201:-0.611774
    202:0.214223
    203:0.095613
    204:0.599552
    205:-0.369814
    206:-0.007228
    207:-0.428273
    208:-0.188227
    209:-0.479301
    210:0.266805
    211:-0.630215
    212:-0.214520
    213:-0.912064
    214:-0.273346
    215:-1.062207
    216:-0.363010
    217:-0.988004
    218:0.164448
    219:-0.636139
    220:0.343678
    221:-0.241138
    222:0.712558
    223:-0.555900
    224:0.231175
    225:-0.151458
    226:0.679548
    227:-0.106258
    228:0.609131
    229:0.040408
    230:0.218939
    231:-0.310079
    232:-0.091607
    233:-0.422746
    234:0.186065
    235:-0.895193
    236:-0.259094
    237:-0.639547
    238:-0.470471
    239:-1.135583
    240:-0.612914
    241:-1.160603
    242:-0.551349
    243:-1.083081
    244:-0.072512
    245:-0.817662
    246:0.041291
    247:-0.237525
    248:0.293813
    249:0.067238
    250:0.615146
    251:-0.475246
    252:0.431322
    253:-0.544750
    254:0.312569
    255:-0.714777
    256:0.633310
    257:-0.264660
    258:0.095715
    259:-0.710009
    260:0.084596
    261:-0.513636
    262:-0.043652
    263:-0.809593
    264:-0.324432
    265:-0.900146
    266:-0.200109
    267:-0.564189
    268:-0.334525
    269:-0.893177
    270:-0.243311
    271:-1.142879
    272:-0.325621
    273:-0.411041
    274:-0.045877
    275:-0.424703
    276:0.508099
    277:-0.298905
    278:0.450597
    279:-0.618667
    280:0.563245
    281:-0.276223
    282:0.396194
    283:-0.323421
    284:0.049399
    285:-0.054754
    286:0.157560
    287:-0.347792
    288:-0.074029
    289:-0.723407
    290:-0.294012
    291:-1.152128
    292:-0.036893
    293:-0.726735
    294:0.389901
    295:-0.167723
    296:-0.254609
    297:-0.848909
    298:-0.475707
    299:-0.724317
    300:-0.014443
    301:-0.756278
    302:-0.027262
    303:-0.737047
    304:0.721761
    305:-0.208459
    306:0.193931
    307:-0.440869
    308:0.109369
    309:-0.595130
    310:0.358361
    311:-0.682732
    312:0.121050
    313:-0.161410
    314:0.008130
    315:-0.567613
    316:-0.148859
    317:-0.715949
    318:0.010862
    319:-0.726901
    320:-0.076550
    321:-0.267906
    322:0.724428
    323:-0.446620
    324:0.260401
    325:-0.109429
    326:0.446553
    327:-0.350273
    328:0.504205
    329:-0.715801
    330:-0.151678
    331:-0.297435
    332:0.574357
    333:-0.213448
    334:-0.012410
    335:-0.605711
    336:0.606149
    337:-0.218632
    338:0.346557
    339:0.030834
    340:0.107327
    341:-0.785887
    342:0.463996
    343:-0.355437
    344:0.101639
    345:-0.235184
    346:0.173519
    347:-0.251973
    348:0.066953
    349:0.073603
    350:1.018804
    351:0.165035
    352:0.137760
    353:-0.111084
    354:0.026154
    355:-0.284413
    356:0.287993
    357:-0.664805
    358:0.469068
    359:-0.254562
    360:0.678388
    361:-0.051268
    362:0.242343
    363:-0.509210
    364:0.327106
    365:-0.267628
    366:0.423578
    367:-0.152292
    368:0.476470
    369:-0.182341
    370:0.043814
    371:-0.553677
    372:0.128056
    373:-0.053734
    374:-0.124131
    375:-0.182873
    376:0.529287
    377:-0.126590
    378:0.841817
    379:-0.203534
    380:0.136561
    381:-0.106530
    382:-0.003275
    383:-0.080632
    384:0.413880
    385:-0.139605
    386:0.343886
    387:-0.624813
    388:0.321386
    389:-0.447402
    390:0.049877
    391:-0.648727
    392:0.570407
    393:-0.287305
    394:0.458564
    395:-0.147048
    396:0.465065
    397:-0.386713
    398:0.264466
    399:-0.345764
    400:0.157591
    401:-0.638195
    402:-0.087619
    403:-0.457047
    404:0.198383
    405:0.105160
    406:0.729280
    407:0.105054
    408:0.107251
    409:-0.733976
    410:0.507882
    411:-0.527327
    412:0.069703
    413:-0.574803
    414:0.572967
    415:-0.289182
    416:0.266762
    417:-0.446244
    418:0.277917
    419:-0.087706
    420:0.334984
    421:-0.321352
    422:0.037077
    423:-0.191849
    424:0.467425
    425:-0.719556
    426:0.208180
    427:-0.653390
    428:0.249611
    429:-0.485470
    430:-0.392605
    431:-0.404374
    432:0.154929
    433:0.146325
    434:0.877875
    435:-0.338497
    436:0.353870
    437:-0.246879
    438:0.102500
    439:-0.208529
    440:0.756704
    441:-0.065682
    442:0.539399
    443:-0.673522
    444:0.269156
    445:-0.566956
    446:0.353465
    447:-0.205843
    448:0.486524
    449:-0.645620
    450:0.302421
    451:-0.090173
    452:0.190571
    453:-0.533839
    454:0.020961
    455:-0.510784
    456:-0.453245
    457:-0.469044
    458:0.107906
    459:-0.251651
    460:0.128927
    461:0.268162
    462:0.619133
    463:-0.352061
    464:0.064745
    465:-0.902688
    466:0.397242
    467:-0.137273
    468:0.169747
    469:-0.125566
    470:0.381725
    471:0.008464
    472:0.575327
    473:-0.307747
    474:0.000937
    475:-0.585898
    476:0.384466
    477:-0.368205
    478:0.098817
    479:-0.102223
    480:0.306737
    481:-0.498780
    482:0.097395
    483:-0.792761
    484:-0.226585
    485:-0.896793
    486:-0.169156
    487:-0.236742
    488:0.595338
    489:-0.001388
    490:0.221695
    491:-0.172944
    492:0.003025
    493:-0.337124
    494:0.466107
    495:-0.043296
    496:0.647375
    497:-0.109763
    498:0.654163
    499:-0.318995
    500:0.528765
    501:-0.408048
    502:0.392025
    503:-0.187951
    504:0.155100
    505:-0.402450
    506:0.083256
    507:-0.426361
    508:0.155042
    509:-0.187985
    510:-0.038866
    511:-0.305581
    512:0.652919
    513:-0.014167
    514:0.608449
    515:-0.166924
    516:0.511907
    517:-0.184230
    518:0.688501
    519:-0.028118
    520:0.580470
    521:0.185336
    522:0.647430
    523:-0.076335
    524:0.752173
    525:-0.400252
    526:0.226114
    527:-0.091554
    528:0.261264
    529:-0.073537
    530:0.636090
    531:-0.624712
    532:0.527003
    533:-0.327984
    534:0.147282
    535:-0.574073
    536:0.164218
    537:-0.122948
    538:0.563061
    539:0.220972
    540:0.642848
    541:-0.019327
    542:1.081675
    543:0.636536
    544:0.804485
    545:0.317059
    546:0.210612
    547:-0.032003
    548:0.764748
    549:-0.230145
    550:0.826996
    551:0.203083
    552:0.356129
    553:0.147031
    554:0.580019
    555:-0.513553
    556:0.806191
    557:-0.569969
    558:0.226091
    559:-0.158583
    560:0.677408
    561:-0.154060
    562:0.106288
    563:-0.396246
    564:0.644267
    565:-0.076043
    566:0.661809
    567:-0.061476
    568:0.870155
    569:0.263808
    570:1.017455
    571:0.603082
    572:0.780871
    573:0.079370
    574:0.629875
    575:0.017584
    576:0.741193
    577:0.067594
    578:0.973599
    579:0.208143
    580:0.409798
    581:-0.316266
    582:0.336146
    583:-0.147939
    584:0.597515
    585:-0.650227
    586:0.340902
    587:-0.514895
    588:0.541480
    589:-0.566537
    590:0.683605
    591:-0.439908
    592:0.188217
    593:0.051323
    594:0.572108
    595:-0.029532
    596:0.731564
    597:0.242666
    598:0.728945
    599:-0.227689
    600:0.925283
    601:0.334419
    602:0.480495
    603:-0.038523
    604:0.903869
    605:0.153849
    606:0.514990
    607:-0.077824
    608:0.539644
    609:-0.004107
    610:0.678024
    611:-0.608195
    612:0.530783
    613:-0.040887
    614:0.346427
    615:-0.330105
    616:0.005428
    617:-0.686253
    618:0.150299
    619:-0.491993
    620:0.714973
    621:0.045588
    622:0.472262
    623:-0.375924
    624:0.364400
    625:-0.520260
    626:0.573846
    627:-0.356725
    628:0.086733
    629:-0.647640
    630:0.468295
    631:-0.310917
    632:0.267384
    633:-0.234202
    634:0.463407
    635:0.015068
    636:0.715503
    637:-0.445048
    638:0.588035
    639:-0.414709
    640:0.565045
    641:-0.386536
    642:0.395460
    643:-0.379612
    644:0.430147
    645:-0.041131
    646:0.011711
    647:-0.406239
    648:0.123448
    649:0.012056
    650:0.394855
    651:-0.618312
    652:0.224636
    653:-0.636170
    654:0.232754
    655:-0.808197
    656:0.191730
    657:-0.479443
    658:-0.211179
    659:-0.206712
    660:-0.101714
    661:-0.633259
    662:0.541771
    663:-0.271719
    664:0.277077
    665:-0.283021
    666:0.454263
    667:-0.243596
    668:0.038041
    669:-0.330934
    670:0.644106
    671:-0.605960
    672:0.016326
    673:-0.335521
    674:0.283736
    675:-0.439904
    676:0.392422
    677:-0.278608
    678:0.148523
    679:-0.496925
    680:0.329313
    681:-0.463963
    682:0.174240
    683:-0.299654
    684:0.072577
    685:-0.390880
    686:0.178485
    687:-0.514245
    688:-0.009663
    689:-0.741247
    690:0.234577
    691:-0.429892
    692:0.432829
    693:-0.323884
    694:0.590627
    695:-0.205082
    696:0.472056
    697:-0.420681
    698:0.434586
    699:-0.500336
    700:0.054921
    701:-0.373818
    702:0.406315
    703:-0.070957
    704:0.001375
    705:-0.730010
    706:0.440751
    707:-0.482647
    708:0.178203
    709:-0.810147
    710:-0.098182
    711:-0.260289
    712:0.223806
    713:-0.643414
    714:-0.179683
    715:-0.395383
    716:0.109568
    717:-0.742329
    718:0.276523
    719:-0.746189
    720:0.388720
    721:-0.299818
    722:0.139044
    723:-0.420590
    724:0.448148
    725:-0.102112
    726:0.601226
    727:-0.214923
    728:0.525907
    729:-0.334560
    730:0.015259
    731:-0.580975
    732:0.006088
    733:-0.426323
    734:0.642089
    735:-0.033099
    736:0.388905
    737:-0.500810
    738:0.353785
    739:-0.051059
    740:0.417109
    741:-0.533291
    742:-0.028747
    743:-0.313132
    744:0.079529
    745:-0.191994
    746:0.324607
    747:-0.643941
    748:0.604112
    749:-0.239892
    750:0.460935
    751:-0.466620
    752:0.448560
    753:-0.633028
    754:0.170630
    755:-0.198325
    756:0.035677
    757:-0.071215
    758:0.413248
    759:-0.561583
    760:0.405775
    761:-0.428572
    762:0.442249
    763:-0.415365
    764:0.148442
    765:-0.396406
    766:0.431061
    767:-0.562700
    768:0.161611
    769:-0.140114
    770:0.547604
    771:-0.647867
    772:0.625562
    773:-0.610068
    774:0.154392
    775:-0.104300
    776:0.000085
    777:-0.575530
    778:0.680102
    779:-0.645281
    780:0.114657
    781:-0.440188
    782:0.409661
    783:-0.563217
  Neuron 4:
    0:0.580292
    1:-0.061542
    2:0.408892
    3:-0.651506
    4:0.474790
    5:-0.270476
    6:0.357281
    7:-0.203296
    8:0.012886
    9:-0.071434
    10:0.353357
    11:-0.407372
    12:0.503000
    13:-0.217498
    14:0.571657
    15:-0.638878
    16:0.080899
    17:-0.505468
    18:0.568196
    19:-0.683065
    20:0.672984
    21:-0.665651
    22:0.685766
    23:-0.550902
    24:0.643908
    25:-0.631052
    26:0.665559
    27:-0.384096
    28:0.340713
    29:-0.528776
    30:0.057311
    31:-0.221005
    32:0.590318
    33:-0.466209
    34:0.171773
    35:-0.367360
    36:0.020278
    37:-0.544889
    38:0.565760
    39:-0.050090
    40:0.594865
    41:-0.223048
    42:0.455516
    43:-0.406430
    44:0.451462
    45:-0.330485
    46:0.327293
    47:-0.528187
    48:0.127982
    49:-0.224331
    50:0.501107
    51:-0.107042
    52:0.177254
    53:-0.488332
    54:0.657944
    55:-0.121162
    56:0.419383
    57:-0.623503
    58:0.505258
    59:-0.058871
    60:0.452652
    61:-0.562845
    62:0.277451
    63:-0.342948
    64:0.307268
    65:-0.504858
    66:-0.063625
    67:-0.409422
    68:0.252098
    69:-0.597008
    70:0.365485
    71:-0.248672
    72:0.016078
    73:-0.275136
    74:0.505257
    75:-0.588191
    76:0.450898
    77:-0.282362
    78:0.325821
    79:-0.639520
    80:0.444002
    81:-0.157967
    82:0.041645
    83:-0.621423
    84:0.646868
    85:-0.699588
    86:0.042586
    87:-0.362822
    88:0.624106
    89:-0.556504
    90:0.406523
    91:-0.381749
    92:0.388972
    93:-0.021301
    94:0.069658
    95:0.099257
    96:0.561574
    97:0.083108
    98:0.365883
    99:-0.159612
    100:0.584506
    101:-0.241415
    102:0.074809
    103:-0.825359
    104:0.158069
    105:-0.264059
    106:0.430298
    107:-0.098748
    108:0.356328
    109:-0.193388
    110:0.026641
    111:-0.094994
    112:0.350628
    113:-0.068401
    114:0.016601
    115:-0.296236
    116:0.087543
    117:-0.033534
    118:0.709502
    119:-0.615979
    120:0.797152
    121:-0.052091
    122:0.776711
    123:0.119100
    124:0.746204
    125:-0.036838
    126:0.428336
    127:-0.126634
    128:0.449043
    129:-0.035566
    130:0.234364
    131:-0.384278
    132:-0.017385
    133:-0.717059
    134:0.105121
    135:-0.661795
    136:0.473272
    137:-0.164881
    138:0.561983
    139:-0.203439
    140:0.339736
    141:-0.591267
    142:0.297667
    143:-0.680318
    144:0.752343
    145:-0.146557
    146:0.537599
    147:0.164396
    148:0.498267
    149:-0.023090
    150:0.405650
    151:-0.043496
    152:0.848599
    153:0.063877
    154:0.970185
    155:0.230869
    156:0.564978
    157:0.039428
    158:0.649280
    159:-0.408051
    160:0.181835
    161:-0.293837
    162:-0.249114
    163:-0.912378
    164:0.218074
    165:-0.478937
    166:0.232636
    167:-0.290573
    168:0.550757
    169:-0.130873
    170:0.484932
    171:-0.145229
    172:0.170808
    173:0.162254
    174:0.477189
    175:-0.533266
    176:0.500207
    177:-0.345041
    178:0.193452
    179:0.001338
    180:0.293063
    181:0.652736
    182:0.985374
    183:0.088023
    184:0.991950
    185:0.163439
    186:0.468801
    187:-0.478236
    188:0.514788
    189:-0.107497
    190:-0.042442
    191:-0.666041
    192:-0.364326
    193:-0.568188
    194:0.534092
    195:-0.548268
    196:0.057477
    197:-0.164502
    198:0.118364
    199:-0.552254
    200:0.478478
    201:-0.368773
    202:0.310933
    203:-0.376984
    204:0.520370
    205:-0.166358
    206:0.432494
    207:-0.360536
    208:0.309266
    209:0.048443
    210:0.953772
    211:0.425246
    212:0.764611
    213:0.288836
    214:0.263120
    215:-0.079075
    216:0.241284
    217:-0.434165
    218:0.183096
    219:-0.723151
    220:-0.139077
    221:-0.340721
    222:0.176176
    223:-0.537122
    224:0.451811
    225:-0.124634
    226:0.355011
    227:-0.473373
    228:0.412192
    229:-0.410213
    230:0.383518
    231:-0.890623
    232:0.060229
    233:-0.525579
    234:0.175819
    235:-0.552377
    236:-0.082071
    237:-0.732847
    238:0.425852
    239:0.767542
    240:0.981799
    241:0.020882
    242:0.511975
    243:-0.436252
    244:0.580779
    245:-0.223474
    246:0.291063
    247:-0.720094
    248:-0.051566
    249:-0.676781
    250:0.275410
    251:-0.308443
    252:0.434047
    253:-0.541337
    254:0.113841
    255:-0.197161
    256:0.629867
    257:-0.621889
    258:0.342459
    259:-0.802040
    260:-0.277682
    261:-0.853417
    262:-0.249781
    263:-1.250949
    264:-0.676668
    265:-0.855966
    266:0.658700
    267:0.516102
    268:0.872441
    269:-0.011964
    270:0.674921
    271:-0.176976
    272:0.322915
    273:-0.411397
    274:0.664836
    275:-0.308441
    276:-0.115258
    277:-0.742696
    278:0.177965
    279:-0.104191
    280:0.128447
    281:-0.535401
    282:0.382345
    283:-0.576515
    284:0.238145
    285:-0.814125
    286:-0.529522
    287:-1.078640
    288:-0.465319
    289:-0.877035
    290:-0.361746
    291:-1.484524
    292:-0.532671
    293:-1.089223
    294:0.812793
    295:-0.275891
    296:0.585887
    297:0.084478
    298:0.749510
    299:-0.051157
    300:0.962011
    301:0.299454
    302:0.967549
    303:0.194348
    304:0.199910
    305:-0.778021
    306:0.061407
    307:-0.287290
    308:0.448214
    309:-0.295540
    310:0.373351
    311:-0.605341
    312:-0.063341
    313:-0.489933
    314:-0.224490
    315:-1.141055
    316:0.021236
    317:-0.923457
    318:-0.363504
    319:-0.850005
    320:-0.146997
    321:-0.976214
    322:-0.103717
    323:-0.584769
    324:0.287273
    325:-0.152519
    326:0.554067
    327:0.198209
    328:0.665866
    329:-0.213856
    330:1.023826
    331:0.281804
    332:1.031567
    333:-0.650381
    334:0.279128
    335:-0.023843
    336:0.559934
    337:-0.368504
    338:0.288925
    339:-0.360072
    340:0.449469
    341:-1.000511
    342:-0.192658
    343:-0.459095
    344:-0.079770
    345:-0.483582
    346:0.343720
    347:-0.522692
    348:-0.016643
    349:-0.977216
    350:-0.171159
    351:-0.772999
    352:0.045564
    353:-0.924872
    354:0.379273
    355:-0.378304
    356:0.681753
    357:0.003771
    358:0.917102
    359:0.150677
    360:1.074513
    361:-0.637792
    362:0.524439
    363:-0.649701
    364:0.523694
    365:-0.120283
    366:0.651632
    367:-0.422423
    368:0.367135
    369:-0.395382
    370:0.669488
    371:-0.246907
    372:0.386062
    373:-0.289099
    374:0.142430
    375:-0.729625
    376:-0.038169
    377:-0.592896
    378:0.121266
    379:-0.988157
    380:-0.183136
    381:-0.450052
    382:-0.126756
    383:-0.402093
    384:0.417097
    385:-0.578617
    386:0.719665
    387:-0.170190
    388:0.905821
    389:-0.611227
    390:0.121123
    391:-0.679390
    392:0.518768
    393:-0.638622
    394:0.621578
    395:-0.358582
    396:0.118733
    397:-0.417533
    398:0.413159
    399:0.015168
    400:0.417113
    401:-0.034353
    402:-0.027863
    403:-0.626835
    404:0.022925
    405:-0.296386
    406:-0.113016
    407:-0.804904
    408:-0.033318
    409:-0.732104
    410:-0.081966
    411:-0.293647
    412:0.416104
    413:-0.141479
    414:0.143598
    415:-0.228353
    416:0.211867
    417:-0.077281
    418:0.297459
    419:-0.047956
    420:0.668041
    421:-0.378724
    422:0.028943
    423:-0.489730
    424:0.518581
    425:-0.092852
    426:0.623447
    427:0.196804
    428:0.800393
    429:-0.011174
    430:0.179194
    431:-0.330185
    432:-0.244376
    433:-0.841396
    434:-0.022409
    435:-1.105152
    436:0.047694
    437:-0.735410
    438:0.555718
    439:-0.471543
    440:0.434634
    441:-0.068809
    442:0.375500
    443:-0.218507
    444:0.317485
    445:-0.484235
    446:0.175585
    447:-0.295815
    448:0.568090
    449:-0.418126
    450:0.369432
    451:-0.495082
    452:0.379738
    453:0.330238
    454:0.859211
    455:-0.035561
    456:0.501352
    457:-0.209206
    458:0.208863
    459:-0.399413
    460:0.257598
    461:-0.707661
    462:-0.564960
    463:-1.049037
    464:-0.138998
    465:-0.079540
    466:0.685910
    467:0.076826
    468:-0.044843
    469:-0.442044
    470:0.581024
    471:-0.443440
    472:0.520036
    473:0.015631
    474:0.247061
    475:-0.029377
    476:0.537609
    477:-0.370780
    478:0.363744
    479:-0.302118
    480:0.400753
    481:-0.135677
    482:0.617383
    483:-0.033717
    484:0.359828
    485:-0.583798
    486:0.557095
    487:-0.804310
    488:0.060957
    489:-0.490304
    490:-0.449574
    491:-0.709085
    492:0.542668
    493:-0.146797
    494:0.497629
    495:-0.220171
    496:0.338512
    497:-0.214218
    498:0.778196
    499:-0.470268
    500:0.523589
    501:-0.284741
    502:0.340144
    503:-0.264379
    504:0.400096
    505:-0.543485
    506:0.324328
    507:-0.059366
    508:0.505152
    509:-0.174090
    510:0.710174
    511:-0.357595
    512:0.638309
    513:-0.197192
    514:0.503060
    515:-0.153158
    516:-0.055885
    517:-0.707209
    518:-0.112087
    519:-0.367077
    520:0.917006
    521:-0.055892
    522:0.800791
    523:0.119516
    524:0.162041
    525:-0.168239
    526:0.206587
    527:-0.554006
    528:0.315478
    529:-0.066837
    530:0.479994
    531:-0.031933
    532:0.510845
    533:-0.084266
    534:0.324323
    535:0.030203
    536:0.933871
    537:-0.281563
    538:0.510641
    539:-0.118645
    540:0.472180
    541:-0.259010
    542:0.804669
    543:-0.002495
    544:0.606121
    545:-0.416672
    546:-0.022845
    547:-0.417904
    548:0.513194
    549:-0.129192
    550:0.468655
    551:-0.257463
    552:0.188631
    553:-0.138273
    554:0.218580
    555:-0.205706
    556:0.449610
    557:-0.307846
    558:0.257337
    559:-0.643982
    560:0.521389
    561:-0.008969
    562:0.702503
    563:-0.106789
    564:0.466162
    565:0.015926
    566:0.616466
    567:-0.090194
    568:0.010949
    569:-0.215958
    570:0.304822
    571:-0.487098
    572:0.484581
    573:-0.720150
    574:0.528937
    575:-0.389755
    576:0.298070
    577:-0.388689
    578:0.722541
    579:-0.093858
    580:0.239099
    581:0.058964
    582:0.230767
    583:-0.173716
    584:0.359338
    585:-0.313241
    586:0.475672
    587:-0.658630
    588:0.039356
    589:-0.015973
    590:0.631177
    591:-0.394150
    592:0.317967
    593:-0.238082
    594:0.325250
    595:-0.106879
    596:0.143126
    597:-0.024794
    598:0.151122
    599:-0.204695
    600:0.300837
    601:-0.279746
    602:0.393085
    603:-0.281389
    604:0.328723
    605:-0.126764
    606:0.226324
    607:-0.365399
    608:0.621152
    609:-0.569549
    610:0.079588
    611:-0.629007
    612:0.117124
    613:-0.167431
    614:0.176594
    615:-0.318254
    616:0.570422
    617:-0.641464
    618:0.306415
    619:-0.499888
    620:0.836874
    621:0.052241
    622:0.677150
    623:-0.478245
    624:0.279638
    625:-0.431594
    626:0.311452
    627:-0.109514
    628:0.609468
    629:-0.317771
    630:0.329824
    631:-0.439873
    632:0.472900
    633:-0.257965
    634:0.576345
    635:-0.084238
    636:0.196971
    637:-0.088373
    638:0.594124
    639:0.007280
    640:0.115109
    641:-0.541980
    642:0.010934
    643:-0.123205
    644:0.055749
    645:-0.180129
    646:0.460538
    647:-0.566250
    648:0.193551
    649:0.045660
    650:0.650034
    651:0.053256
    652:0.281056
    653:0.023899
    654:0.241831
    655:-0.103366
    656:0.477758
    657:-0.166703
    658:0.353900
    659:-0.345391
    660:0.194324
    661:-0.475131
    662:0.631242
    663:-0.240301
    664:0.259929
    665:-0.582648
    666:0.365180
    667:-0.528987
    668:0.657218
    669:-0.159702
    670:0.589131
    671:-0.028258
    672:0.012485
    673:-0.596051
    674:0.161161
    675:-0.042617
    676:0.103864
    677:-0.597217
    678:0.632362
    679:-0.274402
    680:0.521273
    681:-0.603843
    682:0.215652
    683:-0.001475
    684:0.353274
    685:-0.200891
    686:0.426873
    687:-0.512926
    688:0.332855
    689:-0.263755
    690:0.533337
    691:-0.342122
    692:0.290681
    693:-0.622501
    694:0.443839
    695:-0.047654
    696:0.421346
    697:-0.074529
    698:0.592347
    699:-0.363880
    700:0.239914
    701:-0.475750
    702:0.392934
    703:-0.255496
    704:0.355413
    705:-0.578978
    706:0.236527
    707:-0.616647
    708:0.270010
    709:-0.533227
    710:0.380537
    711:-0.566562
    712:-0.084187
    713:-0.446515
    714:0.241428
    715:-0.483517
    716:0.352355
    717:-0.282388
    718:0.600738
    719:-0.386061
    720:0.204799
    721:-0.693739
    722:0.555721
    723:-0.599299
    724:0.539393
    725:-0.313840
    726:0.639489
    727:-0.252134
    728:0.396832
    729:-0.526088
    730:0.616014
    731:-0.636728
    732:0.301547
    733:-0.312788
    734:0.180272
    735:-0.694610
    736:0.107097
    737:-0.609151
    738:0.307271
    739:-0.710416
    740:0.030981
    741:-0.513300
    742:0.042544
    743:-0.429451
    744:0.453506
    745:-0.794593
    746:0.486823
    747:-0.479780
    748:0.104445
    749:-0.560205
    750:0.103658
    751:-0.337959
    752:0.507194
    753:-0.677985
    754:0.234091
    755:-0.347165
    756:0.294300
    757:-0.170621
    758:0.599299
    759:-0.691132
    760:0.696707
    761:-0.515416
    762:0.628079
    763:-0.296963
    764:0.124670
    765:-0.129663
    766:0.251968
    767:-0.283485
    768:0.617198
    769:-0.711073
    770:0.136348
    771:-0.070615
    772:0.340690
    773:-0.421800
    774:0.303650
    775:-0.256749
    776:0.391647
    777:-0.178773
    778:-0.008724
    779:-0.503785
    780:0.015816
    781:-0.115335
    782:0.139253
    783:-0.523010
  Neuron 5:
    0:0.373344
    1:-0.170174
    2:0.387620
    3:-0.543965
    4:0.069473
    5:-0.378752
    6:0.540674
    7:-0.584786
    8:0.306631
    9:-0.139221
    10:0.008252
    11:-0.423656
    12:0.411405
    13:-0.283475
    14:0.350460
    15:-0.405214
    16:0.446959
    17:-0.402085
    18:0.066393
    19:-0.146494
    20:0.023928
    21:-0.317571
    22:0.538511
    23:-0.198222
    24:0.319868
    25:-0.340095
    26:0.214039
    27:-0.435204
    28:0.479347
    29:-0.037049
    30:0.528523
    31:-0.152691
    32:0.207223
    33:-0.216143
    34:0.696636
    35:-0.276701
    36:0.594957
    37:-0.537274
    38:0.161513
    39:-0.201467
    40:0.676566
    41:-0.169826
    42:0.625447
    43:-0.387307
    44:0.453396
    45:-0.275603
    46:0.093182
    47:-0.200254
    48:0.677653
    49:-0.159576
    50:0.346660
    51:-0.001655
    52:0.477138
    53:-0.185167
    54:0.199880
    55:-0.097006
    56:0.525262
    57:-0.413919
    58:0.532210
    59:-0.304610
    60:0.450967
    61:-0.360739
    62:0.457203
    63:-0.658259
    64:0.576835
    65:-0.453851
    66:0.235123
    67:-0.471205
    68:0.291950
    69:-0.395666
    70:0.673598
    71:-0.265711
    72:0.569831
    73:-0.593181
    74:0.656822
    75:-0.319714
    76:0.174833
    77:-0.048866
    78:0.519471
    79:-0.151881
    80:0.208530
    81:-0.166124
    82:0.153512
    83:-0.685676
    84:0.351292
    85:-0.353392
    86:0.082683
    87:-0.176555
    88:0.067309
    89:-0.614950
    90:0.481824
    91:-0.517106
    92:0.276512
    93:-0.239194
    94:0.475867
    95:-0.152011
    96:0.695226
    97:-0.007169
    98:0.629022
    99:-0.274662
    100:0.418275
    101:-0.584187
    102:0.566153
    103:-0.270097
    104:0.496779
    105:-0.507567
    106:0.593512
    107:-0.669410
    108:0.556785
    109:-0.412591
    110:0.122038
    111:-0.064860
    112:0.578724
    113:-0.275543
    114:0.050493
    115:-0.229966
    116:0.629204
    117:-0.133048
    118:0.407586
    119:-0.694410
    120:0.047211
    121:-0.187845
    122:0.511579
    123:-0.329315
    124:0.431895
    125:-0.269114
    126:0.510968
    127:-0.378397
    128:0.331225
    129:-0.374748
    130:0.018382
    131:-0.005756
    132:0.299226
    133:-0.551656
    134:0.293942
    135:-0.083281
    136:0.363480
    137:-0.176088
    138:0.064318
    139:-0.217534
    140:0.589618
    141:-0.186336
    142:0.282409
    143:-0.468335
    144:0.461995
    145:-0.333156
    146:0.700283
    147:-0.385155
    148:0.477240
    149:-0.388698
    150:0.396794
    151:-0.509037
    152:0.608426
    153:-0.148431
    154:0.222911
    155:-0.231250
    156:0.544574
    157:-0.582373
    158:0.069317
    159:-0.081317
    160:0.335978
    161:0.001768
    162:0.142665
    163:-0.584390
    164:0.600572
    165:-0.386523
    166:0.007129
    167:-0.254890
    168:0.565883
    169:-0.071271
    170:0.472365
    171:-0.455421
    172:0.261872
    173:-0.048497
    174:0.229238
    175:-0.005561
    176:0.406904
    177:-0.199622
    178:0.430660
    179:-0.141618
    180:0.648799
    181:-0.017652
    182:0.784155
    183:-0.400243
    184:0.380845
    185:-0.048087
    186:0.191216
    187:-0.058121
    188:0.062333
    189:-0.121870
    190:0.238463
    191:-0.299164
    192:0.231546
    193:-0.286252
    194:0.248685
    195:-0.109532
    196:0.680253
    197:-0.255137
    198:0.364221
    199:-0.546174
    200:0.335567
    201:-0.123719
    202:0.316356
    203:-0.545259
    204:0.231774
    205:-0.486539
    206:0.633668
    207:-0.562468
    208:0.078340
    209:-0.223904
    210:0.145833
    211:-0.554122
    212:0.498871
    213:0.061396
    214:0.546455
    215:0.032264
    216:0.157932
    217:-0.570113
    218:0.155528
    219:-0.088142
    220:0.135679
    221:-0.274806
    222:0.465877
    223:-0.325275
    224:0.579363
    225:-0.012434
    226:0.434610
    227:-0.559572
    228:0.281809
    229:-0.083458
    230:0.435263
    231:-0.545582
    232:0.280486
    233:0.031396
    234:0.519689
    235:-0.382665
    236:0.599983
    237:-0.276138
    238:0.410436
    239:-0.476072
    240:0.770543
    241:-0.278942
    242:0.607264
    243:-0.346473
    244:0.426079
    245:-0.278007
    246:0.464617
    247:-0.415817
    248:0.308199
    249:-0.501111
    250:0.582876
    251:-0.392537
    252:0.105733
    253:-0.346293
    254:0.018095
    255:-0.687590
    256:0.372489
    257:-0.429054
    258:0.574969
    259:-0.587307
    260:0.584197
    261:-0.210779
    262:0.563813
    263:-0.028272
    264:0.331376
    265:-0.195717
    266:0.623809
    267:0.006245
    268:0.748069
    269:-0.063352
    270:0.735011
    271:-0.581626
    272:0.566186
    273:-0.459759
    274:0.425893
    275:-0.080771
    276:0.197719
    277:-0.086259
    278:0.569156
    279:-0.459044
    280:0.614869
    281:-0.448381
    282:0.152383
    283:-0.017608
    284:0.111812
    285:-0.146968
    286:0.026873
    287:-0.421581
    288:0.648581
    289:-0.512090
    290:0.429160
    291:-0.386099
    292:0.191425
    293:-0.100950
    294:0.673499
    295:-0.217000
    296:0.585871
    297:-0.311746
    298:0.534381
    299:-0.370019
    300:0.594621
    301:-0.373138
    302:0.480812
    303:-0.262517
    304:0.259169
    305:-0.125603
    306:0.396671
    307:-0.423416
    308:0.229943
    309:-0.258378
    310:0.182982
    311:-0.136296
    312:0.028438
    313:-0.314573
    314:0.179748
    315:-0.073759
    316:0.537093
    317:-0.133297
    318:0.610365
    319:-0.323768
    320:0.114546
    321:-0.126332
    322:0.330123
    323:0.037404
    324:0.535766
    325:0.008949
    326:0.569019
    327:-0.134479
    328:0.514774
    329:-0.199247
    330:0.032082
    331:-0.246946
    332:0.664782
    333:-0.448836
    334:0.543666
    335:-0.200447
    336:0.592882
    337:-0.231934
    338:0.624408
    339:-0.111126
    340:0.515446
    341:-0.090274
    342:0.283921
    343:-0.463777
    344:0.475100
    345:-0.389037
    346:0.667589
    347:-0.143385
    348:0.688273
    349:-0.334954
    350:0.810671
    351:-0.480607
    352:0.767800
    353:-0.098193
    354:0.129113
    355:-0.346043
    356:0.284859
    357:-0.515106
    358:0.667536
    359:0.007073
    360:0.070733
    361:-0.649039
    362:0.264298
    363:-0.020625
    364:0.416965
    365:-0.103076
    366:0.222359
    367:-0.298978
    368:0.361979
    369:-0.130527
    370:0.446820
    371:-0.093844
    372:0.281870
    373:0.046068
    374:0.712922
    375:-0.575039
    376:0.531779
    377:-0.381275
    378:0.388205
    379:-0.184530
    380:0.377076
    381:-0.119735
    382:0.340976
    383:-0.204632
    384:0.425173
    385:-0.301185
    386:0.689142
    387:-0.639271
    388:0.166232
    389:-0.613297
    390:0.653016
    391:-0.223468
    392:0.576899
    393:-0.214181
    394:0.244582
    395:-0.283419
    396:0.343017
    397:-0.448775
    398:0.619544
    399:-0.621731
    400:0.655022
    401:-0.266431
    402:0.181078
    403:-0.056428
    404:0.444167
    405:-0.545519
    406:0.333199
    407:0.103243
    408:0.646730
    409:-0.302226
    410:0.478266
    411:-0.041567
    412:0.654287
    413:-0.656190
    414:0.357737
    415:-0.307274
    416:0.309888
    417:-0.304937
    418:0.271721
    419:-0.457397
    420:0.229272
    421:-0.221903
    422:0.681040
    423:-0.096345
    424:0.456834
    425:-0.196130
    426:0.437373
    427:0.001266
    428:0.761365
    429:-0.201326
    430:0.125412
    431:-0.500101
    432:0.748230
    433:0.078733
    434:0.244260
    435:-0.107314
    436:0.204967
    437:-0.143361
    438:0.413462
    439:-0.532531
    440:0.658735
    441:-0.035874
    442:0.699010
    443:-0.535132
    444:0.050123
    445:-0.312878
    446:0.170919
    447:-0.342761
    448:0.627069
    449:-0.440060
    450:0.100170
    451:-0.156291
    452:0.671046
    453:-0.056210
    454:0.308184
    455:-0.327008
    456:0.395253
    457:-0.563994
    458:0.531662
    459:-0.239476
    460:0.351101
    461:-0.305581
    462:0.357487
    463:-0.056694
    464:0.630831
    465:-0.181011
    466:0.571259
    467:-0.531217
    468:0.524763
    469:-0.108312
    470:0.535898
    471:-0.402718
    472:0.202606
    473:-0.490541
    474:0.264618
    475:-0.233821
    476:0.112534
    477:-0.432294
    478:0.577168
    479:-0.039772
    480:0.174030
    481:-0.663112
    482:0.236380
    483:-0.067361
    484:0.129738
    485:-0.389682
    486:0.603549
    487:-0.301046
    488:0.519020
    489:-0.131976
    490:0.821689
    491:-0.540152
    492:0.118697
    493:-0.073306
    494:0.282797
    495:-0.497692
    496:0.469591
    497:-0.644989
    498:0.518839
    499:-0.198867
    500:0.119142
    501:-0.312601
    502:0.630733
    503:-0.302090
    504:0.109379
    505:-0.192553
    506:0.536940
    507:-0.221579
    508:0.626477
    509:-0.400275
    510:0.304848
    511:-0.039937
    512:0.443708
    513:-0.402628
    514:0.306054
    515:-0.377685
    516:0.318442
    517:0.084136
    518:0.275373
    519:-0.525020
    520:0.400623
    521:-0.004615
    522:0.690502
    523:-0.333481
    524:0.264953
    525:-0.095714
    526:0.285557
    527:-0.645497
    528:0.107692
    529:-0.065189
    530:0.176448
    531:-0.203600
    532:0.383416
    533:-0.105589
    534:0.506383
    535:-0.492301
    536:0.297168
    537:-0.328233
    538:0.052930
    539:-0.176152
    540:0.102247
    541:-0.223426
    542:0.403609
    543:-0.355253
    544:0.163578
    545:-0.395066
    546:0.334883
    547:-0.160864
    548:0.670386
    549:-0.245168
    550:0.256073
    551:-0.222382
    552:0.407758
    553:-0.093058
    554:0.662336
    555:-0.614976
    556:0.231499
    557:-0.219885
    558:0.586906
    559:-0.321867
    560:0.289812
    561:-0.062739
    562:0.525704
    563:-0.673612
    564:0.167154
    565:-0.316642
    566:0.496411
    567:-0.429783
    568:0.711765
    569:-0.419274
    570:0.772649
    571:0.071245
    572:0.179012
    573:-0.184661
    574:0.583718
    575:-0.000818
    576:0.212909
    577:-0.611143
    578:0.399019
    579:-0.047862
    580:0.318022
    581:-0.510411
    582:0.347122
    583:-0.673780
    584:0.638139
    585:-0.291938
    586:0.603687
    587:-0.163691
    588:0.513336
    589:-0.490262
    590:0.485575
    591:-0.104156
    592:0.551143
    593:-0.299395
    594:0.094712
    595:0.002794
    596:0.675243
    597:-0.506855
    598:0.550339
    599:-0.508319
    600:0.436626
    601:-0.379778
    602:0.741583
    603:-0.290586
    604:0.150316
    605:-0.384648
    606:0.498146
    607:-0.225142
    608:0.431920
    609:-0.095413
    610:0.330667
    611:0.003300
    612:0.636462
    613:-0.665981
    614:0.678866
    615:-0.572422
    616:0.257966
    617:-0.582879
    618:0.036140
    619:-0.072158
    620:0.372272
    621:-0.520711
    622:0.181742
    623:-0.200142
    624:0.162289
    625:-0.215625
    626:0.306218
    627:0.028440
    628:0.199219
    629:0.043233
    630:0.768028
    631:-0.333959
    632:0.563573
    633:-0.619163
    634:0.121789
    635:-0.577575
    636:0.386257
    637:-0.559952
    638:0.152046
    639:-0.080995
    640:0.677050
    641:-0.473381
    642:0.083693
    643:-0.612683
    644:0.439073
    645:-0.062926
    646:0.485119
    647:-0.697556
    648:0.648179
    649:-0.510277
    650:0.086209
    651:-0.300712
    652:0.365316
    653:-0.207283
    654:0.596429
    655:-0.390501
    656:0.560112
    657:-0.043865
    658:0.609394
    659:-0.528926
    660:0.165045
    661:-0.513072
    662:0.330531
    663:-0.618175
    664:0.499377
    665:-0.395014
    666:0.542571
    667:-0.160542
    668:0.265970
    669:-0.688378
    670:0.245070
    671:-0.242027
    672:0.461802
    673:-0.328720
    674:0.154803
    675:-0.200552
    676:0.402489
    677:-0.618964
    678:0.216306
    679:-0.320345
    680:0.478160
    681:-0.248369
    682:0.679568
    683:-0.078612
    684:0.528314
    685:-0.471458
    686:0.615598
    687:-0.270662
    688:0.625625
    689:-0.407849
    690:0.219924
    691:-0.001700
    692:0.281668
    693:-0.489742
    694:0.663420
    695:-0.061801
    696:0.191786
    697:-0.503035
    698:0.223891
    699:-0.457296
    700:0.491431
    701:-0.468922
    702:0.699329
    703:-0.251514
    704:0.105888
    705:-0.149806
    706:0.454197
    707:-0.486802
    708:0.098180
    709:-0.646139
    710:0.136100
    711:-0.548114
    712:0.226529
    713:-0.074087
    714:0.661796
    715:-0.023415
    716:0.594868
    717:-0.535169
    718:0.328398
    719:-0.476513
    720:0.266301
    721:-0.519791
    722:0.501512
    723:-0.543033
    724:0.312038
    725:-0.463567
    726:0.605369
    727:-0.503805
    728:0.266613
    729:-0.129262
    730:0.261101
    731:-0.058041
    732:0.598182
    733:-0.260606
    734:0.311263
    735:-0.695448
    736:0.416878
    737:-0.063238
    738:0.486397
    739:-0.503666
    740:0.025587
    741:-0.606075
    742:0.366263
    743:-0.231860
    744:0.699932
    745:-0.320445
    746:0.261536
    747:-0.578818
    748:0.155914
    749:-0.593371
    750:0.358645
    751:-0.428513
    752:0.412482
    753:-0.159238
    754:0.271613
    755:-0.024537
    756:0.622805
    757:-0.176983
    758:0.528342
    759:-0.189417
    760:0.306245
    761:-0.089441
    762:0.247482
    763:-0.204375
    764:0.349908
    765:-0.558737
    766:0.200287
    767:-0.064268
    768:0.624204
    769:-0.685295
    770:0.572649
    771:-0.641453
    772:0.597543
    773:-0.235794
    774:0.176892
    775:-0.592251
    776:0.557631
    777:-0.440075
    778:0.472079
    779:-0.017776
    780:0.333221
    781:-0.130235
    782:0.446315
    783:-0.045703
  Neuron 6:
    0:0.017929
    1:-0.070241
    2:0.212278
    3:-0.194912
    4:0.598583
    5:-0.401695
    6:0.501157
    7:-0.688026
    8:0.649157
    9:-0.005586
    10:0.337893
    11:-0.507895
    12:0.204943
    13:-0.404234
    14:0.431959
    15:-0.191208
    16:0.274846
    17:-0.373553
    18:0.088422
    19:-0.510662
    20:0.550770
    21:-0.680630
    22:0.368417
    23:-0.290995
    24:0.452470
    25:-0.386223
    26:0.624216
    27:-0.582705
    28:0.132538
    29:-0.669919
    30:0.172178
    31:-0.150467
    32:0.040160
    33:-0.384471
    34:0.339993
    35:-0.647635
    36:0.073145
    37:-0.151464
    38:0.620000
    39:-0.038667
    40:0.148968
    41:-0.271325
    42:0.537284
    43:-0.366732
    44:0.657051
    45:-0.279080
    46:0.546820
    47:-0.243976
    48:0.647486
    49:-0.636554
    50:0.052145
    51:-0.499817
    52:0.618220
    53:-0.420804
    54:0.090543
    55:-0.370690
    56:0.107027
    57:-0.014758
    58:0.253395
    59:-0.239567
    60:0.684679
    61:-0.425628
    62:0.387207
    63:-0.044089
    64:0.077800
    65:-0.068003
    66:0.600289
    67:-0.266811
    68:0.109049
    69:-0.680776
    70:0.104852
    71:-0.442014
    72:0.059721
    73:-0.137371
    74:0.646822
    75:-0.168986
    76:0.310650
    77:-0.566194
    78:0.346623
    79:-0.309929
    80:0.473626
    81:-0.416005
    82:0.098244
    83:-0.397012
    84:0.136809
    85:-0.188787
    86:0.067702
    87:-0.243872
    88:0.203466
    89:-0.323416
    90:0.476126
    91:-0.228885
    92:-0.016078
    93:-0.287090
    94:0.036253
    95:-0.363812
    96:0.062138
    97:-0.355978
    98:0.172715
    99:-0.494010
    100:0.011002
    101:-0.607885
    102:-0.048691
    103:-0.344563
    104:0.526545
    105:-0.113389
    106:0.233140
    107:-0.388947
    108:0.518768
    109:-0.011664
    110:0.607829
    111:-0.336896
    112:0.423523
    113:-0.005928
    114:0.034310
    115:-0.559074
    116:0.206755
    117:-0.105012
    118:0.104208
    119:-0.399395
    120:0.399731
    121:-0.690946
    122:0.485985
    123:-0.623040
    124:-0.177957
    125:-0.440018
    126:0.311088
    127:-0.430421
    128:0.232820
    129:-0.156660
    130:0.906503
    131:-0.079412
    132:0.238814
    133:-0.643923
    134:0.552186
    135:-0.142395
    136:0.017481
    137:-0.211518
    138:0.421697
    139:-0.563411
    140:0.216603
    141:-0.339076
    142:0.197642
    143:-0.643359
    144:0.347895
    145:-0.208777
    146:0.519777
    147:-0.468779
    148:0.418591
    149:-0.556754
    150:0.172753
    151:-0.269069
    152:-0.032796
    153:-0.716454
    154:-0.065085
    155:-0.677819
    156:0.221385
    157:-0.568667
    158:0.114875
    159:-0.286716
    160:0.222487
    161:0.042885
    162:0.234767
    163:-0.000819
    164:0.223619
    165:0.025399
    166:0.315105
    167:-0.071714
    168:0.217646
    169:-0.047120
    170:0.632784
    171:-0.429958
    172:0.410279
    173:-0.065345
    174:0.448045
    175:0.082757
    176:0.478579
    177:-0.109141
    178:0.585421
    179:-0.503626
    180:0.096592
    181:-0.016910
    182:0.055818
    183:-0.676322
    184:0.273720
    185:-0.396953
    186:0.505145
    187:-0.394751
    188:0.484948
    189:-0.338007
    190:0.461582
    191:-0.168482
    192:0.757864
    193:-0.325644
    194:0.598390
    195:0.003390
    196:0.409998
    197:-0.161369
    198:0.071087
    199:-0.601404
    200:0.256070
    201:0.086900
    202:0.415689
    203:-0.321514
    204:0.315395
    205:0.020968
    206:0.603920
    207:-0.377652
    208:0.648532
    209:-0.095408
    210:0.458286
    211:-0.546610
    212:0.418884
    213:-0.162912
    214:0.285419
    215:0.079881
    216:0.653777
    217:-0.358264
    218:0.685062
    219:-0.017218
    220:0.496019
    221:-0.018092
    222:0.476551
    223:-0.359772
    224:0.560962
    225:-0.241295
    226:0.373382
    227:-0.213719
    228:0.506115
    229:-0.393529
    230:0.278403
    231:-0.412589
    232:0.456298
    233:-0.502844
    234:0.496609
    235:-0.395198
    236:0.750690
    237:-0.394882
    238:0.257988
    239:-0.296348
    240:0.319840
    241:0.231000
    242:0.512113
    243:-0.043112
    244:0.122086
    245:-0.410526
    246:0.315515
    247:-0.376954
    248:0.616650
    249:-0.035542
    250:0.493025
    251:-0.178937
    252:0.362497
    253:-0.146597
    254:0.573377
    255:-0.133127
    256:0.462380
    257:-0.194582
    258:0.412650
    259:-0.202236
    260:0.493500
    261:-0.519034
    262:0.170047
    263:-0.347426
    264:0.562053
    265:-0.513190
    266:0.180252
    267:-0.212288
    268:0.620326
    269:-0.255095
    270:0.381488
    271:-0.548015
    272:0.268424
    273:-0.129514
    274:0.037736
    275:-0.138146
    276:0.196945
    277:-0.122627
    278:0.567113
    279:-0.527484
    280:0.508246
    281:-0.278406
    282:0.048411
    283:-0.085676
    284:0.497222
    285:-0.581865
    286:0.123645
    287:-0.262992
    288:0.008315
    289:-0.202225
    290:0.164074
    291:-0.232450
    292:-0.041448
    293:-0.383243
    294:0.264242
    295:0.432508
    296:0.552099
    297:-0.272479
    298:0.101864
    299:-0.375031
    300:0.828219
    301:-0.280483
    302:0.046588
    303:-0.290729
    304:0.364613
    305:-0.144461
    306:0.205506
    307:-0.608090
    308:0.527498
    309:-0.674819
    310:0.478478
    311:-0.252806
    312:0.365036
    313:-0.485447
    314:0.350118
    315:-0.739202
    316:0.068141
    317:-0.401634
    318:-0.005741
    319:-0.278989
    320:0.324592
    321:-0.468606
    322:0.371316
    323:0.074499
    324:0.944313
    325:0.079948
    326:0.322022
    327:-0.476938
    328:0.206709
    329:-0.527860
    330:0.000188
    331:-0.456259
    332:0.239172
    333:-0.576360
    334:0.088193
    335:-0.390862
    336:0.112395
    337:-0.205150
    338:0.318709
    339:-0.599884
    340:0.316912
    341:0.018862
    342:0.285507
    343:-0.287105
    344:0.491038
    345:-0.129252
    346:0.508191
    347:0.132176
    348:0.348122
    349:-0.601955
    350:0.606726
    351:-0.114463
    352:0.551115
    353:-0.055559
    354:0.487500
    355:-0.032557
    356:0.082076
    357:-0.792724
    358:-0.369389
    359:-0.851090
    360:0.292449
    361:-0.483326
    362:0.375749
    363:-0.466614
    364:0.355433
    365:-0.437623
    366:0.165052
    367:-0.453746
    368:0.722813
    369:-0.262124
    370:0.640888
    371:0.166488
    372:0.623069
    373:-0.605855
    374:0.587361
    375:-0.192363
    376:0.041090
    377:-0.379007
    378:0.524113
    379:-0.089859
    380:0.474886
    381:-0.094507
    382:0.307615
    383:-0.331339
    384:0.225089
    385:-0.262667
    386:0.247995
    387:-1.019056
    388:0.112477
    389:-0.711719
    390:0.319314
    391:-0.211080
    392:0.445757
    393:-0.001587
    394:0.685112
    395:-0.099989
    396:0.451273
    397:0.019431
    398:0.827370
    399:-0.013853
    400:0.909772
    401:0.110068
    402:0.654103
    403:-0.509419
    404:0.229818
    405:-0.556527
    406:0.616492
    407:-0.119016
    408:0.379773
    409:-0.169120
    410:0.690783
    411:-0.088564
    412:0.858350
    413:-0.057033
    414:0.119894
    415:-0.363337
    416:0.093845
    417:-0.724067
    418:0.231427
    419:-0.493982
    420:0.675414
    421:-0.558115
    422:0.022379
    423:-0.429729
    424:0.470149
    425:-0.851310
    426:0.506616
    427:-0.229815
    428:0.288522
    429:0.082743
    430:0.484743
    431:-0.152320
    432:0.991765
    433:-0.389115
    434:0.425543
    435:0.055863
    436:0.609671
    437:0.138640
    438:0.756920
    439:-0.078709
    440:0.495497
    441:-0.020773
    442:0.313476
    443:-0.637758
    444:0.517404
    445:-0.282416
    446:0.227239
    447:-0.074021
    448:0.207719
    449:-0.466776
    450:0.611191
    451:-0.221131
    452:0.168379
    453:-0.905779
    454:0.178607
    455:-0.589363
    456:0.348749
    457:-0.271064
    458:0.820311
    459:-0.143725
    460:0.629314
    461:-0.274505
    462:0.656029
    463:0.005930
    464:0.577340
    465:0.016528
    466:0.610699
    467:0.182390
    468:0.817491
    469:0.094395
    470:0.565924
    471:-0.063554
    472:0.444503
    473:-0.693460
    474:0.635375
    475:-0.454624
    476:0.100119
    477:-0.185426
    478:0.580029
    479:-0.289543
    480:0.514643
    481:-0.826000
    482:-0.271842
    483:-1.233133
    484:-0.756409
    485:-1.181328
    486:-0.047575
    487:-0.469119
    488:-0.068293
    489:-0.258735
    490:0.136165
    491:-0.155798
    492:0.287074
    493:0.069131
    494:0.372225
    495:-0.576758
    496:0.118673
    497:-0.732891
    498:-0.058808
    499:-0.427654
    500:-0.193207
    501:-0.681717
    502:0.285610
    503:-0.597046
    504:0.439760
    505:-0.255890
    506:0.398485
    507:-0.404095
    508:0.430572
    509:-0.624894
    510:-0.599112
    511:-1.507579
    512:-0.967455
    513:-2.217112
    514:-1.501533
    515:-1.303736
    516:-0.795739
    517:-1.107548
    518:0.117369
    519:-0.644373
    520:0.127022
    521:-0.509805
    522:0.467248
    523:-0.492068
    524:0.166509
    525:-0.517450
    526:0.309525
    527:-0.951812
    528:-0.009212
    529:-0.685113
    530:0.289133
    531:-0.275314
    532:0.416595
    533:-0.582668
    534:0.209368
    535:0.026351
    536:0.314301
    537:-0.603478
    538:0.305245
    539:-1.212027
    540:-0.993438
    541:-1.363704
    542:-1.054476
    543:-1.821967
    544:-1.312787
    545:-1.095733
    546:-0.334983
    547:-0.797406
    548:-0.176929
    549:-0.400459
    550:-0.083893
    551:-0.548594
    552:0.432366
    553:-0.348660
    554:0.043978
    555:-0.565695
    556:0.271852
    557:-0.138573
    558:0.304850
    559:-0.014564
    560:0.651626
    561:-0.588668
    562:0.299713
    563:-0.268142
    564:0.638974
    565:-0.504555
    566:0.352500
    567:-0.763866
    568:0.184354
    569:-0.763925
    570:0.014356
    571:-0.787019
    572:-0.189084
    573:-0.618880
    574:-0.169962
    575:-0.416916
    576:-0.055930
    577:-0.317263
    578:0.296915
    579:-0.660180
    580:0.389762
    581:-0.764223
    582:0.237522
    583:-0.604086
    584:-0.006366
    585:-0.687925
    586:0.032210
    587:-0.581558
    588:0.069734
    589:-0.333868
    590:0.593174
    591:0.026092
    592:0.392720
    593:-0.245219
    594:0.167782
    595:-0.635453
    596:0.814296
    597:-0.035206
    598:0.675750
    599:-0.171984
    600:-0.064935
    601:-0.581993
    602:0.256920
    603:-0.289280
    604:0.116917
    605:-0.656710
    606:0.034484
    607:-0.254371
    608:0.087974
    609:-0.658056
    610:0.072823
    611:-0.696662
    612:0.414799
    613:-0.610973
    614:0.386949
    615:-0.556224
    616:0.591724
    617:-0.415692
    618:0.442858
    619:-0.641417
    620:0.157210
    621:-0.295953
    622:0.508176
    623:-0.299933
    624:0.583577
    625:-0.050458
    626:0.599814
    627:-0.178820
    628:0.523702
    629:-0.416781
    630:-0.159175
    631:-0.669280
    632:0.444924
    633:-0.463636
    634:0.495536
    635:-0.462917
    636:0.344124
    637:-0.945065
    638:0.465382
    639:-0.738146
    640:0.451491
    641:-0.163904
    642:0.650069
    643:-0.245397
    644:0.060204
    645:-0.335550
    646:0.102036
    647:-0.611713
    648:0.275007
    649:-0.240241
    650:0.761823
    651:0.043955
    652:0.171101
    653:-0.279902
    654:0.652191
    655:-0.465183
    656:0.227477
    657:-0.835023
    658:0.204203
    659:-0.418847
    660:-0.037350
    661:-0.379208
    662:0.066588
    663:-0.073555
    664:0.103522
    665:-0.216151
    666:0.237838
    667:-0.142303
    668:0.659905
    669:-0.359492
    670:0.097084
    671:-0.466458
    672:0.501694
    673:-0.049376
    674:0.016418
    675:-0.493019
    676:0.590976
    677:0.238759
    678:0.916363
    679:-0.076878
    680:0.731397
    681:-0.266008
    682:0.588843
    683:-0.222310
    684:0.203665
    685:-0.215282
    686:0.148992
    687:-0.615711
    688:0.090234
    689:-0.606340
    690:-0.130379
    691:-0.527927
    692:0.126178
    693:-0.272854
    694:0.184165
    695:-0.676389
    696:0.087355
    697:-0.679281
    698:0.063736
    699:-0.097747
    700:0.318788
    701:-0.162623
    702:0.564209
    703:-0.101079
    704:0.278958
    705:-0.418680
    706:0.918684
    707:-0.268242
    708:0.982327
    709:-0.125038
    710:0.685886
    711:-0.271506
    712:0.521033
    713:0.124000
    714:0.257498
    715:-0.517403
    716:0.305831
    717:-0.288326
    718:0.326107
    719:-0.612078
    720:0.030417
    721:-0.479444
    722:0.126701
    723:-0.424945
    724:0.602226
    725:-0.370114
    726:0.390882
    727:-0.027687
    728:0.344990
    729:-0.454936
    730:0.125434
    731:-0.663841
    732:0.632361
    733:-0.663919
    734:0.134740
    735:-0.071865
    736:0.612198
    737:0.004128
    738:0.118108
    739:-0.479057
    740:0.600579
    741:-0.325962
    742:0.532229
    743:-0.054286
    744:0.568286
    745:-0.529308
    746:0.641762
    747:-0.230459
    748:0.038336
    749:-0.369760
    750:0.046914
    751:-0.137445
    752:0.151609
    753:-0.150649
    754:0.572275
    755:-0.057191
    756:0.526485
    757:-0.263336
    758:0.084878
    759:-0.171475
    760:0.018335
    761:-0.209585
    762:0.136540
    763:-0.632660
    764:0.202990
    765:-0.211748
    766:0.078715
    767:-0.058757
    768:0.292233
    769:-0.080927
    770:0.638722
    771:-0.128981
    772:0.466654
    773:-0.401199
    774:0.251925
    775:-0.277755
    776:0.285764
    777:-0.166769
    778:0.492073
    779:-0.342544
    780:0.536444
    781:-0.538819
    782:0.479058
    783:-0.688606
  Neuron 7:
    0:0.351333
    1:-0.045797
    2:0.515952
    3:-0.614668
    4:0.130675
    5:-0.687427
    6:0.632940
    7:-0.340987
    8:0.122679
    9:-0.568770
    10:0.540939
    11:-0.342191
    12:0.634336
    13:-0.606214
    14:0.628329
    15:-0.026030
    16:0.527486
    17:-0.077293
    18:0.477490
    19:-0.246094
    20:0.312238
    21:-0.058911
    22:0.531545
    23:-0.479325
    24:0.551794
    25:-0.174669
    26:0.315770
    27:-0.390613
    28:0.653727
    29:-0.304376
    30:0.380081
    31:-0.305059
    32:0.350173
    33:-0.196030
    34:0.220853
    35:-0.479124
    36:0.185503
    37:-0.151842
    38:0.126298
    39:-0.289448
    40:0.025416
    41:-0.659102
    42:0.638580
    43:-0.671844
    44:0.564054
    45:-0.576499
    46:0.681837
    47:-0.396717
    48:0.654152
    49:-0.458846
    50:0.643135
    51:-0.266155
    52:0.518027
    53:-0.474491
    54:0.045528
    55:-0.369821
    56:0.649160
    57:-0.361297
    58:0.060434
    59:-0.602887
    60:0.665674
    61:-0.440504
    62:0.210791
    63:-0.307021
    64:0.650447
    65:-0.407051
    66:0.139641
    67:-0.082284
    68:0.611400
    69:-0.187247
    70:0.451935
    71:-0.592483
    72:0.202475
    73:-0.333048
    74:0.581493
    75:-0.022699
    76:0.276134
    77:-0.531365
    78:0.448714
    79:-0.203395
    80:0.299533
    81:-0.390460
    82:0.471314
    83:-0.116145
    84:0.164957
    85:-0.516842
    86:0.485352
    87:-0.114261
    88:0.178144
    89:-0.553747
    90:0.011722
    91:-0.133630
    92:0.341235
    93:-0.176721
    94:0.511265
    95:-0.188084
    96:0.647000
    97:-0.557725
    98:0.351039
    99:-0.512478
    100:0.144924
    101:0.025389
    102:0.525149
    103:-0.157721
    104:0.515221
    105:-0.234949
    106:0.332205
    107:-0.674404
    108:0.142881
    109:-0.053949
    110:0.200577
    111:-0.429241
    112:0.444831
    113:-0.671668
    114:0.543260
    115:-0.610488
    116:0.484228
    117:-0.352011
    118:-0.002905
    119:-0.695391
    120:0.149807
    121:-0.083194
    122:0.025360
    123:-0.607262
    124:0.039067
    125:-0.822715
    126:0.344105
    127:-0.506157
    128:0.286690
    129:-0.304984
    130:0.086030
    131:-0.459877
    132:0.427013
    133:-0.429425
    134:0.123476
    135:-0.095121
    136:0.099436
    137:-0.356136
    138:0.140627
    139:-0.208671
    140:0.418737
    141:-0.340912
    142:0.638272
    143:-0.169664
    144:0.277119
    145:-0.575070
    146:-0.057828
    147:-0.318664
    148:-0.057468
    149:-0.297855
    150:-0.128996
    151:-0.472599
    152:-0.033099
    153:-0.290994
    154:-0.079004
    155:-0.493188
    156:-0.029334
    157:-0.000684
    158:0.721517
    159:-0.326728
    160:0.509865
    161:-0.552338
    162:0.429943
    163:0.097865
    164:0.519691
    165:-0.307226
    166:0.226670
    167:-0.539031
    168:0.698022
    169:-0.364687
    170:0.048109
    171:-0.441891
    172:-0.093600
    173:-0.903558
    174:0.276883
    175:-0.627909
    176:0.200983
    177:-0.828132
    178:0.267531
    179:-0.529495
    180:0.259061
    181:-0.128800
    182:0.546293
    183:-0.020489
    184:0.624904
    185:-0.219914
    186:0.577672
    187:-0.011489
    188:0.197650
    189:-0.563804
    190:0.680536
    191:-0.437244
    192:0.624954
    193:-0.018780
    194:0.037404
    195:-0.254345
    196:0.398009
    197:-0.264811
    198:0.087277
    199:-0.456654
    200:0.379530
    201:-0.513138
    202:-0.341853
    203:-0.948375
    204:-0.084230
    205:-0.803538
    206:0.233110
    207:-0.512057
    208:0.712139
    209:-0.366377
    210:0.816571
    211:-0.253757
    212:0.744074
    213:-0.545917
    214:0.199611
    215:-0.439550
    216:0.084819
    217:-0.216877
    218:0.425931
    219:-0.277701
    220:0.822034
    221:-0.141317
    222:0.450953
    223:-0.385118
    224:0.288936
    225:-0.482990
    226:0.625947
    227:-0.833231
    228:-0.322888
    229:-0.528372
    230:-0.105470
    231:-1.010657
    232:0.023483
    233:-0.614426
    234:0.380671
    235:-0.617780
    236:0.117496
    237:-0.254826
    238:0.285306
    239:-0.069198
    240:0.474339
    241:-0.705966
    242:0.272298
    243:-0.590009
    244:0.573182
    245:-0.532478
    246:0.246860
    247:0.061484
    248:0.255921
    249:0.085621
    250:0.595767
    251:-0.593146
    252:0.272388
    253:-0.336475
    254:0.246633
    255:-0.741155
    256:-0.282640
    257:-0.726492
    258:0.219448
    259:-0.265517
    260:0.228947
    261:-0.332892
    262:-0.099405
    263:-0.527566
    264:-0.199294
    265:-0.314505
    266:0.280564
