HIDDEN LAYER WEIGHTS
  Neuron 0:
    0:0.588131
    1:-0.276068
    2:0.548169
    3:-0.558908
    4:0.638153
    5:-0.138286
    6:0.234656
    7:-0.537761
    8:0.194442
    9:-0.387779
    10:0.334178
    11:-0.440210
    12:0.260025
    13:-0.354705
    14:0.667198
    15:-0.640699
    16:0.444998
    17:-0.502108
    18:0.099122
    19:-0.424878
    20:0.011410
    21:-0.170021
    22:0.096062
    23:-0.562924
    24:0.109675
    25:-0.280661
    26:0.090853
    27:-0.076166
    28:0.699247
    29:-0.152780
    30:0.359053
    31:-0.587379
    32:0.428848
    33:-0.207220
    34:0.446332
    35:-0.365747
    36:0.349230
    37:-0.676886
    38:0.209558
    39:-0.536833
    40:0.384070
    41:-0.530866
    42:0.276961
    43:-0.619723
    44:0.199682
    45:-0.242752
    46:0.566958
    47:-0.636246
    48:0.056421
    49:-0.657527
    50:0.368746
    51:-0.060206
    52:0.134550
    53:-0.464259
    54:0.623163
    55:-0.244225
    56:0.044920
    57:-0.014016
    58:0.320391
    59:-0.044172
    60:0.168125
    61:-0.676213
    62:0.643419
    63:-0.567875
    64:0.229853
    65:-0.329120
    66:0.349576
    67:-0.452652
    68:0.414086
    69:-0.383814
    70:0.441560
    71:0.048397
    72:0.345029
    73:-0.607540
    74:0.740737
    75:-0.378728
    76:0.303639
    77:-0.412687
    78:0.503104
    79:-0.219050
    80:0.497820
    81:-0.115302
    82:0.308073
    83:-0.616053
    84:0.580441
    85:-0.231236
    86:0.159069
    87:-0.624385
    88:0.246422
    89:-0.465779
    90:0.683927
    91:-0.378084
    92:0.521068
    93:-0.455395
    94:0.493510
    95:-0.378292
    96:0.546432
    97:-0.223812
    98:0.935103
    99:-0.101689
    100:0.844183
    101:0.358031
    102:1.155588
    103:-0.145153
    104:0.475876
    105:-0.373178
    106:0.591070
    107:-0.237383
    108:0.455172
    109:-0.195716
    110:0.550195
    111:-0.215221
    112:0.312924
    113:-0.158275
    114:0.130184
    115:-0.193177
    116:0.374671
    117:-0.291769
    118:0.100349
    119:-0.634118
    120:0.078773
    121:-0.043577
    122:0.354589
    123:-0.532952
    124:0.559355
    125:-0.709183
    126:0.462205
    127:-0.344495
    128:0.492044
    129:-0.275086
    130:0.233540
    131:-0.054833
    132:0.503416
    133:-0.107593
    134:0.044916
    135:-0.530454
    136:0.078785
    137:-0.573393
    138:0.114763
    139:-0.521550
    140:0.052171
    141:-0.665073
    142:0.037170
    143:-0.384194
    144:0.081018
    145:-0.202332
    146:0.458220
    147:-0.533128
    148:0.283670
    149:-0.693767
    150:0.244958
    151:-0.703093
    152:-0.263167
    153:-0.543272
    154:-0.117777
    155:-0.732989
    156:-0.590037
    157:-0.770636
    158:-0.274223
    159:-0.850412
    160:0.273938
    161:-0.611067
    162:-0.237090
    163:-0.351174
    164:0.544266
    165:-0.217502
    166:0.605680
    167:-0.087828
    168:0.698459
    169:-0.044825
    170:0.611245
    171:-0.031882
    172:-0.027298
    173:-0.671468
    174:0.282813
    175:-0.174147
    176:-0.019955
    177:-0.361026
    178:0.458142
    179:-0.494449
    180:0.166868
    181:-0.431959
    182:0.267112
    183:-0.313654
    184:0.285568
    185:-0.520120
    186:-0.032538
    187:-0.593464
    188:-0.044215
    189:-0.917624
    190:-0.026502
    191:-1.023989
    192:0.092594
    193:-0.661496
    194:-0.028692
    195:-0.524592
    196:0.583272
    197:-0.654757
    198:0.642805
    199:-0.596202
    200:0.622612
    201:-0.591618
    202:0.438153
    203:-0.795210
    204:0.344154
    205:-0.450649
    206:0.155701
    207:-0.427359
    208:0.493388
    209:0.171531
    210:0.843262
    211:0.300813
    212:0.583079
    213:-0.501103
    214:0.027525
    215:-0.631034
    216:-0.205267
    217:-0.294971
    218:-0.233420
    219:-0.746773
    220:-0.335552
    221:-0.805757
    222:0.225098
    223:-0.700013
    224:0.196026
    225:-0.384920
    226:0.517860
    227:-0.072529
    228:0.298163
    229:-0.549190
    230:0.470890
    231:-0.365196
    232:0.181991
    233:-0.396105
    234:0.286049
    235:-0.041799
    236:0.401873
    237:-0.026070
    238:1.159831
    239:0.144960
    240:0.440326
    241:-0.519968
    242:-0.087247
    243:-0.601864
    244:0.256071
    245:-0.261631
    246:0.001520
    247:-0.584449
    248:-0.263649
    249:-0.941374
    250:0.313755
    251:-0.465959
    252:0.243538
    253:-0.129269
    254:0.437194
    255:-0.426096
    256:0.487575
    257:-0.455890
    258:0.269738
    259:-0.136111
    260:0.729127
    261:-0.300645
    262:0.478378
    263:-0.137040
    264:0.605622
    265:0.216534
    266:0.960564
    267:0.092094
    268:0.522994
    269:-0.349159
    270:-0.308491
    271:-0.495465
    272:0.255891
    273:-0.361807
    274:0.239373
    275:-0.636646
    276:-0.008608
    277:-0.653681
    278:0.088140
    279:-0.136249
    280:0.691723
    281:0.003376
    282:0.554920
    283:-0.230397
    284:0.051363
    285:-0.345427
    286:0.533794
    287:-0.410203
    288:0.649478
    289:0.152401
    290:0.390512
    291:-0.190019
    292:0.455777
    293:-0.241645
    294:0.986539
    295:-0.037926
    296:0.561213
    297:-0.401421
    298:0.304187
    299:-0.336098
    300:0.239203
    301:-0.284841
    302:0.662165
    303:-0.824269
    304:-0.078792
    305:-0.711168
    306:0.015309
    307:-0.192726
    308:0.607875
    309:-0.332216
    310:0.299712
    311:-0.570328
    312:0.285050
    313:-0.141326
    314:0.269184
    315:-0.022459
    316:0.827906
    317:0.264978
    318:0.471159
    319:-0.076845
    320:0.515585
    321:-0.589386
    322:0.136596
    323:0.096568
    324:0.425348
    325:0.072481
    326:0.451078
    327:0.056886
    328:0.477178
    329:0.036535
    330:0.875607
    331:-0.370571
    332:0.413037
    333:-0.742996
    334:0.258243
    335:-0.241423
    336:0.276030
    337:-0.457743
    338:0.404252
    339:-0.164420
    340:0.182750
    341:0.035761
    342:0.357643
    343:0.068461
    344:0.501558
    345:-0.077914
    346:0.270803
    347:-0.178515
    348:-0.273581
    349:-1.109530
    350:0.244399
    351:-0.260001
    352:0.542726
    353:-0.135215
    354:0.772156
    355:0.309461
    356:0.848575
    357:0.013235
    358:0.576526
    359:0.000172
    360:0.276557
    361:-0.412441
    362:0.525319
    363:-0.281867
    364:0.171023
    365:-0.230343
    366:0.492544
    367:-0.434755
    368:0.729757
    369:-0.157153
    370:0.960143
    371:0.118854
    372:0.277953
    373:0.127894
    374:0.267841
    375:-0.762471
    376:-0.439869
    377:-0.917674
    378:0.435988
    379:-0.231677
    380:0.291275
    381:-0.056823
    382:0.973010
    383:0.010430
    384:0.480340
    385:-0.077233
    386:0.887562
    387:0.138269
    388:0.117093
    389:-0.288267
    390:0.160930
    391:-0.465618
    392:0.566367
    393:-0.096930
    394:0.021749
    395:0.020298
    396:0.327123
    397:-0.473282
    398:0.572814
    399:-0.236278
    400:-0.066656
    401:-0.349316
    402:0.079985
    403:-0.881708
    404:-0.297243
    405:-0.640871
    406:0.304665
    407:-0.196951
    408:0.564004
    409:0.489297
    410:0.647229
    411:0.217035
    412:0.720511
    413:-0.031878
    414:0.431918
    415:-0.272856
    416:0.118279
    417:-0.044083
    418:0.613640
    419:-0.118306
    420:0.342062
    421:-0.157670
    422:0.558453
    423:-0.223369
    424:0.272672
    425:-0.511022
    426:0.431796
    427:-0.358489
    428:0.437276
    429:0.203511
    430:0.388093
    431:-0.536413
    432:0.216868
    433:-0.534656
    434:0.206829
    435:0.170617
    436:0.627852
    437:0.126076
    438:0.696920
    439:-0.083870
    440:0.656350
    441:-0.073023
    442:0.387286
    443:-0.076974
    444:0.300515
    445:-0.312603
    446:0.116100
    447:-0.285684
    448:0.377841
    449:-0.109707
    450:0.382870
    451:-0.051081
    452:0.216591
    453:-0.202695
    454:0.206718
    455:-0.529526
    456:0.133538
    457:-0.239787
    458:0.498934
    459:-0.472188
    460:0.418951
    461:-0.515566
    462:0.444678
    463:0.233999
    464:0.747879
    465:0.224990
    466:0.588318
    467:-0.335272
    468:0.477280
    469:-0.219342
    470:0.331404
    471:-0.184108
    472:0.266692
    473:-0.542349
    474:0.498599
    475:-0.492565
    476:0.107013
    477:-0.032450
    478:0.038578
    479:-0.565550
    480:-0.002741
    481:-0.532348
    482:0.395212
    483:-0.338980
    484:0.149404
    485:0.135001
    486:0.294423
    487:-0.297510
    488:0.419091
    489:-0.434023
    490:0.471730
    491:0.146484
    492:0.369940
    493:-0.391287
    494:0.199203
    495:-0.131951
    496:0.535177
    497:-0.007010
    498:-0.055140
    499:-0.383976
    500:0.607910
    501:-0.498999
    502:0.585065
    503:-0.147133
    504:0.278718
    505:-0.502199
    506:0.578090
    507:-0.517806
    508:0.312891
    509:-0.877034
    510:-0.260307
    511:-0.951976
    512:0.082836
    513:-0.433247
    514:0.547177
    515:-0.088539
    516:0.625218
    517:-0.286654
    518:0.854750
    519:-0.149708
    520:0.100828
    521:-0.764815
    522:0.430784
    523:-0.211222
    524:0.366654
    525:-0.456772
    526:0.222414
    527:-0.659912
    528:0.465475
    529:-0.594305
    530:0.163567
    531:-0.429282
    532:0.329395
    533:-0.116669
    534:0.525979
    535:-0.743161
    536:0.296242
    537:-0.956569
    538:-0.432561
    539:-0.953569
    540:-0.094504
    541:-0.586140
    542:0.443198
    543:-0.073097
    544:0.390446
    545:0.539029
    546:0.617175
    547:-0.197457
    548:0.287525
    549:-0.567163
    550:-0.248937
    551:-0.602524
    552:0.080664
    553:-0.217573
    554:0.253707
    555:-0.436865
    556:0.383609
    557:-0.341659
    558:0.093154
    559:-0.291535
    560:0.172923
    561:-0.283819
    562:-0.029817
    563:-0.618488
    564:0.041590
    565:-1.110550
    566:-0.297892
    567:-0.998042
    568:-0.471090
    569:-1.299491
    570:-0.205247
    571:-0.028877
    572:0.647199
    573:0.222902
    574:0.608708
    575:0.232522
    576:0.347223
    577:-0.624610
    578:0.090554
    579:-0.720091
    580:-0.112680
    581:-0.960692
    582:0.255163
    583:-0.888811
    584:0.553614
    585:-0.536742
    586:0.230694
    587:-0.375730
    588:0.153444
    589:-0.333521
    590:0.612284
    591:-0.435239
    592:0.323198
    593:-1.078167
    594:-0.360145
    595:-0.930925
    596:-0.258439
    597:-0.964113
    598:0.148720
    599:-0.383416
    600:0.503089
    601:-0.246425
    602:0.329969
    603:-0.068690
    604:0.213332
    605:-0.390664
    606:-0.056699
    607:-0.763904
    608:-0.323239
    609:-0.651174
    610:0.143127
    611:-0.796793
    612:0.164156
    613:-0.415802
    614:0.606846
    615:-0.076844
    616:0.261538
    617:-0.139256
    618:0.411031
    619:-0.509971
    620:0.277990
    621:-0.667813
    622:-0.234850
    623:-0.522750
    624:-0.110993
    625:-0.580201
    626:-0.545975
    627:-0.658294
    628:-0.291295
    629:-0.809688
    630:0.055626
    631:-0.706715
    632:0.084168
    633:-0.910591
    634:-0.586162
    635:-0.983240
    636:-0.505924
    637:-0.925323
    638:0.213969
    639:-0.706316
    640:0.164058
    641:-0.215916
    642:0.620268
    643:-0.256220
    644:0.629602
    645:-0.523346
    646:0.296816
    647:-0.238560
    648:0.595195
    649:-0.115164
    650:0.579859
    651:-0.308986
    652:0.327859
    653:-0.927817
    654:-0.441319
    655:-1.074386
    656:-0.817168
    657:-1.273284
    658:-0.684732
    659:-1.017408
    660:-0.698175
    661:-0.821407
    662:-0.175013
    663:-0.681792
    664:-0.433553
    665:-0.341004
    666:0.285872
    667:-0.436712
    668:0.691443
    669:-0.095697
    670:0.434489
    671:-0.049390
    672:0.275622
    673:-0.347502
    674:0.298704
    675:-0.210987
    676:0.192987
    677:-0.500661
    678:0.597832
    679:0.110574
    680:0.163223
    681:-0.222680
    682:0.431943
    683:-0.601994
    684:-0.013215
    685:-0.767203
    686:-0.215540
    687:-0.353562
    688:-0.076329
    689:-0.372900
    690:0.253459
    691:-0.460916
    692:0.489521
    693:-0.438857
    694:0.336993
    695:0.002872
    696:0.560763
    697:-0.578905
    698:0.485089
    699:-0.477345
    700:0.632931
    701:-0.219058
    702:0.516832
    703:-0.213076
    704:0.564072
    705:-0.008114
    706:0.504973
    707:0.160191
    708:0.499130
    709:0.244739
    710:0.474343
    711:0.129122
    712:0.540955
    713:0.090658
    714:0.546700
    715:-0.255303
    716:0.458040
    717:0.093647
    718:0.715182
    719:0.022754
    720:0.500053
    721:0.011019
    722:0.521517
    723:-0.314981
    724:0.568750
    725:-0.649863
    726:0.364556
    727:-0.407575
    728:0.510578
    729:-0.157665
    730:0.184920
    731:-0.442029
    732:0.348439
    733:-0.002293
    734:0.721365
    735:-0.144595
    736:0.312104
    737:-0.195604
    738:0.450739
    739:0.071829
    740:0.853166
    741:0.076563
    742:0.757236
    743:0.356670
    744:0.889451
    745:0.227175
    746:0.500804
    747:-0.319457
    748:0.268689
    749:-0.402926
    750:0.044810
    751:-0.563512
    752:0.597715
    753:-0.420534
    754:0.225034
    755:-0.467572
    756:0.368781
    757:-0.593600
    758:0.175147
    759:-0.179360
    760:0.051299
    761:-0.360183
    762:0.622680
    763:-0.427439
    764:0.372968
    765:-0.573334
    766:0.667039
    767:-0.508386
    768:0.259915
    769:-0.211335
    770:0.091591
    771:0.036099
    772:0.036509
    773:-0.296394
    774:0.243941
    775:-0.471986
    776:0.580163
    777:-0.323626
    778:0.352325
    779:-0.032983
    780:0.133688
    781:-0.338554
    782:0.646367
    783:-0.030376
  Neuron 1:
    0:0.171401
    1:-0.497948
    2:0.427869
    3:-0.065001
    4:0.673096
    5:-0.607228
    6:0.116266
    7:-0.333163
    8:0.530097
    9:-0.544253
    10:0.004886
    11:-0.405029
    12:0.515325
    13:-0.520808
    14:0.645800
    15:-0.067483
    16:0.551350
    17:-0.662505
    18:0.071036
    19:-0.192428
    20:0.167525
    21:-0.566820
    22:0.066530
    23:-0.522711
    24:0.194050
    25:-0.121310
    26:0.656400
    27:-0.532603
    28:0.067677
    29:-0.686776
    30:0.591691
    31:-0.239078
    32:0.484708
    33:-0.319576
    34:0.304078
    35:-0.457872
    36:0.226713
    37:-0.420434
    38:0.088386
    39:-0.061643
    40:0.261607
    41:-0.097220
    42:0.462992
    43:-0.082996
    44:0.605345
    45:-0.417799
    46:0.139006
    47:-0.473536
    48:0.363453
    49:-0.225192
    50:0.657841
    51:-0.539386
    52:0.085460
    53:-0.026785
    54:0.360455
    55:-0.279510
    56:0.148096
    57:-0.316855
    58:0.112146
    59:-0.213891
    60:0.302157
    61:-0.004580
    62:0.453824
    63:-0.094399
    64:0.290846
    65:-0.115635
    66:0.453783
    67:-0.648914
    68:0.387121
    69:-0.690434
    70:0.534815
    71:-0.125817
    72:-0.082812
    73:-0.452566
    74:0.051487
    75:-0.735476
    76:0.007256
    77:-0.367699
    78:0.341779
    79:-0.477316
    80:0.478095
    81:-0.377595
    82:0.284631
    83:-0.575698
    84:0.404375
    85:-0.645086
    86:0.155991
    87:-0.554294
    88:0.251051
    89:-0.284971
    90:0.053775
    91:-0.600095
    92:0.152790
    93:-0.765388
    94:0.332960
    95:-0.929472
    96:0.199941
    97:-0.871595
    98:-0.108875
    99:-0.847786
    100:-0.011507
    101:-0.814633
    102:-0.103037
    103:-0.929523
    104:-0.292960
    105:-0.827977
    106:0.187649
    107:-0.205056
    108:0.068605
    109:-0.178991
    110:0.544196
    111:-0.590997
    112:0.514718
    113:-0.128697
    114:0.465824
    115:-0.222699
    116:0.029500
    117:-0.699102
    118:-0.011754
    119:-0.434340
    120:-0.067886
    121:-0.427593
    122:-0.167720
    123:-0.485166
    124:0.620825
    125:-0.043805
    126:0.382976
    127:-0.568506
    128:0.292756
    129:-0.113840
    130:0.012105
    131:-0.598751
    132:0.385940
    133:-0.530097
    134:0.278967
    135:-0.341615
    136:0.489191
    137:-0.598947
    138:0.570968
    139:-0.541326
    140:0.019917
    141:-0.413285
    142:0.431255
    143:-0.545418
    144:0.458782
    145:-0.393048
    146:-0.173850
    147:-0.964577
    148:-0.273326
    149:-0.402553
    150:0.003556
    151:-0.232635
    152:0.314773
    153:-0.049059
    154:0.399058
    155:0.116909
    156:0.757745
    157:-0.208971
    158:0.311612
    159:-0.460219
    160:0.572107
    161:-0.200650
    162:0.634122
    163:0.042470
    164:0.400393
    165:-0.394643
    166:0.056635
    167:-0.630127
    168:0.302539
    169:-0.620615
    170:0.447740
    171:-0.393696
    172:0.204869
    173:-0.501973
    174:-0.190480
    175:-0.511812
    176:-0.052666
    177:-0.571193
    178:-0.096083
    179:-0.634635
    180:0.143774
    181:-0.458830
    182:0.105463
    183:-0.503072
    184:0.300466
    185:-0.121847
    186:0.195482
    187:0.132202
    188:0.706175
    189:-0.027250
    190:0.930901
    191:0.050241
    192:0.761617
    193:-0.023634
    194:0.056241
    195:-0.666396
    196:0.542493
    197:-0.084288
    198:0.566819
    199:-0.238258
    200:0.505020
    201:-0.700852
    202:0.158045
    203:-0.566208
    204:0.133568
    205:-0.900963
    206:0.255390
    207:-0.489278
    208:-0.292107
    209:-0.808685
    210:-0.065116
    211:-0.312159
    212:0.171546
    213:-0.077456
    214:0.543935
    215:-0.256701
    216:0.581002
    217:-0.200882
    218:0.712849
    219:0.229858
    220:0.488228
    221:-0.014746
    222:0.181881
    223:-0.479582
    224:0.311312
    225:-0.178500
    226:0.427836
    227:-0.236023
    228:0.079627
    229:-0.558762
    230:0.113394
    231:-0.373884
    232:-0.152961
    233:-0.108418
    234:0.548357
    235:-0.491100
    236:0.410384
    237:-0.492436
    238:-0.153584
    239:-0.165009
    240:0.085444
    241:-0.238333
    242:0.632071
    243:-0.251502
    244:0.524565
    245:-0.097817
    246:0.468495
    247:0.220019
    248:0.512450
    249:-0.194505
    250:0.724316
    251:-0.074230
    252:0.608703
    253:-0.107483
    254:0.540636
    255:-0.268391
    256:0.142760
    257:-0.394754
    258:0.223795
    259:-0.429393
    260:0.735514
    261:-0.435144
    262:0.384326
    263:0.353591
    264:0.220912
    265:-0.393480
    266:0.351273
    267:0.040566
    268:0.139053
    269:-0.304995
    270:0.119373
    271:-0.250519
    272:0.521507
    273:0.154741
    274:0.580445
    275:0.171203
    276:0.689569
    277:-0.237161
    278:0.645915
    279:-0.395222
    280:0.141278
    281:-0.559129
    282:0.454079
    283:-0.085345
    284:0.631619
    285:-0.189510
    286:0.397018
    287:0.130934
    288:0.977520
    289:0.000946
    290:0.723489
    291:0.003577
    292:1.050064
    293:0.347021
    294:0.907354
    295:-0.351379
    296:-0.119411
    297:-0.825104
    298:0.484588
    299:-0.279670
    300:0.018054
    301:-0.066204
    302:0.364979
    303:-0.032066
    304:0.409675
    305:-0.411366
    306:0.105991
    307:-0.498061
    308:0.244990
    309:-0.611462
    310:0.200330
    311:-0.404940
    312:0.498688
    313:-0.258312
    314:0.838255
    315:0.221808
    316:1.089940
    317:0.748123
    318:1.217665
    319:0.255616
    320:1.032739
    321:0.378664
    322:0.484817
    323:-0.369311
    324:0.171916
    325:-0.269827
    326:0.180487
    327:-0.388404
    328:0.014569
    329:-0.341760
    330:0.829428
    331:0.190798
    332:0.744796
    333:-0.050021
    334:0.516308
    335:-0.090122
    336:0.647686
    337:-0.472867
    338:0.605279
    339:-0.206056
    340:0.459905
    341:0.364006
    342:1.155491
    343:0.563345
    344:0.762505
    345:0.502160
    346:1.110276
    347:0.233660
    348:0.802855
    349:0.048701
    350:0.822219
    351:-0.226721
    352:0.406292
    353:-0.358770
    354:-0.004710
    355:-0.198153
    356:0.357387
    357:-0.369126
    358:0.731401
    359:-0.073404
    360:0.577561
    361:-0.344657
    362:0.306994
    363:-0.346472
    364:0.485873
    365:-0.012449
    366:0.457206
    367:-0.416554
    368:0.591866
    369:0.075219
    370:1.145507
    371:0.327897
    372:0.764492
    373:-0.132582
    374:0.609958
    375:-0.191831
    376:0.386131
    377:0.282849
    378:0.374540
    379:-0.474824
    380:-0.122194
    381:-0.325034
    382:-0.165126
    383:-0.251205
    384:0.383969
    385:0.050825
    386:0.501027
    387:-0.372395
    388:0.204260
    389:-0.033884
    390:0.115166
    391:-0.518834
    392:0.372021
    393:-0.367017
    394:0.177591
    395:-0.140933
    396:0.448823
    397:-0.341254
    398:0.782674
    399:0.033439
    400:0.269312
    401:-0.338633
    402:0.232578
    403:-0.116847
    404:0.510803
    405:-0.219261
    406:0.505022
    407:-0.508726
    408:0.062732
    409:-0.214551
    410:-0.004819
    411:-0.448566
    412:0.444793
    413:-0.185915
    414:0.560398
    415:-0.497658
    416:0.476306
    417:-0.750984
    418:0.455891
    419:-0.450716
    420:0.690103
    421:-0.558136
    422:0.276948
    423:-0.372713
    424:0.214827
    425:-0.299796
    426:0.491262
    427:-0.506865
    428:0.401224
    429:-0.519863
    430:-0.064706
    431:-0.617724
    432:0.419561
    433:-0.229485
    434:-0.109555
    435:-0.348811
    436:0.240816
    437:-0.524544
    438:0.121117
    439:-0.729371
    440:0.090850
    441:-0.713534
    442:-0.032940
    443:-0.394912
    444:0.077660
    445:-0.652826
    446:0.327123
    447:-0.364407
    448:0.553626
    449:-0.089268
    450:0.118538
    451:-0.588802
    452:0.608502
    453:-0.341307
    454:0.098630
    455:-0.179590
    456:0.104236
    457:-0.123174
    458:-0.068979
    459:-0.360020
    460:0.199329
    461:-0.349767
    462:0.090933
    463:-0.405696
    464:0.457228
    465:-0.476115
    466:0.285672
    467:-0.364814
    468:0.225527
    469:-0.408654
    470:-0.234305
    471:-0.641225
    472:0.679031
    473:-0.370937
    474:0.256000
    475:-0.601769
    476:0.099257
    477:-0.598797
    478:0.272335
    479:-0.752796
    480:0.571406
    481:-0.516498
    482:0.354516
    483:-0.670517
    484:0.089307
    485:-0.079886
    486:0.198166
    487:-0.152531
    488:-0.157268
    489:-0.040926
    490:-0.073939
    491:-0.310123
    492:0.297436
    493:-0.596237
    494:0.349641
    495:-0.464925
    496:-0.018903
    497:-0.598831
    498:0.215667
    499:-0.098772
    500:0.303827
    501:-0.618857
    502:0.584471
    503:-0.234899
    504:0.690121
    505:-0.172807
    506:0.134359
    507:-0.245618
    508:-0.096131
    509:-0.507440
    510:-0.126539
    511:-0.167455
    512:0.052734
    513:-0.432980
    514:0.680419
    515:-0.144643
    516:0.329544
    517:-0.127571
    518:0.345726
    519:-0.428318
    520:-0.106875
    521:-0.650252
    522:0.043855
    523:-0.988877
    524:-0.039477
    525:-0.299477
    526:-0.064316
    527:-0.571861
    528:0.149998
    529:-0.656921
    530:0.572282
    531:-0.567324
    532:0.275752
    533:-0.474844
    534:0.133383
    535:-0.407756
    536:0.478389
    537:-0.325955
    538:0.136027
    539:-0.130689
    540:0.637006
    541:-0.271946
    542:0.006891
    543:-0.240606
    544:-0.105503
    545:-0.335144
    546:0.062828
    547:-0.170133
    548:-0.326306
    549:-0.790626
    550:0.087365
    551:-0.830832
    552:0.021907
    553:-0.463922
    554:0.294714
    555:-0.627849
    556:0.145265
    557:-0.594327
    558:0.363823
    559:-0.515727
    560:0.312813
    561:-0.257414
    562:0.402084
    563:-0.737463
    564:-0.109631
    565:-0.459426
    566:0.013553
    567:-0.045012
    568:0.050009
    569:-0.223339
    570:-0.041303
    571:-0.682229
    572:0.007554
    573:-0.125221
    574:-0.127599
    575:-0.818253
    576:-0.331525
    577:-0.504668
    578:-0.109812
    579:-0.783613
    580:-0.210573
    581:-0.628765
    582:0.063897
    583:-0.595517
    584:-0.107293
    585:-0.599357
    586:0.347466
    587:-0.275158
    588:0.336806
    589:-0.063886
    590:0.093060
    591:-0.805019
    592:0.071465
    593:-0.455679
    594:0.257634
    595:-0.348779
    596:0.262443
    597:-0.559332
    598:0.404356
    599:-0.302361
    600:0.303888
    601:-0.325725
    602:-0.003681
    603:-0.246879
    604:0.113923
    605:-0.709821
    606:-0.206743
    607:-0.463495
    608:0.055100
    609:-0.622764
    610:0.293543
    611:-0.118052
    612:-0.049226
    613:-0.558837
    614:0.528632
    615:-0.025559
    616:0.377728
    617:-0.230559
    618:0.298117
    619:-0.170809
    620:0.068440
    621:-0.508126
    622:0.353589
    623:-0.801507
    624:0.107207
    625:-0.453420
    626:0.477512
    627:-0.279482
    628:0.512858
    629:-0.421348
    630:0.132014
    631:-0.042617
    632:0.259517
    633:-0.434189
    634:0.199283
    635:-0.464016
    636:0.354874
    637:-0.374143
    638:0.103049
    639:-0.566207
    640:0.312162
    641:-0.597945
    642:0.564630
    643:-0.355857
    644:0.444672
    645:-0.417867
    646:0.360329
    647:-0.246533
    648:0.331986
    649:-0.949584
    650:-0.208577
    651:-0.343522
    652:0.153647
    653:-0.081530
    654:0.314874
    655:-0.025089
    656:1.309974
    657:0.595763
    658:1.323393
    659:0.550001
    660:0.908371
    661:-0.029410
    662:0.827052
    663:-0.144299
    664:-0.142901
    665:-0.305109
    666:0.127278
    667:-0.730134
    668:0.370134
    669:-0.426730
    670:0.507546
    671:-0.695177
    672:0.331689
    673:-0.368912
    674:0.349362
    675:-0.099630
    676:-0.063177
    677:-0.272220
    678:-0.129351
    679:-0.422981
    680:-0.316636
    681:-0.653038
    682:0.028234
    683:-0.733692
    684:0.104064
    685:-0.578967
    686:0.284112
    687:-0.183778
    688:0.288800
    689:-0.308896
    690:0.219030
    691:-0.330740
    692:0.367278
    693:-0.018231
    694:0.566061
    695:-0.270279
    696:0.326409
    697:-0.091458
    698:0.239240
    699:-0.699469
    700:0.529300
    701:-0.036180
    702:0.695401
    703:-0.150716
    704:0.373920
    705:-0.380255
    706:0.169474
    707:-0.663030
    708:0.171158
    709:-0.634133
    710:0.263017
    711:-0.746289
    712:-0.309724
    713:-0.418962
    714:-0.077867
    715:-0.603566
    716:0.422445
    717:-0.399161
    718:0.074437
    719:-0.695744
    720:0.183437
    721:-0.187362
    722:0.526188
    723:-0.390632
    724:0.225301
    725:-0.383422
    726:0.662707
    727:-0.555627
    728:0.483351
    729:-0.193284
    730:0.555096
    731:-0.313673
    732:0.212284
    733:-0.575884
    734:0.433788
    735:-0.690599
    736:0.140617
    737:-0.064346
    738:0.368779
    739:-0.642851
    740:0.377961
    741:-0.302499
    742:0.260538
    743:-0.546670
    744:0.301593
    745:-0.406963
    746:0.264787
    747:-0.206075
    748:0.672297
    749:-0.476958
    750:0.157871
    751:-0.161662
    752:0.660103
    753:-0.658766
    754:0.578126
    755:-0.180780
    756:0.341915
    757:-0.540894
    758:0.036407
    759:-0.125266
    760:0.034162
    761:-0.592085
    762:0.437179
    763:-0.264532
    764:0.440565
    765:-0.211181
    766:0.201533
    767:-0.633519
    768:0.225687
    769:-0.622109
    770:0.511041
    771:-0.668453
    772:0.174620
    773:-0.088388
    774:0.476956
    775:-0.537020
    776:0.424988
    777:-0.116547
    778:0.009437
    779:-0.406873
    780:0.590726
    781:-0.158768
    782:0.570706
    783:-0.552013
  Neuron 2:
    0:0.448832
    1:-0.032793
    2:0.459269
    3:-0.289726
    4:0.069200
    5:-0.584535
    6:0.323904
    7:-0.660704
    8:0.322453
    9:-0.587546
    10:0.401950
    11:-0.534010
    12:0.085265
    13:-0.339097
    14:0.056446
    15:-0.010476
    16:0.148852
    17:-0.026184
    18:0.188468
    19:-0.225388
    20:0.514603
    21:-0.020307
    22:0.651937
    23:-0.630114
    24:0.028529
    25:-0.357970
    26:0.520839
    27:-0.187297
    28:0.228676
    29:-0.372853
    30:0.304651
    31:-0.677508
    32:0.404670
    33:-0.065019
    34:0.260238
    35:-0.484687
    36:0.633873
    37:-0.607634
    38:0.424531
    39:-0.289756
    40:0.448028
    41:-0.163208
    42:0.086959
    43:-0.582706
    44:0.463187
    45:-0.166755
    46:0.570796
    47:-0.626185
    48:0.184384
    49:-0.066235
    50:0.146959
    51:-0.002909
    52:0.083565
    53:-0.102295
    54:0.632376
    55:-0.112094
    56:0.460265
    57:-0.453215
    58:0.299367
    59:-0.689082
    60:0.121296
    61:-0.605257
    62:0.651972
    63:-0.562450
    64:0.628695
    65:-0.282303
    66:0.257542
    67:-0.695302
    68:0.031925
    69:-0.167331
    70:0.040629
    71:-0.733539
    72:0.101341
    73:-0.314692
    74:0.460076
    75:-0.664538
    76:0.444884
    77:-0.361878
    78:0.567605
    79:-0.651407
    80:0.400155
    81:-0.032621
    82:0.643637
    83:-0.489541
    84:0.133351
    85:-0.576013
    86:0.601635
    87:-0.594946
    88:0.325122
    89:-0.210557
    90:0.563716
    91:-0.498719
    92:0.063421
    93:-0.631851
    94:0.192487
    95:-0.186104
    96:-0.067170
    97:-0.809931
    98:0.434951
    99:-0.378333
    100:0.514331
    101:-0.262177
    102:0.066611
    103:-0.188283
    104:0.385878
    105:-0.713335
    106:-0.046099
    107:-0.330486
    108:0.144238
    109:-0.689613
    110:0.165640
    111:-0.627633
    112:0.682766
    113:-0.107794
    114:0.415773
    115:-0.117336
    116:0.701896
    117:-0.302809
    118:0.010976
    119:-0.327359
    120:0.504247
    121:-0.574462
    122:0.071212
    123:-0.622059
    124:0.384946
    125:-0.403543
    126:0.594059
    127:-0.613276
    128:0.086062
    129:-0.762688
    130:-0.145768
    131:-0.291477
    132:0.020976
    133:-0.265883
    134:0.224195
    135:-0.624977
    136:-0.001334
    137:-0.362883
    138:0.145478
    139:-0.243727
    140:0.322538
    141:-0.320019
    142:0.167990
    143:-0.314014
    144:0.433764
    145:-0.604454
    146:0.405020
    147:-0.348815
    148:0.403672
    149:-0.282885
    150:0.186663
    151:-0.004886
    152:0.170167
    153:-0.295280
    154:0.366074
    155:-0.275924
    156:0.356193
    157:-0.745747
    158:0.365009
    159:-0.814553
    160:0.486131
    161:-0.634991
    162:0.332192
    163:0.101116
    164:0.199743
    165:-0.382532
    166:0.051597
    167:-0.081695
    168:0.152110
    169:-0.191829
    170:0.328019
    171:-0.505968
    172:0.519031
    173:-0.525016
    174:0.100742
    175:-0.093086
    176:0.472198
    177:-0.371511
    178:0.639763
    179:-0.609129
    180:0.071919
    181:-0.998325
    182:0.212052
    183:-0.992198
    184:-0.263090
    185:-0.775295
    186:0.445865
    187:-0.593999
    188:0.617018
    189:-0.264002
    190:0.806134
    191:-0.004202
    192:0.681892
    193:-0.522320
    194:0.580782
    195:-0.486612
    196:0.475870
    197:-0.591577
    198:0.579500
    199:-0.669067
    200:0.056484
    201:-0.251201
    202:0.464177
    203:-0.482265
    204:0.038398
    205:-0.402775
    206:-0.001369
    207:-0.508370
    208:-0.285966
    209:-0.672443
    210:-0.360549
    211:-1.206125
    212:-0.641954
    213:-0.547358
    214:0.281387
    215:-0.079606
    216:0.427347
    217:0.264464
    218:1.204860
    219:0.017956
    220:0.479677
    221:-0.181395
    222:0.422215
    223:-0.518479
    224:0.439137
    225:-0.203247
    226:0.326919
    227:-0.258618
    228:0.107273
    229:-0.207348
    230:0.126633
    231:-0.201070
    232:0.358115
    233:-0.452113
    234:0.060487
    235:-0.420738
    236:0.225193
    237:-0.477886
    238:-0.242968
    239:-0.812336
    240:0.069377
    241:-0.403905
    242:0.496747
    243:0.067047
    244:0.867554
    245:0.442620
    246:0.833851
    247:-0.082897
    248:0.770417
    249:-0.045270
    250:0.600211
    251:-0.476317
    252:0.133699
    253:-0.175073
    254:0.322753
    255:-0.574169
    256:0.416555
    257:-0.549756
    258:0.127094
    259:-0.464571
    260:0.211815
    261:0.058528
    262:0.666917
    263:-0.264688
    264:0.164262
    265:-0.000093
    266:0.135146
    267:-0.483844
    268:0.076433
    269:-0.073377
    270:0.362741
    271:-0.340648
    272:0.197255
    273:0.173176
    274:0.343487
    275:-0.234252
    276:0.425898
    277:-0.251436
    278:0.615342
    279:-0.480104
    280:0.281120
    281:-0.359011
    282:0.286564
    283:-0.400477
    284:0.664886
    285:-0.474418
    286:0.298504
    287:-0.211597
    288:0.628486
    289:-0.044257
    290:0.344417
    291:-0.141094
    292:1.032906
    293:-0.466446
    294:0.449237
    295:-0.760622
    296:-0.075402
    297:-0.052215
    298:0.088766
    299:-0.368753
    300:0.079243
    301:-0.841376
    302:-0.164267
    303:-0.435333
    304:0.747024
    305:-0.009799
    306:0.340904
    307:-0.053335
    308:0.082348
    309:-0.104851
    310:0.556509
    311:-0.357195
    312:0.576708
    313:0.013387
    314:0.094134
    315:-0.307608
    316:0.879801
    317:-0.095049
    318:0.921784
    319:0.006670
    320:0.400992
    321:-0.359894
    322:0.014409
    323:-0.752400
    324:0.420397
    325:-0.344010
    326:0.082483
    327:-0.971950
    328:-0.307033
    329:-0.861118
    330:-0.507691
    331:-1.142998
    332:-0.048352
    333:-0.104778
    334:0.424499
    335:-0.112759
    336:0.298205
    337:-0.674747
    338:0.191571
    339:-0.353703
    340:0.163167
    341:0.076707
    342:0.044785
    343:-0.524729
    344:0.129740
    345:0.301877
    346:0.682604
    347:0.396513
    348:0.858831
    349:-0.253957
    350:0.024430
    351:-0.837421
    352:0.347236
    353:-0.412886
    354:0.061367
    355:-0.667621
    356:0.004400
    357:-1.083235
    358:-0.399224
    359:-0.767893
    360:0.236894
    361:-0.407174
    362:0.279624
    363:0.002939
    364:0.435186
    365:-0.672785
    366:0.145974
    367:-0.007465
    368:0.703668
    369:-0.164808
    370:0.433367
    371:0.162806
    372:0.430527
    373:0.007001
    374:0.940872
    375:-0.157948
    376:0.536180
    377:-0.609734
    378:-0.208098
    379:-0.736445
    380:0.064949
    381:-0.482962
    382:0.149398
    383:-0.173451
    384:-0.209095
    385:-1.009588
    386:0.096604
    387:-0.410051
    388:-0.002259
    389:-0.102043
    390:0.422018
    391:-0.040980
    392:0.342136
    393:-0.693644
    394:0.066498
    395:-0.046688
    396:0.729240
    397:0.033138
    398:0.212222
    399:-0.338028
    400:0.524412
    401:-0.382533
    402:0.637897
    403:-0.202971
    404:0.088282
    405:-0.917831
    406:-0.083714
    407:-0.497699
    408:0.551874
    409:-0.303609
    410:0.571264
    411:-0.072748
    412:0.131311
    413:-0.761511
    414:0.018138
    415:-0.429430
    416:0.453227
    417:-0.662253
    418:0.451043
    419:-0.071849
    420:0.644321
    421:-0.168650
    422:0.124846
    423:-0.266231
    424:0.169968
    425:0.005716
    426:0.517412
    427:0.168115
    428:0.465411
    429:-0.379401
    430:0.151172
    431:-0.159376
    432:0.231194
    433:-0.179163
    434:0.082427
    435:-0.548243
    436:0.737286
    437:0.165756
    438:0.208868
    439:-0.319115
    440:0.534435
    441:-0.443871
    442:0.082913
    443:-0.591695
    444:0.478652
    445:-0.268529
    446:0.161540
    447:-0.389820
    448:0.139403
    449:-0.618367
    450:0.471410
    451:-0.093252
    452:0.102406
    453:-0.409922
    454:0.459581
    455:-0.245292
    456:0.044070
    457:-0.171318
    458:0.016511
    459:-0.622492
    460:0.463659
    461:-0.247906
    462:0.568840
    463:-0.089991
    464:0.646852
    465:0.078211
    466:0.900737
    467:-0.058769
    468:0.241000
    469:0.056922
    470:0.340663
    471:-0.505547
    472:0.537433
    473:-0.409190
    474:0.349548
    475:-0.386743
    476:0.573852
    477:-0.519854
    478:0.085462
    479:-0.031212
    480:0.511799
    481:-0.347899
    482:0.340666
    483:-0.470603
    484:0.309492
    485:-0.644117
    486:-0.128341
    487:-0.688829
    488:0.506442
    489:-0.011026
    490:0.475771
    491:-0.002825
    492:0.495777
    493:0.140107
    494:0.721590
    495:-0.320577
    496:0.117248
    497:-0.401518
    498:0.373532
    499:-0.157421
    500:0.427115
    501:-0.003314
    502:0.053718
    503:-0.281606
    504:0.365255
    505:-0.388235
    506:0.667721
    507:-0.259335
    508:0.288152
    509:0.013184
    510:0.459219
    511:-0.673541
    512:0.268028
    513:-0.741438
    514:0.022445
    515:-0.700379
    516:0.008540
    517:-0.437330
    518:0.464157
    519:-0.249069
    520:0.555920
    521:-0.357610
    522:0.274846
    523:-0.452944
    524:0.328560
    525:-0.758243
    526:0.467768
    527:-0.670630
    528:0.385008
    529:-0.166574
    530:0.230938
    531:-0.071721
    532:0.202270
    533:-0.244174
    534:0.350921
    535:-0.621431
    536:0.619839
    537:-0.285711
    538:0.235098
    539:-0.209529
    540:0.187872
    541:-0.783717
    542:-0.244318
    543:-0.473169
    544:0.031242
    545:-0.520662
    546:0.217176
    547:-0.052555
    548:0.256782
    549:-0.285885
    550:-0.190616
    551:-0.045274
    552:-0.171738
    553:-0.392439
    554:0.433207
    555:-0.590299
    556:0.268904
    557:-0.329297
    558:0.596341
    559:-0.561792
    560:0.546691
    561:-0.098088
    562:0.605235
    563:-0.115751
    564:0.302352
    565:-0.326157
    566:0.563737
    567:-0.303834
    568:0.560122
    569:-0.174579
    570:0.233091
    571:-0.464164
    572:0.420680
    573:-0.352259
    574:0.104603
    575:-0.523191
    576:0.189176
    577:-0.307394
    578:0.464104
    579:-0.101807
    580:0.399475
    581:-0.577790
    582:0.145747
    583:-0.495990
    584:0.205663
    585:-0.629495
    586:0.487840
    587:-0.345333
    588:0.285890
    589:-0.370566
    590:0.186249
    591:-0.210289
    592:0.385685
    593:-0.281088
    594:0.155610
    595:-0.126165
    596:0.414565
    597:-0.036394
    598:0.369114
    599:-0.374417
    600:0.063021
    601:-0.254216
    602:-0.096404
    603:-0.804832
    604:0.407997
    605:-0.249454
    606:0.291728
    607:-0.192474
    608:0.505515
    609:0.109183
    610:0.524202
    611:-0.083914
    612:0.641430
    613:-0.465006
    614:0.071711
    615:-0.001480
    616:0.396761
    617:-0.550921
    618:0.336443
    619:-0.705840
    620:0.099668
    621:-0.741484
    622:-0.080655
    623:-0.881089
    624:0.629417
    625:-0.365580
    626:0.077399
    627:-0.369046
    628:0.411120
    629:-0.629725
    630:-0.132190
    631:-0.640540
    632:0.546705
    633:0.003413
    634:0.448864
    635:-0.409293
    636:0.722434
    637:-0.183488
    638:0.267875
    639:-0.076359
    640:0.550982
    641:-0.468515
    642:0.361609
    643:-0.395634
    644:0.228520
    645:-0.430401
    646:0.398112
    647:-0.638560
    648:0.222635
    649:-0.119276
    650:0.432444
    651:-0.720642
    652:0.604959
    653:0.017590
    654:0.560641
    655:-0.463243
    656:0.296926
    657:-0.572187
    658:0.205113
    659:-0.000369
    660:0.408137
    661:-0.285427
    662:0.697604
    663:-0.125612
    664:0.306722
    665:0.104474
    666:0.241479
    667:-0.509419
    668:0.662481
    669:-0.224279
    670:0.678351
    671:-0.489722
    672:0.693763
    673:-0.340654
    674:0.184953
    675:-0.209291
    676:0.079532
    677:-0.554340
    678:0.133277
    679:-0.303133
    680:0.598149
    681:-0.132504
    682:0.181826
    683:-0.472884
    684:0.143067
    685:-0.606343
    686:0.281549
    687:-0.251118
    688:0.596399
    689:-0.015173
    690:0.372638
    691:-0.108759
    692:0.655773
    693:-0.158572
    694:0.520942
    695:-0.621473
    696:0.393446
    697:-0.657404
    698:0.403840
    699:-0.359444
    700:0.182674
    701:-0.381749
    702:0.149081
    703:-0.158476
    704:0.037965
    705:-0.278560
    706:0.496882
    707:0.014770
    708:0.254503
    709:-0.510526
    710:0.531434
    711:-0.085639
    712:0.522385
    713:-0.573787
    714:0.529834
    715:-0.761962
    716:0.296262
    717:-0.648762
    718:0.172686
    719:-0.473808
    720:0.327422
    721:-0.231995
    722:0.603027
    723:-0.306974
    724:0.340281
    725:-0.481277
    726:0.194047
    727:-0.031357
    728:0.439734
    729:-0.596674
    730:0.390801
    731:-0.622377
    732:0.282113
    733:-0.529120
    734:0.117247
    735:-0.275024
    736:0.165656
    737:-0.558618
    738:0.306877
    739:-0.512600
    740:0.133157
    741:-0.373752
    742:0.241810
    743:-0.546138
    744:-0.183990
    745:-0.676787
    746:0.114439
    747:-0.644276
    748:0.149167
    749:-0.658285
    750:0.278569
    751:-0.655721
    752:0.695001
    753:-0.235393
    754:0.262089
    755:-0.334126
    756:0.017431
    757:-0.455530
    758:0.365483
    759:-0.457165
    760:0.352639
    761:-0.055817
    762:0.379697
    763:-0.629986
    764:0.575041
    765:-0.498089
    766:0.209347
    767:-0.081486
    768:0.271458
    769:-0.627697
    770:0.463934
    771:-0.607242
    772:0.089224
    773:-0.259614
    774:0.200793
    775:-0.092724
    776:0.112479
    777:-0.390870
    778:0.004019
    779:-0.300459
    780:0.296644
    781:-0.293433
    782:0.265276
    783:-0.294153
  Neuron 3:
    0:0.527365
    1:-0.628279
    2:0.546416
    3:-0.282895
    4:0.293762
    5:-0.303581
    6:0.635099
    7:-0.350046
    8:0.683154
    9:-0.565725
    10:0.246296
    11:-0.461571
    12:0.107381
    13:-0.306831
    14:0.037594
    15:-0.022874
    16:0.079245
    17:-0.657385
    18:0.088769
    19:-0.376998
    20:0.122847
    21:-0.196131
    22:0.481436
    23:-0.514382
    24:0.196415
    25:-0.087803
    26:0.111025
    27:-0.489849
    28:0.353079
    29:-0.405178
    30:0.318834
    31:-0.180445
    32:0.333456
    33:-0.160122
    34:0.485204
    35:-0.597187
    36:0.503909
    37:-0.359945
    38:0.318943
    39:-0.382022
    40:0.342816
    41:-0.455076
    42:0.238215
    43:-0.329618
    44:0.163948
    45:-0.229168
    46:0.399554
    47:-0.210463
    48:0.235028
    49:-0.448093
    50:0.622212
    51:-0.323822
    52:0.669157
    53:-0.378272
    54:0.145723
    55:-0.165572
    56:0.466075
    57:-0.256748
    58:0.655421
    59:-0.119140
    60:0.661943
    61:-0.266087
    62:0.326027
    63:-0.220352
    64:0.554597
    65:0.109832
    66:0.469198
    67:0.068296
    68:0.701799
    69:-0.259006
    70:0.790451
    71:0.169492
    72:0.512850
    73:0.015751
    74:0.558023
    75:-0.327801
    76:0.516879
    77:0.005897
    78:0.732947
    79:-0.608937
    80:0.543150
    81:-0.580541
    82:0.264821
    83:-0.513323
    84:0.258962
    85:-0.410544
    86:0.678894
    87:-0.022717
    88:0.670977
    89:-0.621601
    90:0.250184
    91:-0.437161
    92:0.400572
    93:-0.100708
    94:0.517913
    95:-0.230863
    96:0.939574
    97:-0.091293
    98:0.554849
    99:0.083784
    100:0.589471
    101:0.228849
    102:0.581356
    103:-0.216719
    104:0.518247
    105:-0.460948
    106:0.405947
    107:0.045289
    108:0.076335
    109:-0.308813
    110:0.656645
    111:-0.595843
    112:0.199048
    113:-0.213885
    114:0.409067
    115:-0.457585
    116:0.636869
    117:-0.344632
    118:0.639373
    119:-0.403052
    120:0.547693
    121:-0.253532
    122:0.790708
    123:-0.273074
    124:0.380535
    125:0.028396
    126:0.685014
    127:-0.010520
    128:0.608996
    129:-0.400761
    130:0.701865
    131:0.365841
    132:0.294305
    133:0.118753
    134:0.543741
    135:-0.326444
    136:0.019809
    137:-0.266615
    138:0.361399
    139:-0.072028
    140:0.563157
    141:-0.307421
    142:0.668250
    143:-0.061511
    144:0.540432
    145:-0.364945
    146:0.653223
    147:-0.250525
    148:0.232646
    149:0.014770
    150:0.756632
    151:0.165212
    152:0.570807
    153:0.327617
    154:0.698427
    155:-0.096604
    156:0.426480
    157:-0.390071
    158:0.095868
    159:-0.534977
    160:0.713569
    161:-0.355153
    162:-0.030065
    163:-0.747671
    164:0.470028
    165:-0.694060
    166:0.325880
    167:-0.585829
    168:0.191612
    169:-0.685409
    170:0.659904
    171:-0.047922
    172:0.302565
    173:-0.631680
    174:0.167585
    175:-0.030847
    176:0.401312
    177:-0.387406
    178:0.656424
    179:-0.184186
    180:0.171067
    181:-0.143073
    182:0.059496
    183:-0.512344
    184:-0.063450
    185:-0.522530
    186:-0.031988
    187:-0.552294
    188:0.055983
    189:-0.574503
    190:0.186742
    191:-0.481160
    192:0.197153
    193:-0.548281
    194:0.219519
    195:-0.132706
    196:0.536519
    197:-0.519249
    198:0.015345
    199:-0.051169
    200:0.487324
    201:-0.692604
    202:0.124870
    203:-0.131619
    204:0.515440
    205:-0.353039
    206:-0.033146
    207:-0.534964
    208:-0.273001
    209:-0.434656
    210:0.024909
    211:-0.835726
    212:-0.342392
    213:-1.069536
    214:-0.407156
    215:-0.714822
    216:-0.400844
    217:-0.845773
    218:0.106630
    219:-0.614176
    220:0.222341
    221:-0.215160
    222:0.712199
    223:-0.544775
    224:0.229147
    225:-0.158446
    226:0.662740
    227:-0.110040
    228:0.591287
    229:-0.028234
    230:0.116944
    231:-0.489010
    232:-0.127534
    233:-0.554237
    234:0.119141
    235:-0.981634
    236:-0.278446
    237:-0.540576
    238:-0.447357
    239:-0.974052
    240:-0.557448
    241:-1.103557
    242:-0.348197
    243:-0.725706
    244:-0.036301
    245:-0.811012
    246:-0.031727
    247:-0.234087
    248:0.208876
    249:0.102812
    250:0.602202
    251:-0.468700
    252:0.427622
    253:-0.544965
    254:0.267247
    255:-0.690111
    256:0.656576
    257:-0.362290
    258:-0.033484
    259:-0.758210
    260:0.055699
    261:-0.727802
    262:-0.169339
    263:-0.989784
    264:-0.502222
    265:-0.656687
    266:-0.043195
    267:-0.162120
    268:-0.062815
    269:-0.830336
    270:-0.071528
    271:-1.057500
    272:-0.220224
    273:-0.436765
    274:-0.201513
    275:-0.289042
    276:0.499878
    277:-0.237155
    278:0.456564
    279:-0.620494
    280:0.563232
    281:-0.272573
    282:0.416150
    283:-0.302544
    284:0.061410
    285:-0.116655
    286:0.036744
    287:-0.345240
    288:-0.098399
    289:-0.748667
    290:-0.458930
    291:-1.263706
    292:0.142297
    293:-0.290230
    294:0.504018
    295:0.002891
    296:-0.272430
    297:-0.895712
    298:-0.322105
    299:-0.872059
    300:-0.156274
    301:-0.777803
    302:-0.032101
    303:-0.729930
    304:0.681779
    305:-0.138586
    306:0.196410
    307:-0.442464
    308:0.109365
    309:-0.585245
    310:0.401377
    311:-0.573894
    312:0.090835
    313:-0.173181
    314:0.026433
    315:-0.546261
    316:-0.200076
    317:-0.593199
    318:0.011957
    319:-0.624283
    320:0.287393
    321:0.107650
    322:0.981549
    323:-0.060662
    324:0.026487
    325:-0.284122
    326:0.102463
    327:-0.678145
    328:0.003115
    329:-0.918151
    330:-0.436122
    331:-0.399010
    332:0.529075
    333:-0.163607
    334:0.032767
    335:-0.612385
    336:0.606149
    337:-0.185710
    338:0.372119
    339:0.042291
    340:0.025077
    341:-0.934176
    342:0.480657
    343:-0.320164
    344:0.202452
    345:-0.179624
    346:0.379785
    347:-0.146427
    348:0.443443
    349:0.490642
    350:1.314380
    351:0.396375
    352:0.115943
    353:-0.182768
    354:-0.061474
    355:-0.196425
    356:0.108726
    357:-0.853648
    358:0.361416
    359:-0.365203
    360:0.571205
    361:-0.009108
    362:0.230457
    363:-0.514543
    364:0.327103
    365:-0.248098
    366:0.420911
    367:-0.187556
    368:0.393714
    369:-0.324885
    370:0.076246
    371:-0.392150
    372:0.183379
    373:-0.076984
    374:0.040934
    375:0.080176
    376:0.599752
    377:0.106825
    378:0.936997
    379:-0.034931
    380:0.382780
    381:0.129701
    382:0.155803
    383:-0.074606
    384:0.399294
    385:-0.118290
    386:0.191836
    387:-0.711379
    388:0.135612
    389:-0.474901
    390:0.032314
    391:-0.655696
    392:0.569239
    393:-0.271173
    394:0.464437
    395:-0.145984
    396:0.422579
    397:-0.418073
    398:0.228592
    399:-0.306638
    400:0.196762
    401:-0.496689
    402:-0.097181
    403:-0.590480
    404:0.098359
    405:0.154635
    406:0.752311
    407:0.170947
    408:0.320359
    409:-0.586306
    410:0.260741
    411:-0.111099
    412:0.096811
    413:-0.551339
    414:0.487729
    415:-0.445246
    416:0.102998
    417:-0.464314
    418:0.279545
    419:-0.092748
    420:0.334607
    421:-0.321132
    422:0.068578
    423:-0.165853
    424:0.491568
    425:-0.693986
    426:0.132024
    427:-0.886804
    428:0.181508
    429:-0.526309
    430:-0.427779
    431:-0.622167
    432:-0.093335
    433:-0.122114
    434:0.534905
    435:-0.137453
    436:0.465520
    437:-0.392123
    438:-0.124500
    439:-0.136481
    440:0.703137
    441:-0.032958
    442:0.654670
    443:-0.642282
    444:0.278012
    445:-0.589908
    446:0.349087
    447:-0.205957
    448:0.486522
    449:-0.643859
    450:0.327123
    451:-0.045735
    452:0.199628
    453:-0.561184
    454:0.048772
    455:-0.694567
    456:-0.627149
    457:-0.590890
    458:0.030179
    459:-0.714736
    460:-0.106423
    461:0.003144
    462:0.317609
    463:-0.316047
    464:-0.072687
    465:-0.670641
    466:0.286870
    467:-0.259590
    468:0.160413
    469:-0.050194
    470:0.488224
    471:0.034968
    472:0.473136
    473:-0.325315
    474:-0.018396
    475:-0.584512
    476:0.384466
    477:-0.364837
    478:0.130767
    479:-0.097160
    480:0.440305
    481:-0.390700
    482:0.127430
    483:-0.781211
    484:-0.390825
    485:-0.974754
    486:-0.263431
    487:-0.336399
    488:0.371964
    489:0.044346
    490:0.315688
    491:-0.237310
    492:-0.158898
    493:-0.329891
    494:0.376581
    495:-0.129176
    496:0.729154
    497:0.070401
    498:0.680823
    499:-0.348126
    500:0.504351
    501:-0.499105
    502:0.343079
    503:-0.214902
    504:0.154361
    505:-0.401281
    506:0.132068
    507:-0.398301
    508:0.359058
    509:-0.107262
    510:0.017618
    511:-0.201136
    512:0.369422
    513:-0.171507
    514:0.439747
    515:0.038400
    516:0.521401
    517:-0.020500
    518:0.503748
    519:-0.132287
    520:0.448898
    521:0.187720
    522:0.482397
    523:0.053626
    524:0.668753
    525:-0.211622
    526:0.188689
    527:-0.031427
    528:0.211842
    529:-0.195644
    530:0.582524
    531:-0.652748
    532:0.527003
    533:-0.325723
    534:0.176558
    535:-0.538612
    536:0.316427
    537:-0.123582
    538:0.667557
    539:0.354011
    540:0.839765
    541:0.157451
    542:1.041829
    543:0.577010
    544:0.650225
    545:0.443350
    546:0.226886
    547:-0.093460
    548:0.586419
    549:-0.176530
    550:0.809003
    551:0.212092
    552:0.497806
    553:0.332689
    554:0.665610
    555:-0.460038
    556:0.778230
    557:-0.587667
    558:0.191853
    559:-0.158462
    560:0.677408
    561:-0.151651
    562:0.138638
    563:-0.328706
    564:0.737343
    565:-0.086994
    566:0.686622
    567:0.032079
    568:0.730762
    569:0.355994
    570:1.367317
    571:0.689535
    572:0.630943
    573:0.188501
    574:0.625594
    575:0.080069
    576:0.476659
    577:-0.029666
    578:0.943089
    579:0.108634
    580:0.533926
    581:-0.260030
    582:0.319066
    583:-0.237436
    584:0.523584
    585:-0.699657
    586:0.337236
    587:-0.514791
    588:0.541628
    589:-0.566225
    590:0.724663
    591:-0.360062
    592:0.193633
    593:-0.006487
    594:0.416128
    595:-0.056482
    596:0.578225
    597:0.309012
    598:0.617940
    599:-0.026284
    600:0.633164
    601:0.291219
    602:0.389035
    603:-0.260345
    604:0.586457
    605:0.241100
    606:0.528217
    607:-0.027564
    608:0.740881
    609:-0.019613
    610:0.477071
    611:-0.621412
    612:0.490751
    613:-0.079688
    614:0.360245
    615:-0.330105
    616:0.005578
    617:-0.686078
    618:0.168637
    619:-0.437147
    620:0.727385
    621:-0.063393
    622:0.394632
    623:-0.523875
    624:0.311658
    625:-0.492372
    626:0.247767
    627:-0.325772
    628:-0.063939
    629:-0.505618
    630:0.373743
    631:-0.393613
    632:0.456002
    633:-0.080938
    634:0.442309
    635:-0.157962
    636:0.585939
    637:-0.646385
    638:0.542049
    639:-0.418652
    640:0.498509
    641:-0.399962
    642:0.406551
    643:-0.379612
    644:0.430147
    645:-0.041131
    646:0.015538
    647:-0.366156
    648:0.178049
    649:-0.054044
    650:0.294925
    651:-0.766698
    652:0.163274
    653:-0.795275
    654:0.065288
    655:-0.729530
    656:0.032203
    657:-0.520672
    658:-0.088411
    659:-0.083197
    660:0.019554
    661:-0.521566
    662:0.462583
    663:-0.411605
    664:0.155664
    665:-0.330371
    666:0.430407
    667:-0.341492
    668:-0.031725
    669:-0.335427
    670:0.658109
    671:-0.605960
    672:0.016326
    673:-0.335521
    674:0.285703
    675:-0.434942
    676:0.390185
    677:-0.211193
    678:0.288626
    679:-0.487082
    680:0.430819
    681:-0.371975
    682:0.263066
    683:-0.240615
    684:0.155753
    685:-0.181109
    686:0.217459
    687:-0.361119
    688:-0.072401
    689:-0.715501
    690:0.245141
    691:-0.516930
    692:0.345765
    693:-0.434552
    694:0.481674
    695:-0.297546
    696:0.433414
    697:-0.439190
    698:0.433400
    699:-0.500336
    700:0.054921
    701:-0.373818
    702:0.406296
    703:-0.071829
    704:-0.000549
    705:-0.730759
    706:0.453849
    707:-0.443007
    708:0.207510
    709:-0.797330
    710:-0.105454
    711:-0.254518
    712:0.124128
    713:-0.604247
    714:-0.298300
    715:-0.442684
    716:0.110547
    717:-0.804201
    718:0.277403
    719:-0.765364
    720:0.387238
    721:-0.299375
    722:0.093073
    723:-0.449439
    724:0.436300
    725:-0.102258
    726:0.600975
    727:-0.214923
    728:0.525907
    729:-0.334560
    730:0.015259
    731:-0.581869
    732:0.005873
    733:-0.420784
    734:0.638831
    735:-0.034519
    736:0.393342
    737:-0.525158
    738:0.328536
    739:-0.116730
    740:0.352861
    741:-0.598295
    742:-0.058660
    743:-0.331908
    744:0.098447
    745:-0.155235
    746:0.318344
    747:-0.631987
    748:0.598079
    749:-0.247002
    750:0.457777
    751:-0.474795
    752:0.448562
    753:-0.633028
    754:0.170630
    755:-0.198325
    756:0.035677
    757:-0.071215
    758:0.413248
    759:-0.561583
    760:0.405735
    761:-0.428779
    762:0.441992
    763:-0.415820
    764:0.148204
    765:-0.395278
    766:0.434776
    767:-0.559827
    768:0.162953
    769:-0.143482
    770:0.542381
    771:-0.652953
    772:0.644331
    773:-0.588655
    774:0.153306
    775:-0.111309
    776:-0.004617
    777:-0.574446
    778:0.681987
    779:-0.645320
    780:0.114657
    781:-0.440188
    782:0.409661
    783:-0.563217
  Neuron 4:
    0:0.580292
    1:-0.061542
    2:0.408892
    3:-0.651506
    4:0.474790
    5:-0.270476
    6:0.357281
    7:-0.203296
    8:0.012886
    9:-0.071434
    10:0.353357
    11:-0.407372
    12:0.503302
    13:-0.216840
    14:0.571652
    15:-0.638878
    16:0.080899
    17:-0.505468
    18:0.568196
    19:-0.683065
    20:0.672984
    21:-0.665651
    22:0.685766
    23:-0.550902
    24:0.643908
    25:-0.631052
    26:0.665559
    27:-0.384096
    28:0.340713
    29:-0.528776
    30:0.057311
    31:-0.221005
    32:0.590318
    33:-0.466204
    34:0.172383
    35:-0.365144
    36:0.031264
    37:-0.535825
    38:0.556695
    39:-0.056440
    40:0.594131
    41:-0.222264
    42:0.455955
    43:-0.398202
    44:0.449546
    45:-0.326966
    46:0.341405
    47:-0.526828
    48:0.109791
    49:-0.234883
    50:0.485516
    51:-0.107042
    52:0.177254
    53:-0.488332
    54:0.657944
    55:-0.121162
    56:0.419383
    57:-0.623503
    58:0.505257
    59:-0.056953
    60:0.455041
    61:-0.563016
    62:0.268253
    63:-0.376117
    64:0.298575
    65:-0.487435
    66:-0.045105
    67:-0.441828
    68:0.221089
    69:-0.644522
    70:0.340909
    71:-0.295163
    72:-0.004492
    73:-0.255583
    74:0.468979
    75:-0.619891
    76:0.401281
    77:-0.304034
    78:0.302654
    79:-0.644353
    80:0.446867
    81:-0.158553
    82:0.041645
    83:-0.621423
    84:0.646868
    85:-0.699588
    86:0.042746
    87:-0.369740
    88:0.618279
    89:-0.579173
    90:0.374539
    91:-0.414363
    92:0.385564
    93:-0.011826
    94:0.029965
    95:-0.039750
    96:0.496578
    97:-0.019700
    98:0.390935
    99:-0.059209
    100:0.477931
    101:-0.141713
    102:0.094438
    103:-0.783610
    104:0.148522
    105:-0.184821
    106:0.422872
    107:-0.154907
    108:0.348464
    109:-0.183809
    110:0.026100
    111:-0.094994
    112:0.350628
    113:-0.068409
    114:0.016565
    115:-0.304140
    116:0.062124
    117:-0.057705
    118:0.701659
    119:-0.564652
    120:0.707554
    121:-0.218413
    122:0.608495
    123:-0.090194
    124:0.672470
    125:-0.135245
    126:0.427481
    127:0.006781
    128:0.307354
    129:-0.176480
    130:0.101511
    131:-0.224718
    132:-0.040035
    133:-0.590438
    134:0.011406
    135:-0.784475
    136:0.415176
    137:-0.196398
    138:0.563305
    139:-0.199257
    140:0.339736
    141:-0.591267
    142:0.296476
    143:-0.681899
    144:0.744861
    145:-0.194212
    146:0.486388
    147:0.194992
    148:0.674555
    149:0.121857
    150:0.371958
    151:-0.005516
    152:1.074178
    153:0.188733
    154:1.288784
    155:0.518376
    156:0.631520
    157:0.291964
    158:0.656588
    159:-0.422719
    160:-0.044295
    161:-0.328654
    162:-0.360909
    163:-1.065845
    164:0.010739
    165:-0.556438
    166:0.237665
    167:-0.282235
    168:0.550757
    169:-0.125904
    170:0.488694
    171:-0.102623
    172:0.178854
    173:0.092858
    174:0.482421
    175:-0.522640
    176:0.580039
    177:-0.292587
    178:0.260950
    179:0.096509
    180:0.250689
    181:0.396722
    182:0.922031
    183:0.174749
    184:1.035313
    185:0.239184
    186:0.658528
    187:-0.573360
    188:0.286899
    189:-0.306687
    190:-0.066708
    191:-0.686078
    192:-0.426192
    193:-0.613777
    194:0.498247
    195:-0.543561
    196:0.055095
    197:-0.163207
    198:0.108274
    199:-0.496074
    200:0.468722
    201:-0.431463
    202:0.185390
    203:-0.359034
    204:0.576057
    205:-0.176731
    206:0.309259
    207:-0.338999
    208:0.270610
    209:-0.052108
    210:0.563072
    211:0.367675
    212:0.872367
    213:0.378042
    214:0.280809
    215:0.043001
    216:0.107533
    217:-0.443451
    218:0.172918
    219:-0.771938
    220:-0.340349
    221:-0.500791
    222:0.113761
    223:-0.543365
    224:0.449908
    225:-0.120515
    226:0.344557
    227:-0.437689
    228:0.409997
    229:-0.407229
    230:0.337406
    231:-0.938317
    232:0.216042
    233:-0.647770
    234:-0.085009
    235:-0.727526
    236:-0.318418
    237:-0.604412
    238:0.390336
    239:0.610951
    240:1.050536
    241:0.394364
    242:0.845457
    243:-0.039894
    244:0.517627
    245:-0.130396
    246:0.364740
    247:-0.821019
    248:-0.200813
    249:-0.843326
    250:0.235939
    251:-0.316047
    252:0.431662
    253:-0.542450
    254:0.101919
    255:-0.203014
    256:0.686392
    257:-0.589703
    258:0.382101
    259:-0.693462
    260:-0.374806
    261:-1.013275
    262:-0.648956
    263:-1.284488
    264:-0.514884
    265:-0.668028
    266:0.427711
    267:0.584919
    268:1.012569
    269:0.421306
    270:0.946293
    271:0.216319
    272:0.308407
    273:-0.296266
    274:0.534009
    275:-0.395153
    276:-0.291778
    277:-0.845814
    278:0.128736
    279:-0.103781
    280:0.128446
    281:-0.534000
    282:0.374717
    283:-0.589547
    284:0.169615
    285:-0.974530
    286:-0.529641
    287:-0.932291
    288:-0.485395
    289:-1.184743
    290:-0.281151
    291:-1.441944
    292:-0.790821
    293:-1.352882
    294:0.343001
    295:-0.433310
    296:0.393237
    297:0.002339
    298:0.481837
    299:0.248997
    300:0.819430
    301:0.269433
    302:0.753539
    303:0.032899
    304:-0.012297
    305:-0.761071
    306:0.044464
    307:-0.286965
    308:0.448376
    309:-0.305953
    310:0.353899
    311:-0.611382
    312:-0.193234
    313:-0.620773
    314:-0.141657
    315:-1.209994
    316:-0.289457
    317:-1.183075
    318:-0.538436
    319:-1.138844
    320:-0.472711
    321:-1.262100
    322:-0.215548
    323:-0.710161
    324:0.201254
    325:-0.315642
    326:0.219631
    327:0.034392
    328:0.699477
    329:-0.012705
    330:0.887113
    331:0.047421
    332:0.810715
    333:-0.639986
    334:0.276477
    335:-0.023815
    336:0.559942
    337:-0.367713
    338:0.280069
    339:-0.390297
    340:0.357347
    341:-0.813240
    342:-0.391196
    343:-0.651704
    344:-0.353125
    345:-0.798719
    346:-0.065198
    347:-0.466795
    348:-0.117683
    349:-0.846575
    350:-0.199036
    351:-0.704692
    352:0.051491
    353:-0.751713
    354:0.337958
    355:-0.539448
    356:0.419761
    357:0.113080
    358:0.853375
    359:0.046618
    360:0.828696
    361:-0.640131
    362:0.524019
    363:-0.649669
    364:0.523709
    365:-0.131085
    366:0.635512
    367:-0.464372
    368:0.290754
    369:-0.272510
    370:0.503957
    371:-0.412415
    372:0.320160
    373:0.012382
    374:0.319630
    375:-0.594914
    376:-0.043182
    377:-0.373975
    378:-0.066600
    379:-1.173766
    380:-0.305055
    381:-0.385097
    382:-0.414239
    383:-0.353239
    384:0.243226
    385:-0.666169
    386:0.585347
    387:-0.259649
    388:0.788539
    389:-0.618822
    390:0.119140
    391:-0.679424
    392:0.518817
    393:-0.641306
    394:0.618978
    395:-0.430395
    396:0.114997
    397:-0.353588
    398:0.199728
    399:-0.184835
    400:0.464874
    401:0.242299
    402:0.194853
    403:-0.248511
    404:0.284264
    405:-0.318566
    406:-0.526674
    407:-0.895843
    408:-0.072900
    409:-0.715071
    410:-0.168829
    411:-0.247604
    412:0.126545
    413:-0.376697
    414:0.246173
    415:-0.285568
    416:0.115012
    417:-0.136216
    418:0.281041
    419:-0.048339
    420:0.668056
    421:-0.379405
    422:0.041898
    423:-0.494972
    424:0.536464
    425:-0.029369
    426:0.543042
    427:0.169104
    428:0.739439
    429:0.061002
    430:-0.002155
    431:-0.174260
    432:-0.262698
    433:-1.206358
    434:-0.379138
    435:-1.144590
    436:0.031729
    437:-0.553975
    438:0.359891
    439:-0.576964
    440:0.001732
    441:-0.416187
    442:0.288341
    443:-0.317139
    444:0.328683
    445:-0.583355
    446:0.179136
    447:-0.286298
    448:0.568091
    449:-0.405516
    450:0.362465
    451:-0.492710
    452:0.440172
    453:0.263301
    454:0.857860
    455:-0.001538
    456:0.325718
    457:-0.168666
    458:-0.109800
    459:-0.491775
    460:0.179354
    461:-1.124497
    462:-0.392285
    463:-0.611705
    464:-0.114687
    465:0.159911
    466:0.448572
    467:0.020784
    468:-0.175086
    469:-0.647420
    470:0.386273
    471:-0.327224
    472:0.554484
    473:-0.060332
    474:0.257318
    475:-0.021227
    476:0.537609
    477:-0.355357
    478:0.354591
    479:-0.284519
    480:0.601620
    481:-0.042083
    482:0.478879
    483:-0.212257
    484:0.370297
    485:-0.459857
    486:0.441964
    487:-0.670871
    488:0.017837
    489:-0.592440
    490:-0.475430
    491:-0.357263
    492:0.297879
    493:0.058356
    494:0.415396
    495:-0.475588
    496:0.365756
    497:-0.084495
    498:0.639387
    499:-0.296448
    500:0.463710
    501:-0.292777
    502:0.360129
    503:-0.234810
    504:0.399671
    505:-0.543874
    506:0.327905
    507:-0.042107
    508:0.643582
    509:-0.120446
    510:0.697290
    511:-0.378633
    512:0.643638
    513:-0.193321
    514:0.631954
    515:-0.052292
    516:-0.064529
    517:-0.725318
    518:0.191411
    519:-0.311345
    520:0.782143
    521:-0.005726
    522:0.729459
    523:0.001583
    524:0.340394
    525:-0.036691
    526:0.439387
    527:-0.507645
    528:0.370347
    529:-0.050291
    530:0.502500
    531:-0.012489
    532:0.510737
    533:-0.084327
    534:0.301557
    535:0.034368
    536:1.116685
    537:-0.277623
    538:0.371935
    539:-0.297860
    540:0.444890
    541:-0.145201
    542:0.776346
    543:-0.040965
    544:0.474619
    545:-0.237456
    546:0.143707
    547:-0.275686
    548:0.604082
    549:-0.009303
    550:0.535813
    551:0.040974
    552:0.322523
    553:0.047837
    554:0.463394
    555:-0.149853
    556:0.598907
    557:-0.282114
    558:0.303439
    559:-0.643839
    560:0.521389
    561:-0.009027
    562:0.702550
    563:-0.171675
    564:0.430044
    565:-0.148187
    566:0.296254
    567:-0.190449
    568:0.351090
    569:0.075266
    570:0.470993
    571:-0.398909
    572:0.774376
    573:-0.487790
    574:0.503853
    575:-0.164446
    576:0.490710
    577:-0.127261
    578:0.805742
    579:-0.058040
    580:0.279339
    581:0.045968
    582:0.333319
    583:-0.094251
    584:0.452924
    585:-0.263859
    586:0.498220
    587:-0.658659
    588:0.039315
    589:-0.015946
    590:0.628021
    591:-0.416989
    592:0.407241
    593:-0.376743
    594:0.247262
    595:-0.124015
    596:0.278137
    597:0.104100
    598:0.359894
    599:-0.289887
    600:0.089175
    601:-0.588619
    602:0.048367
    603:-0.367934
    604:0.210775
    605:0.024091
    606:0.043021
    607:-0.406692
    608:0.781260
    609:-0.449798
    610:0.175439
    611:-0.513956
    612:0.183996
    613:-0.133383
    614:0.197308
    615:-0.318254
    616:0.570382
    617:-0.641503
    618:0.297776
    619:-0.509807
    620:0.796779
    621:-0.071441
    622:0.554693
    623:-0.365234
    624:0.443929
    625:-0.229006
    626:0.302675
    627:-0.106786
    628:0.692270
    629:-0.299792
    630:0.293661
    631:-0.369669
    632:0.311436
    633:-0.410503
    634:0.402014
    635:-0.081652
    636:0.213549
    637:0.039134
    638:0.636334
    639:0.052119
    640:0.106229
    641:-0.521366
    642:0.017622
    643:-0.123204
    644:0.055749
    645:-0.180129
    646:0.465528
    647:-0.507323
    648:0.291326
    649:0.060333
    650:0.561704
    651:0.032305
    652:0.549378
    653:0.009301
    654:0.530044
    655:-0.028457
    656:0.452480
    657:-0.112751
    658:0.362622
    659:-0.394355
    660:0.050697
    661:-0.434585
    662:0.223950
    663:-0.378703
    664:0.375168
    665:-0.568602
    666:0.366669
    667:-0.533803
    668:0.667424
    669:-0.144527
    670:0.585994
    671:-0.028258
    672:0.012485
    673:-0.596051
    674:0.160828
    675:-0.039352
    676:0.157707
    677:-0.572918
    678:0.571629
    679:-0.273480
    680:0.635755
    681:-0.395493
    682:0.354243
    683:-0.007697
    684:0.219863
    685:-0.284445
    686:0.247049
    687:-0.601580
    688:0.105510
    689:-0.356971
    690:0.526920
    691:-0.281682
    692:0.207399
    693:-0.647723
    694:0.411005
    695:-0.048525
    696:0.418891
    697:-0.075527
    698:0.600711
    699:-0.363880
    700:0.239914
    701:-0.475750
    702:0.393175
    703:-0.272037
    704:0.337976
    705:-0.623420
    706:0.161513
    707:-0.623719
    708:0.204513
    709:-0.566364
    710:0.344157
    711:-0.627147
    712:-0.183871
    713:-0.553303
    714:0.090622
    715:-0.648061
    716:0.223395
    717:-0.464321
    718:0.517563
    719:-0.468178
    720:0.153278
    721:-0.694069
    722:0.523074
    723:-0.610061
    724:0.537714
    725:-0.305162
    726:0.647683
    727:-0.252134
    728:0.396832
    729:-0.526088
    730:0.616014
    731:-0.636639
    732:0.301400
    733:-0.315179
    734:0.168304
    735:-0.702480
    736:0.070568
    737:-0.632001
    738:0.276935
    739:-0.724967
    740:-0.050069
    741:-0.584795
    742:0.004763
    743:-0.531338
    744:0.325419
    745:-0.877518
    746:0.437475
    747:-0.513967
    748:0.084024
    749:-0.544321
    750:0.115512
    751:-0.340690
    752:0.507194
    753:-0.677985
    754:0.234091
    755:-0.347165
    756:0.294300
    757:-0.170621
    758:0.599299
    759:-0.691132
    760:0.696709
    761:-0.515322
    762:0.627171
    763:-0.300130
    764:0.121789
    765:-0.118517
    766:0.268747
    767:-0.280723
    768:0.617865
    769:-0.732150
    770:0.125749
    771:-0.090104
    772:0.324361
    773:-0.428331
    774:0.300244
    775:-0.263848
    776:0.385739
    777:-0.179573
    778:-0.002633
    779:-0.504548
    780:0.015816
    781:-0.115335
    782:0.139253
    783:-0.523010
  Neuron 5:
    0:0.373344
    1:-0.170174
    2:0.387620
    3:-0.543965
    4:0.069473
    5:-0.378752
    6:0.540674
    7:-0.584786
    8:0.306631
    9:-0.139221
    10:0.008252
    11:-0.423656
    12:0.411409
    13:-0.283468
    14:0.350462
    15:-0.405212
    16:0.446959
    17:-0.402085
    18:0.066393
    19:-0.146494
    20:0.023928
    21:-0.317571
    22:0.538511
    23:-0.198222
    24:0.319868
    25:-0.340095
    26:0.214039
    27:-0.435204
    28:0.479347
    29:-0.037049
    30:0.528523
    31:-0.152691
    32:0.207223
    33:-0.216138
    34:0.696663
    35:-0.276676
    36:0.594915
    37:-0.537314
    38:0.161557
    39:-0.201453
    40:0.676561
    41:-0.169717
    42:0.625203
    43:-0.387923
    44:0.453218
    45:-0.275607
    46:0.093190
    47:-0.200142
    48:0.677732
    49:-0.159567
    50:0.346657
    51:-0.001657
    52:0.477138
    53:-0.185167
    54:0.199880
    55:-0.097006
    56:0.525262
    57:-0.413919
    58:0.532210
    59:-0.304610
    60:0.450967
    61:-0.360725
    62:0.457311
    63:-0.658156
    64:0.576902
    65:-0.453975
    66:0.234959
    67:-0.471676
    68:0.291304
    69:-0.396364
    70:0.673252
    71:-0.260232
    72:0.574109
    73:-0.590354
    74:0.663955
    75:-0.319029
    76:0.174264
    77:-0.048960
    78:0.519465
    79:-0.151855
    80:0.208537
    81:-0.166123
    82:0.153512
    83:-0.685676
    84:0.351292
    85:-0.353392
    86:0.082682
    87:-0.176555
    88:0.067311
    89:-0.614885
    90:0.481160
    91:-0.517709
    92:0.275952
    93:-0.238618
    94:0.476609
    95:-0.151820
    96:0.693321
    97:-0.001999
    98:0.633162
    99:-0.272516
    100:0.421976
    101:-0.583573
    102:0.564475
    103:-0.269196
    104:0.496763
    105:-0.507694
    106:0.593185
    107:-0.670062
    108:0.556322
    109:-0.412597
    110:0.122031
    111:-0.064860
    112:0.578724
    113:-0.275543
    114:0.050536
    115:-0.230013
    116:0.628931
    117:-0.133144
    118:0.409740
    119:-0.691237
    120:0.053341
    121:-0.172658
    122:0.528238
    123:-0.305326
    124:0.437685
    125:-0.209507
    126:0.559931
    127:-0.350189
    128:0.318727
    129:-0.387116
    130:0.012893
    131:0.001957
    132:0.304434
    133:-0.550383
    134:0.288081
    135:-0.090370
    136:0.361946
    137:-0.177009
    138:0.064312
    139:-0.217551
    140:0.589618
    141:-0.186336
    142:0.282415
    143:-0.468313
    144:0.461926
    145:-0.332649
    146:0.702296
    147:-0.384698
    148:0.485544
    149:-0.378855
    150:0.407529
    151:-0.481918
    152:0.641441
    153:-0.091198
    154:0.259305
    155:-0.197824
    156:0.539299
    157:-0.572613
    158:0.074926
    159:-0.057985
    160:0.344576
    161:-0.005435
    162:0.146948
    163:-0.572899
    164:0.596602
    165:-0.386911
    166:0.006958
    167:-0.254931
    168:0.565883
    169:-0.071269
    170:0.472477
    171:-0.455444
    172:0.258681
    173:-0.052550
    174:0.228701
    175:0.002997
    176:0.432874
    177:-0.172386
    178:0.455529
    179:-0.091121
    180:0.683912
    181:0.030536
    182:0.800882
    183:-0.389193
    184:0.355954
    185:-0.058138
    186:0.177140
    187:-0.051265
    188:0.067322
    189:-0.112705
    190:0.242502
    191:-0.282555
    192:0.229348
    193:-0.288962
    194:0.248342
    195:-0.109660
    196:0.680248
    197:-0.255103
    198:0.364195
    199:-0.546181
    200:0.327501
    201:-0.133601
    202:0.322549
    203:-0.535423
    204:0.245327
    205:-0.464088
    206:0.641850
    207:-0.510757
    208:0.124094
    209:-0.173088
    210:0.165153
    211:-0.538869
    212:0.468191
    213:0.063573
    214:0.546063
    215:0.038302
    216:0.175021
    217:-0.552071
    218:0.172098
    219:-0.083423
    220:0.135703
    221:-0.274568
    222:0.464568
    223:-0.325344
    224:0.579342
    225:-0.012436
    226:0.434536
    227:-0.559235
    228:0.269169
    229:-0.093477
    230:0.430752
    231:-0.541593
    232:0.301534
    233:0.063096
    234:0.528239
    235:-0.348450
    236:0.620991
    237:-0.234563
    238:0.455039
    239:-0.433731
    240:0.770655
    241:-0.267651
    242:0.609957
    243:-0.342471
    244:0.394260
    245:-0.288297
    246:0.468806
    247:-0.416482
    248:0.300158
    249:-0.504172
    250:0.582100
    251:-0.392582
    252:0.115210
    253:-0.340253
    254:0.023855
    255:-0.678324
    256:0.371207
    257:-0.420101
    258:0.579057
    259:-0.580811
    260:0.614090
    261:-0.178894
    262:0.578092
    263:-0.003688
    264:0.347646
    265:-0.145308
    266:0.663888
    267:0.036891
    268:0.760815
    269:-0.035487
    270:0.730737
    271:-0.599868
    272:0.510762
    273:-0.476857
    274:0.419049
    275:-0.080549
    276:0.191496
    277:-0.095631
    278:0.566774
    279:-0.459537
    280:0.622444
    281:-0.442292
    282:0.158019
    283:-0.015245
    284:0.117228
    285:-0.140209
    286:0.036924
    287:-0.411635
    288:0.648627
    289:-0.489346
    290:0.446556
    291:-0.392971
    292:0.185523
    293:-0.049238
    294:0.700033
    295:-0.224305
    296:0.565572
    297:-0.310931
    298:0.514152
    299:-0.409547
    300:0.556215
    301:-0.372652
    302:0.475946
    303:-0.262104
    304:0.249974
    305:-0.130986
    306:0.392581
    307:-0.423602
    308:0.237395
    309:-0.252125
    310:0.189089
    311:-0.139043
    312:0.029473
    313:-0.308599
    314:0.201508
    315:-0.055904
    316:0.542913
    317:-0.129800
    318:0.608295
    319:-0.341060
    320:0.106940
    321:-0.098368
    322:0.352882
    323:0.008988
    324:0.490006
    325:0.003178
    326:0.539720
    327:-0.175326
    328:0.485743
    329:-0.196806
    330:0.030394
    331:-0.245641
    332:0.654942
    333:-0.457978
    334:0.540801
    335:-0.200604
    336:0.592884
    337:-0.231740
    338:0.624110
    339:-0.126360
    340:0.500153
    341:-0.097112
    342:0.291138
    343:-0.475498
    344:0.466692
    345:-0.396480
    346:0.642247
    347:-0.165224
    348:0.688103
    349:-0.300846
    350:0.825550
    351:-0.493852
    352:0.754577
    353:-0.109188
    354:0.110763
    355:-0.364538
    356:0.275035
    357:-0.506846
    358:0.667597
    359:0.012836
    360:0.070939
    361:-0.653278
    362:0.263790
    363:-0.020913
    364:0.416964
    365:-0.103126
    366:0.221223
    367:-0.309856
    368:0.348631
    369:-0.131387
    370:0.458353
    371:-0.098811
    372:0.278496
    373:0.050025
    374:0.671917
    375:-0.620912
    376:0.518016
    377:-0.360162
    378:0.402858
    379:-0.188723
    380:0.350182
    381:-0.120936
    382:0.326225
    383:-0.197199
    384:0.421620
    385:-0.299884
    386:0.688342
    387:-0.632452
    388:0.159172
    389:-0.616587
    390:0.651810
    391:-0.223514
    392:0.576886
    393:-0.214200
    394:0.244265
    395:-0.293186
    396:0.332165
    397:-0.446667
    398:0.626419
    399:-0.619002
    400:0.644055
    401:-0.272356
    402:0.141674
    403:-0.079020
    404:0.418159
    405:-0.517844
    406:0.316473
    407:0.095223
    408:0.611578
    409:-0.298840
    410:0.494446
    411:-0.030765
    412:0.659924
    413:-0.652452
    414:0.357544
    415:-0.304103
    416:0.305066
    417:-0.305615
    418:0.271433
    419:-0.457410
    420:0.229267
    421:-0.221891
    422:0.680929
    423:-0.105563
    424:0.450777
    425:-0.206693
    426:0.429302
    427:-0.011680
    428:0.724812
    429:-0.230417
    430:0.076534
    431:-0.513214
    432:0.721551
    433:0.076162
    434:0.250131
    435:-0.102720
    436:0.182521
    437:-0.126092
    438:0.429835
    439:-0.519663
    440:0.665545
    441:-0.031993
    442:0.699944
    443:-0.529816
    444:0.044593
    445:-0.316782
    446:0.169653
    447:-0.342733
    448:0.627069
    449:-0.440062
    450:0.100127
    451:-0.156369
    452:0.677365
    453:-0.062139
    454:0.295997
    455:-0.350546
    456:0.372190
    457:-0.584691
    458:0.517765
    459:-0.217450
    460:0.346333
    461:-0.295999
    462:0.373791
    463:-0.007161
    464:0.656521
    465:-0.148655
    466:0.574641
    467:-0.529740
    468:0.529478
    469:-0.102118
    470:0.530014
    471:-0.400269
    472:0.193319
    473:-0.493359
    474:0.263555
    475:-0.234413
    476:0.112534
    477:-0.432298
    478:0.577103
    479:-0.039591
    480:0.173473
    481:-0.657880
    482:0.244620
    483:-0.077750
    484:0.121206
    485:-0.380373
    486:0.599103
    487:-0.289248
    488:0.495576
    489:-0.112548
    490:0.842812
    491:-0.500966
    492:0.138921
    493:-0.057468
    494:0.288038
    495:-0.495048
    496:0.481848
    497:-0.648744
    498:0.519836
    499:-0.209335
    500:0.114293
    501:-0.313672
    502:0.629510
    503:-0.302492
    504:0.109355
    505:-0.192553
    506:0.536917
    507:-0.221983
    508:0.627030
    509:-0.397649
    510:0.303480
    511:-0.050214
    512:0.438216
    513:-0.401406
    514:0.294932
    515:-0.387960
    516:0.305387
    517:0.103772
    518:0.298159
    519:-0.449492
    520:0.452427
    521:0.032669
    522:0.718744
    523:-0.308299
    524:0.284857
    525:-0.091399
    526:0.288546
    527:-0.658368
    528:0.098426
    529:-0.068792
    530:0.176294
    531:-0.203701
    532:0.383416
    533:-0.105594
    534:0.506261
    535:-0.492794
    536:0.299434
    537:-0.327969
    538:0.046251
    539:-0.188826
    540:0.088050
    541:-0.225787
    542:0.388162
    543:-0.365330
    544:0.145697
    545:-0.384773
    546:0.348416
    547:-0.097490
    548:0.703628
    549:-0.219020
    550:0.258200
    551:-0.192083
    552:0.405400
    553:-0.090481
    554:0.658370
    555:-0.620381
    556:0.231315
    557:-0.221241
    558:0.586735
    559:-0.321810
    560:0.289812
    561:-0.062747
    562:0.525544
    563:-0.673044
    564:0.169490
    565:-0.316444
    566:0.483839
    567:-0.432701
    568:0.710484
    569:-0.437915
    570:0.759812
    571:0.049639
    572:0.158032
    573:-0.156809
    574:0.628082
    575:0.039788
    576:0.254352
    577:-0.586152
    578:0.411206
    579:-0.021529
    580:0.308428
    581:-0.512847
    582:0.342199
    583:-0.678099
    584:0.636633
    585:-0.291955
    586:0.603764
    587:-0.163693
    588:0.513337
    589:-0.490264
    590:0.485507
    591:-0.102932
    592:0.553194
    593:-0.295657
    594:0.094325
    595:-0.001301
    596:0.685099
    597:-0.497305
    598:0.540159
    599:-0.538629
    600:0.396339
    601:-0.349229
    602:0.774167
    603:-0.256922
    604:0.193415
    605:-0.335078
    606:0.517715
    607:-0.202898
    608:0.425280
    609:-0.096570
    610:0.327619
    611:0.000344
    612:0.636450
    613:-0.665509
    614:0.679217
    615:-0.572422
    616:0.257966
    617:-0.582879
    618:0.036122
    619:-0.071229
    620:0.373348
    621:-0.513726
    622:0.204401
    623:-0.195179
    624:0.167088
    625:-0.211106
    626:0.302513
    627:-0.020187
    628:0.150877
    629:0.071248
    630:0.804730
    631:-0.300081
    632:0.590720
    633:-0.575444
    634:0.136294
    635:-0.554946
    636:0.389975
    637:-0.553102
    638:0.150633
    639:-0.081561
    640:0.677086
    641:-0.473287
    642:0.083690
    643:-0.612683
    644:0.439073
    645:-0.062926
    646:0.485105
    647:-0.697072
    648:0.664236
    649:-0.498393
    650:0.092347
    651:-0.293105
    652:0.370783
    653:-0.211023
    654:0.592284
    655:-0.425674
    656:0.541259
    657:-0.007342
    658:0.625321
    659:-0.497388
    660:0.186597
    661:-0.485542
    662:0.341227
    663:-0.595657
    664:0.505447
    665:-0.385260
    666:0.541288
    667:-0.160375
    668:0.266713
    669:-0.688253
    670:0.245029
    671:-0.242027
    672:0.461802
    673:-0.328720
    674:0.154716
    675:-0.200883
    676:0.411290
    677:-0.619247
    678:0.218915
    679:-0.315678
    680:0.484397
    681:-0.238416
    682:0.684385
    683:-0.076326
    684:0.510502
    685:-0.494197
    686:0.591866
    687:-0.274408
    688:0.616950
    689:-0.392515
    690:0.216094
    691:0.002229
    692:0.276305
    693:-0.494348
    694:0.661919
    695:-0.061616
    696:0.192345
    697:-0.502901
    698:0.224045
    699:-0.457296
    700:0.491431
    701:-0.468922
    702:0.699323
    703:-0.253233
    704:0.099218
    705:-0.152444
    706:0.454197
    707:-0.488795
    708:0.095880
    709:-0.647674
    710:0.131374
    711:-0.549972
    712:0.220327
    713:-0.080188
    714:0.663430
    715:-0.015544
    716:0.595666
    717:-0.515107
    718:0.346472
    719:-0.460758
    720:0.266543
    721:-0.521731
    722:0.499374
    723:-0.543082
    724:0.312072
    725:-0.463567
    726:0.605370
    727:-0.503805
    728:0.266613
    729:-0.129262
    730:0.261101
    731:-0.058046
    732:0.598180
    733:-0.260371
    734:0.311464
    735:-0.694107
    736:0.416105
    737:-0.063718
    738:0.486681
    739:-0.508018
    740:0.019100
    741:-0.609648
    742:0.365334
    743:-0.232128
    744:0.697878
    745:-0.309934
    746:0.273238
    747:-0.569678
    748:0.159327
    749:-0.593586
    750:0.358594
    751:-0.428514
    752:0.412482
    753:-0.159238
    754:0.271613
    755:-0.024537
    756:0.622805
    757:-0.176983
    758:0.528342
    759:-0.189417
    760:0.306246
    761:-0.089443
    762:0.247471
    763:-0.204418
    764:0.349877
    765:-0.558737
    766:0.200287
    767:-0.064282
    768:0.624152
    769:-0.685279
    770:0.572687
    771:-0.641214
    772:0.597450
    773:-0.224084
    774:0.188695
    775:-0.580838
    776:0.557775
    777:-0.440173
    778:0.472031
    779:-0.017822
    780:0.333221
    781:-0.130235
    782:0.446315
    783:-0.045703
  Neuron 6:
    0:0.017929
    1:-0.070241
    2:0.212278
    3:-0.194912
    4:0.598583
    5:-0.401695
    6:0.501157
    7:-0.688026
    8:0.649157
    9:-0.005586
    10:0.337893
    11:-0.507895
    12:0.205770
    13:-0.402286
    14:0.432019
    15:-0.191206
    16:0.274846
    17:-0.373553
    18:0.088422
    19:-0.510662
    20:0.550770
    21:-0.680630
    22:0.368417
    23:-0.290995
    24:0.452470
    25:-0.386223
    26:0.624216
    27:-0.582705
    28:0.132538
    29:-0.669919
    30:0.172178
    31:-0.150467
    32:0.040153
    33:-0.384520
    34:0.338740
    35:-0.645572
    36:0.076041
    37:-0.159476
    38:0.612913
    39:-0.049846
    40:0.137434
    41:-0.283186
    42:0.520125
    43:-0.369990
    44:0.661716
    45:-0.274676
    46:0.547492
    47:-0.245533
    48:0.645121
    49:-0.641152
    50:0.051122
    51:-0.500168
    52:0.618220
    53:-0.420804
    54:0.090543
    55:-0.370690
    56:0.107027
    57:-0.014758
    58:0.253395
    59:-0.242126
    60:0.677131
    61:-0.425305
    62:0.378227
    63:-0.060160
    64:0.052453
    65:-0.121789
    66:0.569730
    67:-0.283160
    68:0.077377
    69:-0.710059
    70:0.123281
    71:-0.457128
    72:0.072320
    73:-0.138869
    74:0.652368
    75:-0.167795
    76:0.293801
    77:-0.612346
    78:0.312480
    79:-0.314393
    80:0.467965
    81:-0.416050
    82:0.098244
    83:-0.397012
    84:0.136809
    85:-0.188787
    86:0.067702
    87:-0.247000
    88:0.204472
    89:-0.315628
    90:0.483712
    91:-0.239451
    92:-0.049587
    93:-0.276116
    94:0.080952
    95:-0.244802
    96:0.142243
    97:-0.152367
    98:0.323709
    99:-0.261185
    100:0.265520
    101:-0.392928
    102:0.063968
    103:-0.412181
    104:0.428770
    105:-0.269744
    106:0.192090
    107:-0.346573
    108:0.541332
    109:-0.021213
    110:0.618643
    111:-0.336896
    112:0.423523
    113:-0.005928
    114:0.033819
    115:-0.559126
    116:0.252391
    117:-0.084636
    118:0.138663
    119:-0.322052
    120:0.461942
    121:-0.544168
    122:0.794258
    123:-0.363036
    124:-0.082561
    125:-0.386587
    126:0.402532
    127:-0.272011
    128:0.455897
    129:-0.062863
    130:0.813337
    131:0.103873
    132:0.362683
    133:-0.630988
    134:0.578903
    135:0.077027
    136:0.138055
    137:-0.144282
    138:0.465963
    139:-0.560431
    140:0.216603
    141:-0.339076
    142:0.198066
    143:-0.632456
    144:0.406072
    145:-0.083496
    146:0.745555
    147:-0.318478
    148:0.624086
    149:-0.429951
    150:0.329026
    151:-0.150654
    152:0.128087
    153:-0.200612
    154:0.302295
    155:-0.712154
    156:0.207130
    157:-0.279810
    158:0.178945
    159:-0.162197
    160:0.272622
    161:0.101814
    162:0.407853
    163:0.108950
    164:0.389445
    165:0.153730
    166:0.394353
    167:-0.073099
    168:0.217646
    169:-0.047194
    170:0.642146
    171:-0.419348
    172:0.496637
    173:0.029231
    174:0.695982
    175:0.240883
    176:0.741279
    177:0.279442
    178:0.958207
    179:-0.233676
    180:0.432071
    181:-0.296304
    182:-0.302075
    183:-0.886598
    184:-0.148686
    185:-0.301176
    186:0.501201
    187:-0.264880
    188:0.509844
    189:-0.176317
    190:0.504958
    191:0.186447
    192:0.972429
    193:-0.168269
    194:0.692721
    195:0.007644
    196:0.409590
    197:-0.164346
    198:0.098103
    199:-0.541481
    200:0.355685
    201:0.257252
    202:0.682486
    203:-0.167126
    204:0.515838
    205:0.375658
    206:0.766914
    207:-0.054434
    208:0.330624
    209:-0.486791
    210:0.268469
    211:-0.583456
    212:0.347574
    213:-0.181473
    214:0.535556
    215:0.226304
    216:0.956069
    217:-0.069386
    218:0.869368
    219:0.373141
    220:0.823855
    221:0.136941
    222:0.537364
    223:-0.334520
    224:0.559280
    225:-0.243786
    226:0.399550
    227:-0.166247
    228:0.724690
    229:-0.204383
    230:0.563639
    231:-0.298403
    232:0.435716
    233:-0.327461
    234:0.474272
    235:-0.252238
    236:0.645660
    237:-0.435441
    238:0.321309
    239:0.022670
    240:0.238346
    241:-0.029705
    242:0.278907
    243:-0.154822
    244:0.184564
    245:-0.136891
    246:0.517086
    247:0.089812
    248:0.958357
    249:0.223531
    250:0.534821
    251:-0.150197
    252:0.359003
    253:-0.136327
    254:0.607220
    255:-0.051036
    256:0.541928
    257:-0.150762
    258:0.666262
    259:-0.118779
    260:0.464789
    261:-0.737212
    262:-0.081843
    263:-0.538413
    264:0.065372
    265:-0.702731
    266:0.580121
    267:-0.079562
    268:0.159290
    269:-0.304802
    270:0.484957
    271:-0.482006
    272:0.179813
    273:-0.012421
    274:0.172107
    275:0.281896
    276:0.610919
    277:0.266588
    278:0.697578
    279:-0.532497
    280:0.518687
    281:-0.268906
    282:0.077564
    283:-0.014210
    284:0.613335
    285:-0.439489
    286:0.329119
    287:-0.148741
    288:-0.321316
    289:-0.627670
    290:-0.428971
    291:-0.366639
    292:0.128628
    293:0.083817
    294:0.870416
    295:0.280613
    296:0.377816
    297:-0.394964
    298:0.201470
    299:-0.597499
    300:0.225249
    301:-0.511539
    302:-0.044057
    303:-0.120953
    304:0.728681
    305:0.151703
    306:0.281775
    307:-0.605182
    308:0.538638
    309:-0.666413
    310:0.503106
    311:-0.203882
    312:0.411795
    313:-0.289293
    314:0.322395
    315:-0.668701
    316:-0.176292
    317:-0.485686
    318:0.038757
    319:-0.248219
    320:0.617710
    321:-0.198995
    322:0.432995
    323:0.023384
    324:0.663670
    325:0.077702
    326:0.008858
    327:-1.164265
    328:-0.453036
    329:-1.052865
    330:-0.618614
    331:-0.682794
    332:0.400956
    333:-0.525340
    334:0.143760
    335:-0.389707
    336:0.111937
    337:-0.205834
    338:0.344144
    339:-0.534536
    340:0.294813
    341:0.129439
    342:0.213681
    343:-0.408520
    344:0.255350
    345:-0.213554
    346:0.610160
    347:0.200653
    348:0.298512
    349:-0.626600
    350:0.313781
    351:-0.333303
    352:0.264393
    353:-0.352754
    354:-0.051277
    355:-0.774381
    356:-0.640485
    357:-1.178414
    358:-0.650986
    359:-1.002618
    360:0.272640
    361:-0.469879
    362:0.407830
    363:-0.463123
    364:0.355414
    365:-0.424819
    366:0.171757
    367:-0.454768
    368:0.621860
    369:-0.267753
    370:0.499478
    371:0.001621
    372:0.430731
    373:-0.245776
    374:0.910424
    375:-0.104761
    376:0.005208
    377:-0.512478
    378:-0.014305
    379:-0.310571
    380:0.276536
    381:-0.256713
    382:0.012593
    383:-0.658078
    384:0.086445
    385:-0.345577
    386:0.213423
    387:-0.959578
    388:0.139940
    389:-0.684834
    390:0.318347
    391:-0.211384
    392:0.445750
    393:0.004936
    394:0.707011
    395:-0.052201
    396:0.447957
    397:0.096938
    398:0.646113
    399:0.013940
    400:0.655317
    401:0.104129
    402:0.816028
    403:-0.236580
    404:0.123814
    405:-1.098115
    406:-0.095075
    407:-0.887720
    408:-0.339852
    409:-0.611358
    410:0.613436
    411:0.215451
    412:0.751250
    413:0.287284
    414:0.307746
    415:-0.188622
    416:0.173352
    417:-0.713586
    418:0.231392
    419:-0.494312
    420:0.675404
    421:-0.566500
    422:0.036902
    423:-0.365276
    424:0.621086
    425:-0.382829
    426:0.733448
    427:0.080202
    428:0.108366
    429:-0.250897
    430:0.179630
    431:-0.596531
    432:0.196533
    433:-0.859735
    434:0.042303
    435:-0.513959
    436:0.183012
    437:-0.132622
    438:1.087069
    439:0.389745
    440:0.837391
    441:0.393543
    442:0.580959
    443:-0.350833
    444:0.618385
    445:-0.288547
    446:0.192848
    447:-0.074906
    448:0.207619
    449:-0.465189
    450:0.618270
    451:-0.084396
    452:0.466698
    453:-0.275749
    454:0.818969
    455:-0.414802
    456:0.299463
    457:-0.839648
    458:0.054574
    459:-1.074536
    460:-0.445807
    461:-0.896159
    462:0.520044
    463:-0.041416
    464:0.219745
    465:0.102938
    466:0.630190
    467:0.688504
    468:1.288944
    469:0.599619
    470:0.919289
    471:0.133055
    472:0.423180
    473:-0.765164
    474:0.613199
    475:-0.456174
    476:0.100119
    477:-0.175833
    478:0.599119
    479:-0.156385
    480:0.855395
    481:0.008142
    482:0.844164
    483:-0.482943
    484:-0.077683
    485:-0.981583
    486:-0.803635
    487:-1.398551
    488:-0.645169
    489:-0.635314
    490:0.075411
    491:-0.042286
    492:0.041380
    493:0.145131
    494:0.323071
    495:-0.169980
    496:0.671203
    497:-0.054079
    498:0.420515
    499:-0.257272
    500:-0.178928
    501:-0.734501
    502:0.274703
    503:-0.593357
    504:0.440016
    505:-0.250113
    506:0.452729
    507:-0.297896
    508:0.787371
    509:0.347957
    510:0.800798
    511:-0.464232
    512:-0.033203
    513:-1.576996
    514:-1.483059
    515:-1.602389
    516:-0.864511
    517:-1.244931
    518:0.159715
    519:-0.047075
    520:-0.049188
    521:-0.103964
    522:0.528780
    523:-0.207606
    524:0.411254
    525:-0.169381
    526:0.538075
    527:-0.835339
    528:-0.084744
    529:-0.674521
    530:0.290336
    531:-0.270667
    532:0.416559
    533:-0.579029
    534:0.274961
    535:0.094521
    536:0.544712
    537:-0.084664
    538:1.165797
    539:-0.420863
    540:-0.533779
    541:-0.769519
    542:-0.730837
    543:-1.198603
    544:-0.616123
    545:-0.701405
    546:-0.017225
    547:-0.170860
    548:-0.040463
    549:-0.261291
    550:-0.160332
    551:-0.361488
    552:0.552801
    553:-0.194605
    554:0.108064
    555:-0.551672
    556:0.145875
    557:-0.156417
    558:0.298561
    559:-0.013653
    560:0.651626
    561:-0.588318
    562:0.375670
    563:-0.089203
    564:0.935213
    565:-0.013306
    566:0.755558
    567:-0.260518
    568:0.387225
    569:-0.240319
    570:0.324267
    571:-0.235974
    572:0.386656
    573:0.225845
    574:0.376152
    575:-0.114743
    576:0.364365
    577:-0.122365
    578:0.413956
    579:-0.542335
    580:0.416395
    581:-0.674832
    582:0.209917
    583:-0.759254
    584:-0.130425
    585:-0.758963
    586:0.028276
    587:-0.581586
    588:0.069779
    589:-0.333905
    590:0.674169
    591:0.184662
    592:0.559187
    593:0.007058
    594:0.464428
    595:-0.316181
    596:0.783651
    597:0.523747
    598:0.933897
    599:0.079579
    600:-0.247690
    601:-0.496285
    602:0.483067
    603:-0.176726
    604:0.522369
    605:-0.448956
    606:0.331430
    607:-0.210592
    608:0.171894
    609:-0.616651
    610:-0.006967
    611:-0.948448
    612:0.338722
    613:-0.643771
    614:0.383344
    615:-0.556222
    616:0.591770
    617:-0.415615
    618:0.470023
    619:-0.525914
    620:0.337800
    621:-0.273548
    622:0.460272
    623:-0.241904
    624:0.609748
    625:0.164252
    626:0.826802
    627:-0.052071
    628:0.472200
    629:-0.335749
    630:-0.113043
    631:-0.350564
    632:0.949223
    633:-0.127362
    634:0.800253
    635:-0.413279
    636:0.402839
    637:-0.700308
    638:0.338883
    639:-0.921009
    640:0.407960
    641:-0.196896
    642:0.648938
    643:-0.245396
    644:0.060204
    645:-0.335550
    646:0.103168
    647:-0.543459
    648:0.262420
    649:-0.282463
    650:0.607973
    651:-0.194366
    652:0.250531
    653:-0.095481
    654:0.706051
    655:-0.293487
    656:0.320000
    657:-0.673633
    658:0.426554
    659:0.169042
    660:0.310385
    661:-0.085766
    662:0.038027
    663:0.074817
    664:0.139339
    665:-0.237583
    666:0.184072
    667:-0.240241
    668:0.646596
    669:-0.348567
    670:0.100242
    671:-0.466458
    672:0.501694
    673:-0.049376
    674:0.012254
    675:-0.490469
    676:0.523792
    677:0.207484
    678:0.855543
    679:-0.116276
    680:0.771971
    681:-0.285183
    682:0.749758
    683:0.137741
    684:0.387242
    685:-0.046619
    686:0.064094
    687:-0.367741
    688:0.076513
    689:-0.522560
    690:-0.209396
    691:-0.599521
    692:0.127359
    693:-0.314963
    694:0.210536
    695:-0.689910
    696:0.119878
    697:-0.680384
    698:0.063875
    699:-0.097747
    700:0.318788
    701:-0.162623
    702:0.564279
    703:-0.117091
    704:0.260855
    705:-0.363216
    706:1.070615
    707:-0.131998
    708:1.179024
    709:-0.038427
    710:0.778410
    711:-0.303608
    712:0.477681
    713:0.081837
    714:0.354873
    715:-0.271618
    716:0.323223
    717:-0.452581
    718:0.106413
    719:-0.787032
    720:-0.114796
    721:-0.647882
    722:0.084748
    723:-0.412292
    724:0.632998
    725:-0.376266
    726:0.391061
    727:-0.027687
    728:0.344990
    729:-0.454936
    730:0.125434
    731:-0.663834
    732:0.659499
    733:-0.624357
    734:0.225469
    735:0.041646
    736:0.695720
    737:0.041376
    738:0.114803
    739:-0.454429
    740:0.492662
    741:-0.391497
    742:0.459893
    743:-0.081733
    744:0.524345
    745:-0.605509
    746:0.521837
    747:-0.287168
    748:-0.021907
    749:-0.463497
    750:0.029110
    751:-0.135894
    752:0.151852
    753:-0.150649
    754:0.572275
    755:-0.057191
    756:0.526485
    757:-0.263336
    758:0.084878
    759:-0.171475
    760:0.031011
    761:-0.196900
    762:0.153833
    763:-0.616657
    764:0.201789
    765:-0.219464
    766:0.064177
    767:-0.057891
    768:0.294439
    769:-0.071372
    770:0.650668
    771:-0.128684
    772:0.470317
    773:-0.349090
    774:0.293095
    775:-0.236922
    776:0.300123
    777:-0.170846
    778:0.497364
    779:-0.331024
    780:0.536444
    781:-0.538819
    782:0.479058
    783:-0.688606
  Neuron 7:
    0:0.351333
    1:-0.045797
    2:0.515952
    3:-0.614668
    4:0.130675
    5:-0.687427
    6:0.632940
    7:-0.340987
    8:0.122679
    9:-0.568770
    10:0.540939
    11:-0.342191
    12:0.634752
    13:-0.605999
    14:0.628341
    15:-0.026030
    16:0.527486
    17:-0.077293
    18:0.477490
    19:-0.246094
    20:0.312238
    21:-0.058911
    22:0.531545
    23:-0.479325
    24:0.551794
    25:-0.174669
    26:0.315770
    27:-0.390613
    28:0.653727
    29:-0.304376
    30:0.380081
    31:-0.305059
    32:0.350173
    33:-0.196031
    34:0.219740
    35:-0.480734
    36:0.184632
    37:-0.151077
    38:0.128400
    39:-0.298976
    40:0.025287
    41:-0.656940
    42:0.641705
    43:-0.666610
    44:0.551929
    45:-0.579666
    46:0.682839
    47:-0.396695
    48:0.654268
    49:-0.458930
    50:0.643327
    51:-0.265977
    52:0.518027
    53:-0.474491
    54:0.045528
    55:-0.369821
    56:0.649160
    57:-0.361297
    58:0.060434
    59:-0.602887
    60:0.665672
    61:-0.440480
    62:0.207900
    63:-0.314888
    64:0.652539
    65:-0.394725
    66:0.151067
    67:-0.054334
    68:0.606370
    69:-0.168676
    70:0.454372
    71:-0.559401
    72:0.221845
    73:-0.335129
    74:0.578718
    75:-0.013087
    76:0.287932
    77:-0.506961
    78:0.462499
    79:-0.205499
    80:0.297582
    81:-0.390693
    82:0.471314
    83:-0.116145
    84:0.164957
    85:-0.516842
    86:0.484894
    87:-0.115190
    88:0.177979
    89:-0.549450
    90:0.002586
    91:-0.131129
    92:0.289185
    93:-0.221725
    94:0.518715
    95:-0.110228
    96:0.707413
    97:-0.404456
    98:0.451147
    99:-0.452942
    100:0.003956
    101:-0.068990
    102:0.360379
    103:-0.194129
    104:0.446883
    105:-0.330348
    106:0.322367
    107:-0.687986
    108:0.142993
    109:-0.039158
    110:0.206787
    111:-0.429241
    112:0.444831
    113:-0.671667
    114:0.544298
    115:-0.592729
    116:0.490749
    117:-0.320442
    118:0.032188
    119:-0.651080
    120:0.120280
    121:-0.034539
    122:0.120004
    123:-0.481095
    124:0.197975
    125:-0.687076
    126:0.438612
    127:-0.543109
    128:0.027944
    129:-0.556986
    130:0.001724
    131:-0.199773
    132:0.528101
    133:-0.231146
    134:0.141636
    135:-0.102880
    136:0.143804
    137:-0.343010
    138:0.170000
    139:-0.195745
    140:0.418737
    141:-0.340912
    142:0.637727
    143:-0.142595
    144:0.316852
    145:-0.498823
    146:0.010873
    147:-0.174515
    148:-0.026938
    149:-0.131868
    150:-0.051856
    151:-0.448614
    152:-0.121791
    153:-0.459507
    154:-0.249080
    155:-0.563513
    156:-0.068959
    157:-0.213615
    158:0.470860
    159:-0.275090
    160:0.401889
    161:-0.482661
    162:0.295277
    163:-0.013640
    164:0.509501
    165:-0.336896
    166:0.226281
    167:-0.525324
    168:0.698022
    169:-0.364863
    170:0.047988
    171:-0.396083
    172:-0.058751
    173:-0.831398
    174:0.292835
    175:-0.483559
    176:0.276100
    177:-0.761034
    178:0.274201
    179:-0.580112
    180:0.098424
    181:-0.385557
    182:0.310327
    183:-0.141033
    184:0.421250
    185:-0.209747
    186:0.424547
    187:-0.121494
    188:0.207319
    189:-0.571952
    190:0.437637
    191:-0.766098
    192:0.416358
    193:-0.168790
    194:-0.041617
    195:-0.250249
    196:0.389829
    197:-0.273122
    198:0.079115
    199:-0.424200
    200:0.423397
    201:-0.471796
    202:-0.236553
    203:-0.772708
    204:-0.128265
    205:-0.774109
    206:-0.003852
    207:-0.520823
    208:0.668835
    209:-0.470227
    210:0.611356
    211:-0.439320
    212:0.525258
    213:-0.519658
    214:0.128029
    215:-0.407203
    216:-0.143085
    217:-0.303640
    218:-0.098025
    219:-0.798295
    220:0.408057
    221:-0.317916
    222:0.373321
    223:-0.398125
    224:0.281458
    225:-0.487833
    226:0.616528
    227:-0.782232
    228:-0.260748
    229:-0.537219
    230:-0.045185
    231:-0.994799
    232:-0.115352
    233:-0.686118
    234:0.259537
    235:-0.589708
    236:0.316666
    237:-0.267241
    238:-0.054850
    239:-0.391779
    240:0.203686
    241:-0.586526
    242:0.510554
    243:-0.510633
    244:0.318905
    245:-0.639383
    246:-0.185208
    247:-0.512889
    248:-0.165851
    249:-0.165006
    250:0.515324
    251:-0.610584
    252:0.264194
    253:-0.344161
    254:0.252665
    255:-0.702553
    256:-0.239672
    257:-0.640336
    258:0.040251
    259:-0.448113
    260:-0.070053
    261:-0.488691
    262:-0.253659
    263:-0.595541
    264:-0.128512
    265:-0.031934
    266:0.391198
    267:-0.657214
