0.588131
-0.276068
0.548169
-0.558908
0.638153
-0.138286
0.234656
-0.537761
0.194442
-0.387779
0.334178
-0.440210
0.255892
-0.358224
0.666526
-0.641338
0.444998
-0.502108
0.099122
-0.424878
0.011410
-0.170021
0.096062
-0.562924
0.109675
-0.280661
0.090853
-0.076166
0.699247
-0.152780
0.359053
-0.587379
0.428848
-0.207221
0.446756
-0.365941
0.351517
-0.673886
0.210348
-0.535882
0.378017
-0.532697
0.270930
-0.622102
0.199980
-0.242065
0.583108
-0.631412
0.055065
-0.660569
0.369416
-0.059732
0.134550
-0.464259
0.623163
-0.244225
0.044920
-0.014016
0.320393
-0.044177
0.167155
-0.679215
0.632881
-0.582470
0.221759
-0.349663
0.312620
-0.453386
0.469302
-0.376014
0.449206
0.071361
0.377763
-0.595918
0.704853
-0.415910
0.279881
-0.457501
0.489112
-0.222597
0.495718
-0.115424
0.308073
-0.616053
0.580441
-0.231236
0.160280
-0.622674
0.245705
-0.474420
0.685158
-0.374304
0.537016
-0.538712
0.373148
-0.525303
0.451245
-0.346253
0.853879
-0.155568
0.736028
0.249021
1.087476
-0.175579
0.457940
-0.387504
0.567534
-0.248114
0.455943
-0.197056
0.550072
-0.215221
0.312924
-0.158275
0.131273
-0.190736
0.387410
-0.289736
0.120662
-0.597626
0.122901
-0.063699
0.338916
-0.524910
0.713175
-0.576035
0.579445
-0.120231
0.686570
0.008929
0.513336
0.110316
0.480391
-0.166364
0.083819
-0.526441
0.064012
-0.560932
0.114422
-0.521544
0.052171
-0.665073
0.036733
-0.372787
0.110913
-0.190633
0.510989
-0.561105
0.491645
-0.746172
0.166942
-0.938226
-0.337641
-0.620257
-0.224541
-0.607578
-0.596991
-0.719844
-0.063998
-0.842554
0.030135
-0.856170
-0.262008
-0.363854
0.546971
-0.181645
0.617136
-0.087831
0.698459
-0.038095
0.613877
-0.071227
-0.026704
-0.685522
0.337146
-0.200892
0.018433
-0.579164
0.272695
-0.719110
0.046246
-0.602562
0.488246
-0.139307
0.614027
-0.112374
0.243129
-0.849374
-0.215885
-1.149412
-0.208960
-1.191881
0.147316
-0.601205
-0.021111
-0.527207
0.583042
-0.653845
0.621657
-0.582468
0.696747
-0.584396
0.450268
-0.903767
0.165063
-0.552677
0.173633
-0.337952
0.701528
0.024065
0.892890
0.400777
0.858875
0.062659
0.242117
-0.531071
-0.028761
-0.559733
-0.655219
-1.115534
-0.326825
-0.702382
0.283094
-0.685704
0.195103
-0.379128
0.520710
-0.059416
0.360209
-0.523203
0.402033
-0.646974
0.060268
-0.682466
0.310587
0.069382
0.132242
-0.247723
1.051327
0.445025
0.560558
-0.396974
-0.068834
-0.587312
0.159540
-0.410740
-0.174010
-0.641742
-0.221220
-0.776864
0.391492
-0.458795
0.242915
-0.129894
0.429263
-0.377493
0.522064
-0.260228
0.360082
-0.310590
0.513872
-0.537688
0.450798
-0.124425
0.415243
0.141687
0.952169
0.138440
0.390103
-0.276998
-0.052982
-0.411894
0.098631
-0.674788
-0.058963
-0.892676
-0.003759
-0.478029
0.154442
-0.140024
0.689265
-0.003530
0.577789
-0.185297
0.126957
-0.297791
0.634355
-0.495291
0.591531
-0.426918
0.308331
-0.229772
0.303023
-0.255892
1.183701
-0.123738
0.698003
-0.100598
0.402140
-0.417425
0.304962
-0.487093
0.427891
-0.988168
-0.034947
-0.595020
0.071762
-0.196479
0.605805
-0.338092
0.355366
-0.537921
0.382427
-0.132858
0.343314
-0.018018
0.769295
0.014659
0.397727
-0.334957
0.377560
-0.429880
0.423226
0.180171
0.449018
0.266819
0.146890
-0.029396
0.726276
-0.156696
0.821540
-0.511879
0.389968
-0.687653
0.321740
-0.234529
0.276583
-0.455423
0.464775
-0.122500
0.240363
0.112352
0.276623
-0.056868
0.400429
-0.160567
-0.126531
-0.577945
-0.292171
-0.939193
0.342112
0.042893
0.730830
-0.106113
0.463105
0.231276
1.115633
0.039743
0.616782
-0.095480
0.320155
-0.350625
0.560304
-0.275555
0.171027
-0.228515
0.536861
-0.364967
0.806691
-0.072427
0.664032
0.031642
0.201373
-0.159402
0.117509
-1.015678
-0.507803
-0.555384
0.577842
-0.251006
0.445410
0.107697
0.907310
0.139493
0.572332
0.058738
0.795372
0.045278
0.142079
-0.273351
0.198158
-0.461018
0.564988
-0.093515
0.047443
0.019804
0.340716
-0.511491
0.459671
-0.405438
-0.126475
-0.654471
0.002572
-0.706947
-0.101054
-0.443714
0.250742
-0.485319
0.509177
0.130893
0.788975
0.061539
0.703045
-0.132497
0.478434
-0.432764
0.132204
-0.023136
0.624874
-0.119044
0.336802
-0.157910
0.577388
-0.199590
0.245517
-0.652195
0.416331
-0.413774
0.397724
-0.360044
-0.043503
-0.508178
0.228216
-0.702356
-0.043873
-0.142877
0.298722
0.084538
0.422891
-0.111664
0.731304
-0.248475
0.345277
-0.134968
0.301872
-0.256162
0.127557
-0.274150
0.373219
-0.108671
0.384124
-0.033753
0.240324
-0.313219
0.459154
-0.115788
0.325643
-0.508329
0.318262
-0.427218
0.260831
-0.814280
0.103213
-0.317750
0.406131
0.252448
0.591689
-0.378371
0.558001
-0.413326
0.432934
-0.242204
0.284384
-0.504371
0.522802
-0.483756
0.107013
-0.024669
0.029501
-0.531777
0.011038
-0.556778
0.565786
-0.176465
0.155911
0.075897
0.364409
0.065170
0.389490
-0.398582
0.207085
-0.170448
0.195086
-0.507785
0.305765
-0.338047
0.570991
-0.187442
0.011195
-0.437716
0.541193
-0.494806
0.607129
-0.136961
0.280461
-0.494670
0.586211
-0.469307
0.348606
-0.859117
0.036274
-0.670534
0.350603
-0.514978
0.652061
-0.118295
0.748856
-0.136402
0.834467
-0.420525
0.213003
-0.572604
0.499900
-0.421138
0.503418
-0.503852
0.262908
-0.639182
0.452179
-0.577653
0.178297
-0.424409
0.329426
-0.116631
0.530661
-0.692892
0.467731
-0.740537
-0.153125
-0.865774
-0.001906
-0.638776
0.333398
-0.024537
0.495554
0.308119
0.684774
-0.545080
0.428755
-0.090673
-0.002239
-0.445723
0.212799
-0.237297
0.387568
-0.338824
0.434792
-0.317979
0.094099
-0.289272
0.172923
-0.284910
-0.010529
-0.558409
0.255822
-0.847581
-0.158952
-1.044882
-0.342916
-1.085214
-0.156753
-0.219150
0.612562
0.187935
0.575460
-0.119690
0.547154
-0.369063
0.259477
-0.558013
-0.039201
-0.939501
0.376509
-0.763098
0.660467
-0.526553
0.233887
-0.375715
0.153399
-0.334443
0.649442
-0.383648
0.492189
-0.901085
-0.330443
-1.004847
-0.140616
-1.000360
0.157001
-0.530032
0.600689
-0.134914
0.393198
-0.093141
0.478932
-0.390353
-0.019685
-0.642141
-0.254359
-0.689267
0.144398
-0.751782
0.195511
-0.417387
0.603301
-0.076844
0.261493
-0.139308
0.443955
-0.464278
0.393562
-0.552126
-0.291500
-0.831964
-0.006421
-0.577474
-0.594444
-1.031372
-0.405492
-0.911125
-0.076192
-0.897398
0.030017
-1.188210
-0.724027
-1.027790
-0.203106
-0.953193
0.212770
-0.725146
0.140434
-0.193111
0.618641
-0.256220
0.629602
-0.523346
0.325328
-0.228153
0.644479
-0.072007
0.509999
-0.524193
0.381278
-0.880403
-0.322468
-0.960412
-0.513693
-1.010103
-0.612125
-1.094512
-0.929218
-0.839574
-0.128067
-0.588593
-0.297039
-0.289392
0.223512
-0.475338
0.667790
-0.065988
0.433307
-0.049390
0.275622
-0.347502
0.307228
-0.206152
0.227008
-0.476081
0.560299
0.050639
0.296166
-0.212938
0.433575
-0.584873
0.226625
-0.793339
-0.436661
-0.620335
-0.069776
-0.305715
0.295706
-0.416244
0.622225
-0.425136
0.207789
-0.037534
0.542150
-0.562736
0.488957
-0.477345
0.632931
-0.219058
0.526319
-0.197461
0.617591
0.025389
0.647061
0.273015
0.485581
0.261050
0.402393
0.345216
0.902254
0.352303
0.914025
-0.184348
0.717802
0.120485
0.792640
0.069050
0.625147
0.020201
0.434838
-0.337977
0.573598
-0.647924
0.368251
-0.407575
0.510578
-0.157665
0.184920
-0.443260
0.398035
0.029256
0.751649
-0.106253
0.331176
-0.118536
0.510899
0.086513
0.777259
-0.061803
0.757846
0.117712
0.697356
0.041021
0.421988
-0.360194
0.248853
-0.449214
0.024881
-0.587062
0.596831
-0.420534
0.225034
-0.467572
0.368781
-0.593600
0.175147
-0.179360
0.051259
-0.360346
0.622260
-0.427167
0.375159
-0.570462
0.686610
-0.507840
0.277759
-0.200186
0.113564
0.012852
0.025616
-0.322653
0.223957
-0.476806
0.579690
-0.347558
0.351294
-0.049569
0.133688
-0.338554
0.646367
-0.030376
0.171401
-0.497948
0.427869
-0.065001
0.673096
-0.607228
0.116266
-0.333163
0.530097
-0.544253
0.004886
-0.405029
0.515502
-0.520662
0.645793
-0.067483
0.551350
-0.662505
0.071036
-0.192428
0.167525
-0.566820
0.066530
-0.522711
0.194050
-0.121310
0.656400
-0.532603
0.067677
-0.686776
0.591691
-0.239078
0.484724
-0.319561
0.303980
-0.457876
0.226794
-0.420627
0.085389
-0.052755
0.266895
-0.089405
0.482026
-0.056327
0.615508
-0.410416
0.145946
-0.469973
0.368269
-0.219363
0.660052
-0.537390
0.085460
-0.026785
0.360455
-0.279510
0.148096
-0.316855
0.112113
-0.215742
0.303611
-0.003811
0.454599
-0.091269
0.310838
-0.090480
0.490544
-0.603979
0.419995
-0.686209
0.590082
-0.055195
0.010270
-0.376427
0.117424
-0.682125
0.026336
-0.318184
0.391199
-0.459831
0.485169
-0.377543
0.284631
-0.575698
0.404375
-0.645086
0.155301
-0.552386
0.261332
-0.268985
0.062058
-0.577301
0.239469
-0.647513
0.471293
-0.826165
0.280395
-0.783983
0.149712
-0.611505
0.196396
-0.575636
0.153492
-0.665957
-0.108093
-0.640927
0.349556
-0.144965
0.066548
-0.139686
0.543132
-0.590997
0.514718
-0.128818
0.465566
-0.220478
0.052349
-0.653034
0.036379
-0.408435
0.015269
-0.526681
-0.273047
-0.885490
0.083094
-0.691194
-0.029347
-0.868132
0.437710
-0.184711
0.165223
-0.322092
0.510677
-0.431237
0.358657
-0.312217
0.493992
-0.575736
0.567448
-0.543081
0.019917
-0.413285
0.430925
-0.542946
0.470581
-0.337210
-0.150646
-0.864049
-0.235810
-0.612254
-0.194801
-0.545314
0.049293
-0.466667
0.144448
-0.177136
0.719610
-0.133700
0.397437
-0.232157
0.867304
0.200154
0.746353
0.201014
0.355324
-0.407567
0.056527
-0.633811
0.302539
-0.616873
0.468802
-0.356205
0.218307
-0.448623
-0.160195
-0.482370
-0.004458
-0.496969
0.055343
-0.436112
0.245911
-0.340665
0.294638
-0.632831
-0.104207
-0.239476
0.201526
0.122902
0.953047
0.378157
1.213598
0.204733
0.795332
-0.031406
0.068185
-0.670242
0.542945
-0.078079
0.582609
-0.196790
0.554828
-0.594409
0.229568
-0.459447
0.366449
-0.718400
0.437237
-0.357222
-0.064901
-0.755828
-0.007137
-0.725675
-0.156287
-0.409777
0.353121
-0.319826
0.579730
-0.068208
0.980700
0.414759
0.523083
0.001670
0.170254
-0.482408
0.312818
-0.152024
0.463476
-0.171715
0.111516
-0.492389
0.138261
-0.176966
0.028406
-0.179764
0.689007
-0.465712
0.640060
-0.404736
-0.048942
-0.451940
-0.036107
-0.274482
0.577785
-0.447994
0.523869
-0.142335
0.559837
0.595290
0.707068
-0.153247
0.732717
-0.071029
0.608855
-0.093446
0.595140
-0.197962
0.272505
-0.295741
0.461597
-0.313102
0.758351
-0.362221
0.606923
0.411525
0.374857
-0.394615
0.339233
-0.321926
0.081832
-0.090534
0.198911
-0.429685
0.370723
0.036975
0.736103
0.496812
0.979040
-0.145435
0.653588
-0.380911
0.141854
-0.544850
0.509576
-0.002662
0.780311
-0.156587
0.474546
-0.010252
0.873047
-0.010256
0.809333
0.002702
1.008799
-0.077029
0.569104
-0.451134
-0.038614
-0.723139
0.337971
-0.492922
-0.113699
-0.236742
0.285953
-0.074183
0.552654
-0.346278
0.074480
-0.494931
0.245681
-0.598064
0.234213
-0.346241
0.555646
-0.439939
0.718640
-0.190742
0.569464
0.495198
1.027920
-0.029973
0.694192
0.022774
0.470205
-0.256485
0.048035
-0.533005
0.113071
-0.578081
-0.358613
-0.830948
0.415253
-0.006451
0.676068
-0.074134
0.470967
-0.103130
0.648031
-0.465894
0.642981
-0.132077
0.473488
0.191761
0.842373
0.040791
0.384917
-0.044587
0.812532
-0.143374
0.441637
-0.393301
0.840574
-0.300516
0.144298
-0.511809
0.145848
-0.329547
-0.110730
-1.008970
0.233389
-0.331027
0.348498
-0.376735
0.273954
-0.351453
0.485860
-0.009912
0.471390
-0.428144
0.538347
-0.081472
0.844846
-0.009357
0.630954
-0.268653
0.630457
-0.502184
-0.110156
-0.246334
0.203399
-0.661326
-0.432009
-0.628092
-0.090863
-0.247587
0.047274
-0.379133
0.271211
-0.520125
0.064263
-0.035537
0.101320
-0.522425
0.373039
-0.366819
0.180952
-0.197716
0.352899
-0.433680
0.748362
-0.027758
0.428910
-0.307471
0.527687
-0.497591
-0.159304
-0.641178
0.735865
-0.465515
-0.314971
-0.529622
-0.082441
-0.484067
0.226147
-0.326689
0.524886
-0.418662
0.467545
-0.721234
0.455819
-0.451162
0.690029
-0.561098
0.278970
-0.407308
0.165391
-0.406127
0.500609
-0.592442
0.368519
-0.406126
-0.172453
-1.167004
-0.229197
-0.422342
0.083385
-0.639473
-0.059086
-0.917147
0.104353
-0.580119
0.053384
-0.483809
0.288506
-0.166592
0.121172
-0.615808
0.331149
-0.368909
0.553657
-0.089857
0.108895
-0.602466
0.586360
-0.383751
0.146024
-0.296001
-0.168166
-0.454101
-0.368136
-0.922881
0.122989
-0.005567
0.655864
-0.693196
0.194571
-0.571341
0.426575
-0.190244
0.415591
-0.192108
0.079275
-0.364341
0.662211
-0.312928
0.257696
-0.605963
0.099257
-0.598503
0.267348
-0.733631
0.610309
-0.238754
0.631506
-0.782313
-0.443780
-0.396535
-0.226335
-0.367769
-0.000842
-0.000063
0.188975
-0.504274
0.160905
-0.365129
0.499688
-0.132418
0.318863
-0.386340
0.374833
-0.015260
0.308263
-0.563457
0.607539
-0.230514
0.690196
-0.172459
0.134442
-0.224742
-0.031546
-0.289293
0.228435
-0.164818
-0.244264
-0.750383
0.488529
-0.351527
0.419061
0.007699
0.404448
-0.623043
0.164351
-0.323168
0.239780
-0.665025
0.131806
-0.255465
-0.015901
-0.618547
0.171635
-0.578065
0.582930
-0.573027
0.275823
-0.483035
0.099569
-0.431079
0.551207
-0.111764
0.496993
-0.080954
0.619253
-0.332394
0.103486
-0.040681
0.263850
0.061782
0.299151
-0.125110
0.136043
-0.693948
0.396412
-0.600300
-0.066483
-0.556199
0.286999
-0.624384
0.242974
-0.532863
0.389009
-0.517718
0.312813
-0.262418
0.395317
-0.748279
-0.176073
-0.452895
0.256757
0.157349
0.365660
-0.016305
0.503296
-0.354513
0.327989
-0.057327
0.029624
-0.533475
-0.001060
-0.450667
0.165987
-0.742940
-0.207599
-0.622169
0.172574
-0.543107
-0.055868
-0.562434
0.379116
-0.275106
0.336801
-0.059089
0.087831
-0.764470
0.144299
-0.521387
0.675603
-0.116135
0.704210
-0.274594
0.689126
-0.100129
0.354965
-0.571337
0.207595
-0.142051
0.306626
-0.433419
0.131492
-0.432413
0.387167
-0.304415
0.364424
-0.105177
-0.012074
-0.560821
0.554632
-0.025552
0.377722
-0.230536
0.279200
-0.130545
0.166565
-0.389391
0.749930
-0.375879
0.553706
-0.151199
0.398230
-0.301939
0.560656
-0.433842
0.205219
-0.166384
0.516243
-0.166706
0.158419
-0.381019
0.416968
-0.223399
0.095267
-0.598773
0.318723
-0.609656
0.563929
-0.355842
0.444672
-0.417867
0.361769
-0.200303
0.588530
-0.630179
0.197280
-0.167120
0.542801
0.170381
0.413347
-0.227052
0.778786
-0.168275
0.581967
-0.062108
0.680647
-0.145615
0.688299
-0.125570
-0.155522
-0.463210
0.100373
-0.750423
0.342798
-0.436491
0.506665
-0.695177
0.331689
-0.368912
0.339642
-0.095790
0.047848
-0.040865
0.211368
-0.130365
-0.098674
-0.443201
0.148935
-0.579435
0.285587
-0.559447
0.175059
-0.432737
0.078733
-0.452018
0.131871
-0.503966
0.108271
-0.143234
0.500343
-0.302615
0.320275
-0.101241
0.230522
-0.699469
0.529300
-0.036180
0.693778
-0.156695
0.401065
-0.365700
0.181557
-0.567588
0.217438
-0.662850
0.313321
-0.439679
0.005944
-0.180426
0.041847
-0.586304
0.349801
-0.398679
0.130464
-0.722560
0.066717
-0.257137
0.467841
-0.446982
0.218295
-0.383335
0.662761
-0.555627
0.483351
-0.193284
0.555096
-0.312807
0.221811
-0.568350
0.449772
-0.652592
0.135914
-0.116157
0.417523
-0.462866
0.531948
-0.183105
0.307511
-0.506840
0.341213
-0.341122
0.339172
-0.171949
0.647084
-0.496344
0.141437
-0.173820
0.661287
-0.658586
0.578126
-0.180780
0.341915
-0.540894
0.036407
-0.125266
0.034444
-0.590969
0.436979
-0.269909
0.437017
-0.209840
0.208552
-0.613951
0.238809
-0.603526
0.500040
-0.665812
0.177680
-0.069590
0.504874
-0.528782
0.414129
-0.120573
0.006563
-0.405984
0.590726
-0.158768
0.570706
-0.552013
0.448832
-0.032793
0.459269
-0.289726
0.069200
-0.584535
0.323904
-0.660704
0.322453
-0.587546
0.401950
-0.534010
0.078814
-0.353787
0.056561
-0.010365
0.148852
-0.026184
0.188468
-0.225388
0.514603
-0.020307
0.651937
-0.630114
0.028529
-0.357970
0.520839
-0.187297
0.228676
-0.372853
0.304651
-0.677508
0.405644
-0.064090
0.255659
-0.496953
0.610454
-0.625316
0.407082
-0.297115
0.434714
-0.166728
0.101318
-0.574027
0.465360
-0.171144
0.567674
-0.628475
0.185964
-0.065772
0.143508
-0.010763
0.083565
-0.102295
0.632376
-0.112094
0.460265
-0.453215
0.299391
-0.689218
0.125880
-0.604723
0.652968
-0.585119
0.570089
-0.330534
0.180832
-0.754108
-0.050167
-0.217500
0.024858
-0.771956
0.003449
-0.401465
0.398287
-0.715902
0.397767
-0.390562
0.546798
-0.651178
0.405952
-0.031237
0.643637
-0.489541
0.133351
-0.576013
0.601710
-0.594500
0.328828
-0.206073
0.549562
-0.562088
-0.064027
-0.712547
0.098436
-0.335798
-0.234495
-0.983566
0.213807
-0.675023
0.268846
-0.394601
-0.046211
-0.301915
0.305763
-0.648647
0.052660
-0.218426
0.228564
-0.651759
0.164061
-0.627633
0.682766
-0.107746
0.417529
-0.115861
0.686781
-0.330188
-0.047859
-0.443280
0.355662
-0.730245
-0.085897
-0.783871
0.341187
-0.472092
0.515065
-0.591959
0.316488
-0.626256
0.060150
-0.124966
0.229574
-0.123041
0.312066
-0.626851
0.034265
-0.375022
0.156020
-0.242994
0.322538
-0.320019
0.171160
-0.303855
0.436130
-0.574541
0.384675
-0.528562
0.055231
-0.514744
-0.206203
-0.240640
0.083255
-0.292587
0.453945
-0.160121
0.548888
-0.520136
0.571050
-0.712104
0.526396
-0.662883
0.197675
-0.143816
0.051374
-0.491985
0.030779
-0.084147
0.152110
-0.189997
0.325735
-0.471897
0.526386
-0.460345
0.023389
-0.334687
0.274553
-0.561842
0.377620
-0.792886
0.064642
-0.900085
0.407278
-0.416667
0.309601
-0.436607
0.599948
-0.366458
0.630557
-0.404717
0.462521
-0.479063
0.348721
-0.742022
0.540814
-0.496353
0.474352
-0.591691
0.573339
-0.628344
0.095010
-0.175056
0.360627
-0.611642
0.101234
-0.405532
-0.018436
-0.503856
0.077619
-0.229398
0.072168
-0.568370
0.109430
-0.157605
0.318912
-0.079659
0.150470
-0.229566
0.613219
-0.734456
-0.196684
-0.599756
0.280494
-0.543075
0.438842
-0.208104
0.311160
-0.225385
0.106330
-0.167242
0.210522
-0.045181
0.574416
-0.379494
0.048322
-0.468116
0.237357
-0.226916
-0.115639
-0.800585
0.288005
-0.134054
0.668095
-0.223720
0.508154
0.026110
0.505682
-0.797753
0.003864
-0.707324
0.453395
-0.492630
0.131853
-0.186342
0.300367
-0.594869
0.403839
-0.521573
0.207261
-0.246486
0.227270
-0.106829
0.609318
-0.470530
0.009971
-0.565502
-0.810495
-0.732023
0.638228
0.388152
0.714149
-0.294929
0.065006
0.195411
0.302415
-0.740085
-0.312702
-0.945564
0.416442
-0.508271
0.280593
-0.368716
0.254388
-0.431375
0.541629
-0.459698
0.453805
-0.100899
0.518323
-0.293564
-0.098807
-0.730593
0.139316
-1.736597
-0.589046
-0.474029
0.921193
0.645504
0.806395
0.281415
0.731618
-0.207888
0.392242
-0.392152
0.393254
-0.397804
0.207786
-0.075614
0.081819
-0.116184
0.522116
-0.381897
0.467074
-0.066702
0.126431
-0.287507
0.572599
-0.423892
0.367522
-0.632441
-0.295172
-1.204311
0.394536
0.311616
1.548375
0.410599
1.063132
0.227495
1.063689
0.406381
0.479306
-0.659738
0.108227
-0.184121
0.371681
-0.119316
0.298050
-0.685550
0.149084
-0.427400
0.029501
-0.059738
-0.040707
-0.622627
-0.038874
-0.129772
-0.080524
-0.441079
0.009250
-0.324726
1.016182
0.440253
1.503815
0.329680
0.999869
0.270309
1.266816
0.312997
0.439359
-0.415054
0.436827
-0.322638
0.281821
-0.006095
0.435186
-0.677988
0.104610
-0.072415
0.603584
-0.353791
0.279787
-0.206079
0.140432
-0.598410
0.007332
-0.860065
0.295510
0.027209
0.844885
0.216808
0.858822
0.295483
0.697931
0.452297
0.641949
-0.402804
0.247662
-0.477450
-0.075253
-0.066453
0.411902
-0.045213
0.341685
-0.695954
0.044496
-0.081710
0.738114
-0.094294
0.103387
-0.716608
0.116677
-0.834776
0.144840
-0.240247
0.439154
-0.078159
0.826593
0.154627
1.142635
0.211492
0.937156
0.209428
0.372575
-0.750953
-0.228818
-0.737800
0.229405
-0.708853
0.446453
-0.075855
0.644195
-0.168642
0.118258
-0.250787
0.305593
0.016461
0.488508
-0.124653
0.302745
-0.716326
-0.391136
-0.028056
0.747956
0.512911
0.762051
0.207804
1.018600
0.212937
0.146103
-0.427858
0.212506
-0.778886
-0.225653
-0.892626
0.171228
-0.335796
0.166152
-0.393045
0.139440
-0.617915
0.467662
-0.036527
0.205686
-0.295584
0.575691
0.004961
0.442881
0.025610
0.316309
-0.189444
1.103446
0.237047
1.128456
0.766761
0.906557
0.055955
0.513639
-0.440054
-0.264444
-0.244714
0.124888
-0.735073
0.290693
-0.454603
0.350276
-0.393862
0.573852
-0.519588
0.083044
0.022206
0.544551
-0.318650
0.156629
-0.188484
0.972627
0.038675
0.331611
-0.106298
1.309684
0.491550
0.810013
0.215241
0.488734
-0.291363
-0.061332
-0.985798
-0.348156
-0.765112
0.098675
-0.353673
0.291786
-0.051945
0.034243
-0.298694
0.363356
-0.388323
0.687811
-0.180184
0.244926
-0.000938
0.181073
-0.495668
0.927302
0.113249
0.845032
0.226116
0.973654
0.153574
0.374925
-0.631754
0.069111
-0.885435
-0.324873
-0.972298
0.000983
-1.090900
0.246585
-0.711531
0.310424
-0.199816
0.204683
-0.071815
0.202270
-0.246906
0.370472
-0.512930
0.618309
-0.430836
-0.080383
-0.250916
0.225128
-0.342589
0.067163
-0.543543
-0.227819
-0.953518
-0.533398
-0.671600
-0.161325
-0.777647
-0.301794
-0.649662
-0.535107
-0.621343
0.339167
-0.608007
0.220607
-0.337664
0.582433
-0.561892
0.546691
-0.098438
0.632461
-0.020394
0.357872
-0.373321
0.474964
-0.498116
0.135129
-0.586966
-0.122548
-0.952302
-0.253276
-1.165701
-0.602455
-0.716726
-0.057539
-0.418932
0.171113
-0.479382
0.097089
-0.707890
0.020488
-0.567357
0.144953
-0.628411
0.476962
-0.346749
0.285888
-0.370902
0.208130
-0.126478
0.409446
-0.094815
0.224118
-0.257047
0.091961
-0.345435
0.330047
-0.456759
-0.067142
-0.197423
-0.016773
-0.525652
0.385367
-0.453347
0.156351
-0.340494
0.264477
-0.023734
0.379634
-0.202005
0.562616
-0.450369
0.067982
-0.001479
0.396759
-0.550919
0.350731
-0.698719
0.164277
-0.552808
0.288205
-0.696297
0.457243
-0.506141
0.193254
-0.237167
0.337909
-0.370636
0.282465
-0.363594
0.394822
-0.276777
0.437887
-0.468567
0.394814
-0.490506
0.172065
-0.144937
0.528837
-0.463094
0.363115
-0.395633
0.228520
-0.430401
0.399704
-0.633280
0.227578
-0.077298
0.652068
-0.460574
0.392589
-0.437922
0.254739
-0.579321
0.380991
-0.354953
0.467262
-0.088465
0.300165
-0.537363
0.552897
-0.246904
0.030552
-0.094349
0.198264
-0.444595
0.693375
-0.217640
0.678270
-0.489722
0.693763
-0.340654
0.186803
-0.217952
0.061784
-0.580673
0.152413
-0.327014
0.520143
-0.342816
-0.023864
-0.517605
0.009887
-0.787860
0.080829
-0.734692
0.276467
-0.324596
0.276822
-0.250550
0.589631
-0.197810
0.587985
-0.537774
0.405540
-0.660043
0.402930
-0.359444
0.182674
-0.381749
0.149282
-0.176773
0.014953
-0.347535
0.393655
-0.143284
0.171539
-0.607486
0.429055
-0.250879
0.415203
-0.763191
0.502915
-0.801768
0.482273
-0.499351
0.316874
-0.408484
0.479512
-0.076554
0.655738
-0.278836
0.341263
-0.481911
0.193435
-0.031357
0.439734
-0.596674
0.390801
-0.622400
0.279814
-0.540216
0.086500
-0.316372
0.142353
-0.541470
0.291252
-0.558920
0.122770
-0.345845
0.325394
-0.448197
-0.109159
-0.621044
0.167489
-0.608474
0.206541
-0.603729
0.294684
-0.656796
0.697511
-0.235552
0.262089
-0.334126
0.017431
-0.455530
0.365483
-0.457165
0.352204
-0.056154
0.379851
-0.632197
0.588297
-0.486957
0.222750
-0.086637
0.255668
-0.646751
0.428841
-0.643598
0.063667
-0.302404
0.146338
-0.117888
0.103553
-0.395863
0.001768
-0.305916
0.296644
-0.293433
0.265276
-0.294153
0.527365
-0.628279
0.546416
-0.282895
0.293762
-0.303581
0.635099
-0.350046
0.683154
-0.565725
0.246296
-0.461571
0.104727
-0.300728
0.037303
-0.022925
0.079245
-0.657385
0.088769
-0.376998
0.122847
-0.196131
0.481436
-0.514382
0.196415
-0.087803
0.111025
-0.489849
0.353079
-0.405178
0.318834
-0.180445
0.333456
-0.164990
0.481106
-0.597838
0.480428
-0.389311
0.288097
-0.439743
0.283579
-0.501653
0.192240
-0.351470
0.146569
-0.238495
0.395693
-0.214274
0.216145
-0.469008
0.598280
-0.330989
0.669157
-0.378272
0.145723
-0.165572
0.466075
-0.256748
0.655422
-0.119137
0.661929
-0.270843
0.330155
-0.223233
0.500907
0.006082
0.333967
-0.096027
0.601555
-0.358980
0.766739
0.115055
0.458304
-0.052309
0.484580
-0.389319
0.460958
-0.056185
0.687958
-0.628922
0.545585
-0.580663
0.264821
-0.513323
0.258962
-0.410544
0.678899
-0.023289
0.667566
-0.607484
0.214455
-0.485074
0.368721
-0.215081
0.490757
-0.382499
0.818718
-0.166200
0.459173
0.080888
0.480470
0.122457
0.577039
-0.295103
0.477871
-0.557870
0.422711
0.026103
0.059950
-0.322563
0.649252
-0.595843
0.199048
-0.213892
0.409152
-0.456306
0.627514
-0.327998
0.612172
-0.358605
0.562893
-0.306456
0.814789
-0.224148
0.558228
-0.034114
0.588950
-0.044550
0.626367
-0.353786
0.870469
0.296436
0.299245
0.144003
0.675259
-0.287585
0.045026
-0.231112
0.358724
-0.070832
0.563157
-0.307421
0.667458
-0.060036
0.532123
-0.300446
0.685648
-0.238545
0.320892
0.023317
0.709039
-0.037578
0.481104
0.005565
0.517221
-0.156922
0.636176
-0.278399
0.468196
-0.334906
0.870788
-0.316691
0.142666
-0.607384
0.590822
-0.650050
0.333660
-0.582315
0.191612
-0.685732
0.651135
-0.043701
0.315251
-0.565472
0.236083
0.042239
0.455072
-0.486776
0.611331
-0.251275
0.423290
-0.142705
0.144504
-0.357213
0.296796
-0.243092
0.406434
-0.560390
0.193063
-0.559302
0.454656
-0.236465
0.327756
-0.563980
0.206165
-0.132863
0.540209
-0.511258
0.020774
-0.040921
0.497361
-0.611774
0.214223
0.095613
0.599552
-0.369814
-0.007228
-0.428273
-0.188227
-0.479301
0.266805
-0.630215
-0.214520
-0.912064
-0.273346
-1.062207
-0.363010
-0.988004
0.164448
-0.636139
0.343678
-0.241138
0.712558
-0.555900
0.231175
-0.151458
0.679548
-0.106258
0.609131
0.040408
0.218939
-0.310079
-0.091607
-0.422746
0.186065
-0.895193
-0.259094
-0.639547
-0.470471
-1.135583
-0.612914
-1.160603
-0.551349
-1.083081
-0.072512
-0.817662
0.041291
-0.237525
0.293813
0.067238
0.615146
-0.475246
0.431322
-0.544750
0.312569
-0.714777
0.633310
-0.264660
0.095715
-0.710009
0.084596
-0.513636
-0.043652
-0.809593
-0.324432
-0.900146
-0.200109
-0.564189
-0.334525
-0.893177
-0.243311
-1.142879
-0.325621
-0.411041
-0.045877
-0.424703
0.508099
-0.298905
0.450597
-0.618667
0.563245
-0.276223
0.396194
-0.323421
0.049399
-0.054754
0.157560
-0.347792
-0.074029
-0.723407
-0.294012
-1.152128
-0.036893
-0.726735
0.389901
-0.167723
-0.254609
-0.848909
-0.475707
-0.724317
-0.014443
-0.756278
-0.027262
-0.737047
0.721761
-0.208459
0.193931
-0.440869
0.109369
-0.595130
0.358361
-0.682732
0.121050
-0.161410
0.008130
-0.567613
-0.148859
-0.715949
0.010862
-0.726901
-0.076550
-0.267906
0.724428
-0.446620
0.260401
-0.109429
0.446553
-0.350273
0.504205
-0.715801
-0.151678
-0.297435
0.574357
-0.213448
-0.012410
-0.605711
0.606149
-0.218632
0.346557
0.030834
0.107327
-0.785887
0.463996
-0.355437
0.101639
-0.235184
0.173519
-0.251973
0.066953
0.073603
1.018804
0.165035
0.137760
-0.111084
0.026154
-0.284413
0.287993
-0.664805
0.469068
-0.254562
0.678388
-0.051268
0.242343
-0.509210
0.327106
-0.267628
0.423578
-0.152292
0.476470
-0.182341
0.043814
-0.553677
0.128056
-0.053734
-0.124131
-0.182873
0.529287
-0.126590
0.841817
-0.203534
0.136561
-0.106530
-0.003275
-0.080632
0.413880
-0.139605
0.343886
-0.624813
0.321386
-0.447402
0.049877
-0.648727
0.570407
-0.287305
0.458564
-0.147048
0.465065
-0.386713
0.264466
-0.345764
0.157591
-0.638195
-0.087619
-0.457047
0.198383
0.105160
0.729280
0.105054
0.107251
-0.733976
0.507882
-0.527327
0.069703
-0.574803
0.572967
-0.289182
0.266762
-0.446244
0.277917
-0.087706
0.334984
-0.321352
0.037077
-0.191849
0.467425
-0.719556
0.208180
-0.653390
0.249611
-0.485470
-0.392605
-0.404374
0.154929
0.146325
0.877875
-0.338497
0.353870
-0.246879
0.102500
-0.208529
0.756704
-0.065682
0.539399
-0.673522
0.269156
-0.566956
0.353465
-0.205843
0.486524
-0.645620
0.302421
-0.090173
0.190571
-0.533839
0.020961
-0.510784
-0.453245
-0.469044
0.107906
-0.251651
0.128927
0.268162
0.619133
-0.352061
0.064745
-0.902688
0.397242
-0.137273
0.169747
-0.125566
0.381725
0.008464
0.575327
-0.307747
0.000937
-0.585898
0.384466
-0.368205
0.098817
-0.102223
0.306737
-0.498780
0.097395
-0.792761
-0.226585
-0.896793
-0.169156
-0.236742
0.595338
-0.001388
0.221695
-0.172944
0.003025
-0.337124
0.466107
-0.043296
0.647375
-0.109763
0.654163
-0.318995
0.528765
-0.408048
0.392025
-0.187951
0.155100
-0.402450
0.083256
-0.426361
0.155042
-0.187985
-0.038866
-0.305581
0.652919
-0.014167
0.608449
-0.166924
0.511907
-0.184230
0.688501
-0.028118
0.580470
0.185336
0.647430
-0.076335
0.752173
-0.400252
0.226114
-0.091554
0.261264
-0.073537
0.636090
-0.624712
0.527003
-0.327984
0.147282
-0.574073
0.164218
-0.122948
0.563061
0.220972
0.642848
-0.019327
1.081675
0.636536
0.804485
0.317059
0.210612
-0.032003
0.764748
-0.230145
0.826996
0.203083
0.356129
0.147031
0.580019
-0.513553
0.806191
-0.569969
0.226091
-0.158583
0.677408
-0.154060
0.106288
-0.396246
0.644267
-0.076043
0.661809
-0.061476
0.870155
0.263808
1.017455
0.603082
0.780871
0.079370
0.629875
0.017584
0.741193
0.067594
0.973599
0.208143
0.409798
-0.316266
0.336146
-0.147939
0.597515
-0.650227
0.340902
-0.514895
0.541480
-0.566537
0.683605
-0.439908
0.188217
0.051323
0.572108
-0.029532
0.731564
0.242666
0.728945
-0.227689
0.925283
0.334419
0.480495
-0.038523
0.903869
0.153849
0.514990
-0.077824
0.539644
-0.004107
0.678024
-0.608195
0.530783
-0.040887
0.346427
-0.330105
0.005428
-0.686253
0.150299
-0.491993
0.714973
0.045588
0.472262
-0.375924
0.364400
-0.520260
0.573846
-0.356725
0.086733
-0.647640
0.468295
-0.310917
0.267384
-0.234202
0.463407
0.015068
0.715503
-0.445048
0.588035
-0.414709
0.565045
-0.386536
0.395460
-0.379612
0.430147
-0.041131
0.011711
-0.406239
0.123448
0.012056
0.394855
-0.618312
0.224636
-0.636170
0.232754
-0.808197
0.191730
-0.479443
-0.211179
-0.206712
-0.101714
-0.633259
0.541771
-0.271719
0.277077
-0.283021
0.454263
-0.243596
0.038041
-0.330934
0.644106
-0.605960
0.016326
-0.335521
0.283736
-0.439904
0.392422
-0.278608
0.148523
-0.496925
0.329313
-0.463963
0.174240
-0.299654
0.072577
-0.390880
0.178485
-0.514245
-0.009663
-0.741247
0.234577
-0.429892
0.432829
-0.323884
0.590627
-0.205082
0.472056
-0.420681
0.434586
-0.500336
0.054921
-0.373818
0.406315
-0.070957
0.001375
-0.730010
0.440751
-0.482647
0.178203
-0.810147
-0.098182
-0.260289
0.223806
-0.643414
-0.179683
-0.395383
0.109568
-0.742329
0.276523
-0.746189
0.388720
-0.299818
0.139044
-0.420590
0.448148
-0.102112
0.601226
-0.214923
0.525907
-0.334560
0.015259
-0.580975
0.006088
-0.426323
0.642089
-0.033099
0.388905
-0.500810
0.353785
-0.051059
0.417109
-0.533291
-0.028747
-0.313132
0.079529
-0.191994
0.324607
-0.643941
0.604112
-0.239892
0.460935
-0.466620
0.448560
-0.633028
0.170630
-0.198325
0.035677
-0.071215
0.413248
-0.561583
0.405775
-0.428572
0.442249
-0.415365
0.148442
-0.396406
0.431061
-0.562700
0.161611
-0.140114
0.547604
-0.647867
0.625562
-0.610068
0.154392
-0.104300
0.000085
-0.575530
0.680102
-0.645281
0.114657
-0.440188
0.409661
-0.563217
0.580292
-0.061542
0.408892
-0.651506
0.474790
-0.270476
0.357281
-0.203296
0.012886
-0.071434
0.353357
-0.407372
0.503000
-0.217498
0.571657
-0.638878
0.080899
-0.505468
0.568196
-0.683065
0.672984
-0.665651
0.685766
-0.550902
0.643908
-0.631052
0.665559
-0.384096
0.340713
-0.528776
0.057311
-0.221005
0.590318
-0.466209
0.171773
-0.367360
0.020278
-0.544889
0.565760
-0.050090
0.594865
-0.223048
0.455516
-0.406430
0.451462
-0.330485
0.327293
-0.528187
0.127982
-0.224331
0.501107
-0.107042
0.177254
-0.488332
0.657944
-0.121162
0.419383
-0.623503
0.505258
-0.058871
0.452652
-0.562845
0.277451
-0.342948
0.307268
-0.504858
-0.063625
-0.409422
0.252098
-0.597008
0.365485
-0.248672
0.016078
-0.275136
0.505257
-0.588191
0.450898
-0.282362
0.325821
-0.639520
0.444002
-0.157967
0.041645
-0.621423
0.646868
-0.699588
0.042586
-0.362822
0.624106
-0.556504
0.406523
-0.381749
0.388972
-0.021301
0.069658
0.099257
0.561574
0.083108
0.365883
-0.159612
0.584506
-0.241415
0.074809
-0.825359
0.158069
-0.264059
0.430298
-0.098748
0.356328
-0.193388
0.026641
-0.094994
0.350628
-0.068401
0.016601
-0.296236
0.087543
-0.033534
0.709502
-0.615979
0.797152
-0.052091
0.776711
0.119100
0.746204
-0.036838
0.428336
-0.126634
0.449043
-0.035566
0.234364
-0.384278
-0.017385
-0.717059
0.105121
-0.661795
0.473272
-0.164881
0.561983
-0.203439
0.339736
-0.591267
0.297667
-0.680318
0.752343
-0.146557
0.537599
0.164396
0.498267
-0.023090
0.405650
-0.043496
0.848599
0.063877
0.970185
0.230869
0.564978
0.039428
0.649280
-0.408051
0.181835
-0.293837
-0.249114
-0.912378
0.218074
-0.478937
0.232636
-0.290573
0.550757
-0.130873
0.484932
-0.145229
0.170808
0.162254
0.477189
-0.533266
0.500207
-0.345041
0.193452
0.001338
0.293063
0.652736
0.985374
0.088023
0.991950
0.163439
0.468801
-0.478236
0.514788
-0.107497
-0.042442
-0.666041
-0.364326
-0.568188
0.534092
-0.548268
0.057477
-0.164502
0.118364
-0.552254
0.478478
-0.368773
0.310933
-0.376984
0.520370
-0.166358
0.432494
-0.360536
0.309266
0.048443
0.953772
0.425246
0.764611
0.288836
0.263120
-0.079075
0.241284
-0.434165
0.183096
-0.723151
-0.139077
-0.340721
0.176176
-0.537122
0.451811
-0.124634
0.355011
-0.473373
0.412192
-0.410213
0.383518
-0.890623
0.060229
-0.525579
0.175819
-0.552377
-0.082071
-0.732847
0.425852
0.767542
0.981799
0.020882
0.511975
-0.436252
0.580779
-0.223474
0.291063
-0.720094
-0.051566
-0.676781
0.275410
-0.308443
0.434047
-0.541337
0.113841
-0.197161
0.629867
-0.621889
0.342459
-0.802040
-0.277682
-0.853417
-0.249781
-1.250949
-0.676668
-0.855966
0.658700
0.516102
0.872441
-0.011964
0.674921
-0.176976
0.322915
-0.411397
0.664836
-0.308441
-0.115258
-0.742696
0.177965
-0.104191
0.128447
-0.535401
0.382345
-0.576515
0.238145
-0.814125
-0.529522
-1.078640
-0.465319
-0.877035
-0.361746
-1.484524
-0.532671
-1.089223
0.812793
-0.275891
0.585887
0.084478
0.749510
-0.051157
0.962011
0.299454
0.967549
0.194348
0.199910
-0.778021
0.061407
-0.287290
0.448214
-0.295540
0.373351
-0.605341
-0.063341
-0.489933
-0.224490
-1.141055
0.021236
-0.923457
-0.363504
-0.850005
-0.146997
-0.976214
-0.103717
-0.584769
0.287273
-0.152519
0.554067
0.198209
0.665866
-0.213856
1.023826
0.281804
1.031567
-0.650381
0.279128
-0.023843
0.559934
-0.368504
0.288925
-0.360072
0.449469
-1.000511
-0.192658
-0.459095
-0.079770
-0.483582
0.343720
-0.522692
-0.016643
-0.977216
-0.171159
-0.772999
0.045564
-0.924872
0.379273
-0.378304
0.681753
0.003771
0.917102
0.150677
1.074513
-0.637792
0.524439
-0.649701
0.523694
-0.120283
0.651632
-0.422423
0.367135
-0.395382
0.669488
-0.246907
0.386062
-0.289099
0.142430
-0.729625
-0.038169
-0.592896
0.121266
-0.988157
-0.183136
-0.450052
-0.126756
-0.402093
0.417097
-0.578617
0.719665
-0.170190
0.905821
-0.611227
0.121123
-0.679390
0.518768
-0.638622
0.621578
-0.358582
0.118733
-0.417533
0.413159
0.015168
0.417113
-0.034353
-0.027863
-0.626835
0.022925
-0.296386
-0.113016
-0.804904
-0.033318
-0.732104
-0.081966
-0.293647
0.416104
-0.141479
0.143598
-0.228353
0.211867
-0.077281
0.297459
-0.047956
0.668041
-0.378724
0.028943
-0.489730
0.518581
-0.092852
0.623447
0.196804
0.800393
-0.011174
0.179194
-0.330185
-0.244376
-0.841396
-0.022409
-1.105152
0.047694
-0.735410
0.555718
-0.471543
0.434634
-0.068809
0.375500
-0.218507
0.317485
-0.484235
0.175585
-0.295815
0.568090
-0.418126
0.369432
-0.495082
0.379738
0.330238
0.859211
-0.035561
0.501352
-0.209206
0.208863
-0.399413
0.257598
-0.707661
-0.564960
-1.049037
-0.138998
-0.079540
0.685910
0.076826
-0.044843
-0.442044
0.581024
-0.443440
0.520036
0.015631
0.247061
-0.029377
0.537609
-0.370780
0.363744
-0.302118
0.400753
-0.135677
0.617383
-0.033717
0.359828
-0.583798
0.557095
-0.804310
0.060957
-0.490304
-0.449574
-0.709085
0.542668
-0.146797
0.497629
-0.220171
0.338512
-0.214218
0.778196
-0.470268
0.523589
-0.284741
0.340144
-0.264379
0.400096
-0.543485
0.324328
-0.059366
0.505152
-0.174090
0.710174
-0.357595
0.638309
-0.197192
0.503060
-0.153158
-0.055885
-0.707209
-0.112087
-0.367077
0.917006
-0.055892
0.800791
0.119516
0.162041
-0.168239
0.206587
-0.554006
0.315478
-0.066837
0.479994
-0.031933
0.510845
-0.084266
0.324323
0.030203
0.933871
-0.281563
0.510641
-0.118645
0.472180
-0.259010
0.804669
-0.002495
0.606121
-0.416672
-0.022845
-0.417904
0.513194
-0.129192
0.468655
-0.257463
0.188631
-0.138273
0.218580
-0.205706
0.449610
-0.307846
0.257337
-0.643982
0.521389
-0.008969
0.702503
-0.106789
0.466162
0.015926
0.616466
-0.090194
0.010949
-0.215958
0.304822
-0.487098
0.484581
-0.720150
0.528937
-0.389755
0.298070
-0.388689
0.722541
-0.093858
0.239099
0.058964
0.230767
-0.173716
0.359338
-0.313241
0.475672
-0.658630
0.039356
-0.015973
0.631177
-0.394150
0.317967
-0.238082
0.325250
-0.106879
0.143126
-0.024794
0.151122
-0.204695
0.300837
-0.279746
0.393085
-0.281389
0.328723
-0.126764
0.226324
-0.365399
0.621152
-0.569549
0.079588
-0.629007
0.117124
-0.167431
0.176594
-0.318254
0.570422
-0.641464
0.306415
-0.499888
0.836874
0.052241
0.677150
-0.478245
0.279638
-0.431594
0.311452
-0.109514
0.609468
-0.317771
0.329824
-0.439873
0.472900
-0.257965
0.576345
-0.084238
0.196971
-0.088373
0.594124
0.007280
0.115109
-0.541980
0.010934
-0.123205
0.055749
-0.180129
0.460538
-0.566250
0.193551
0.045660
0.650034
0.053256
0.281056
0.023899
0.241831
-0.103366
0.477758
-0.166703
0.353900
-0.345391
0.194324
-0.475131
0.631242
-0.240301
0.259929
-0.582648
0.365180
-0.528987
0.657218
-0.159702
0.589131
-0.028258
0.012485
-0.596051
0.161161
-0.042617
0.103864
-0.597217
0.632362
-0.274402
0.521273
-0.603843
0.215652
-0.001475
0.353274
-0.200891
0.426873
-0.512926
0.332855
-0.263755
0.533337
-0.342122
0.290681
-0.622501
0.443839
-0.047654
0.421346
-0.074529
0.592347
-0.363880
0.239914
-0.475750
0.392934
-0.255496
0.355413
-0.578978
0.236527
-0.616647
0.270010
-0.533227
0.380537
-0.566562
-0.084187
-0.446515
0.241428
-0.483517
0.352355
-0.282388
0.600738
-0.386061
0.204799
-0.693739
0.555721
-0.599299
0.539393
-0.313840
0.639489
-0.252134
0.396832
-0.526088
0.616014
-0.636728
0.301547
-0.312788
0.180272
-0.694610
0.107097
-0.609151
0.307271
-0.710416
0.030981
-0.513300
0.042544
-0.429451
0.453506
-0.794593
0.486823
-0.479780
0.104445
-0.560205
0.103658
-0.337959
0.507194
-0.677985
0.234091
-0.347165
0.294300
-0.170621
0.599299
-0.691132
0.696707
-0.515416
0.628079
-0.296963
0.124670
-0.129663
0.251968
-0.283485
0.617198
-0.711073
0.136348
-0.070615
0.340690
-0.421800
0.303650
-0.256749
0.391647
-0.178773
-0.008724
-0.503785
0.015816
-0.115335
0.139253
-0.523010
0.373344
-0.170174
0.387620
-0.543965
0.069473
-0.378752
0.540674
-0.584786
0.306631
-0.139221
0.008252
-0.423656
0.411405
-0.283475
0.350460
-0.405214
0.446959
-0.402085
0.066393
-0.146494
0.023928
-0.317571
0.538511
-0.198222
0.319868
-0.340095
0.214039
-0.435204
0.479347
-0.037049
0.528523
-0.152691
0.207223
-0.216143
0.696636
-0.276701
0.594957
-0.537274
0.161513
-0.201467
0.676566
-0.169826
0.625447
-0.387307
0.453396
-0.275603
0.093182
-0.200254
0.677653
-0.159576
0.346660
-0.001655
0.477138
-0.185167
0.199880
-0.097006
0.525262
-0.413919
0.532210
-0.304610
0.450967
-0.360739
0.457203
-0.658259
0.576835
-0.453851
0.235123
-0.471205
0.291950
-0.395666
0.673598
-0.265711
0.569831
-0.593181
0.656822
-0.319714
0.174833
-0.048866
0.519471
-0.151881
0.208530
-0.166124
0.153512
-0.685676
0.351292
-0.353392
0.082683
-0.176555
0.067309
-0.614950
0.481824
-0.517106
0.276512
-0.239194
0.475867
-0.152011
0.695226
-0.007169
0.629022
-0.274662
0.418275
-0.584187
0.566153
-0.270097
0.496779
-0.507567
0.593512
-0.669410
0.556785
-0.412591
0.122038
-0.064860
0.578724
-0.275543
0.050493
-0.229966
0.629204
-0.133048
0.407586
-0.694410
0.047211
-0.187845
0.511579
-0.329315
0.431895
-0.269114
0.510968
-0.378397
0.331225
-0.374748
0.018382
-0.005756
0.299226
-0.551656
0.293942
-0.083281
0.363480
-0.176088
0.064318
-0.217534
0.589618
-0.186336
0.282409
-0.468335
0.461995
-0.333156
0.700283
-0.385155
0.477240
-0.388698
0.396794
-0.509037
0.608426
-0.148431
0.222911
-0.231250
0.544574
-0.582373
0.069317
-0.081317
0.335978
0.001768
0.142665
-0.584390
0.600572
-0.386523
0.007129
-0.254890
0.565883
-0.071271
0.472365
-0.455421
0.261872
-0.048497
0.229238
-0.005561
0.406904
-0.199622
0.430660
-0.141618
0.648799
-0.017652
0.784155
-0.400243
0.380845
-0.048087
0.191216
-0.058121
0.062333
-0.121870
0.238463
-0.299164
0.231546
-0.286252
0.248685
-0.109532
0.680253
-0.255137
0.364221
-0.546174
0.335567
-0.123719
0.316356
-0.545259
0.231774
-0.486539
0.633668
-0.562468
0.078340
-0.223904
0.145833
-0.554122
0.498871
0.061396
0.546455
0.032264
0.157932
-0.570113
0.155528
-0.088142
0.135679
-0.274806
0.465877
-0.325275
0.579363
-0.012434
0.434610
-0.559572
0.281809
-0.083458
0.435263
-0.545582
0.280486
0.031396
0.519689
-0.382665
0.599983
-0.276138
0.410436
-0.476072
0.770543
-0.278942
0.607264
-0.346473
0.426079
-0.278007
0.464617
-0.415817
0.308199
-0.501111
0.582876
-0.392537
0.105733
-0.346293
0.018095
-0.687590
0.372489
-0.429054
0.574969
-0.587307
0.584197
-0.210779
0.563813
-0.028272
0.331376
-0.195717
0.623809
0.006245
0.748069
-0.063352
0.735011
-0.581626
0.566186
-0.459759
0.425893
-0.080771
0.197719
-0.086259
0.569156
-0.459044
0.614869
-0.448381
0.152383
-0.017608
0.111812
-0.146968
0.026873
-0.421581
0.648581
-0.512090
0.429160
-0.386099
0.191425
-0.100950
0.673499
-0.217000
0.585871
-0.311746
0.534381
-0.370019
0.594621
-0.373138
0.480812
-0.262517
0.259169
-0.125603
0.396671
-0.423416
0.229943
-0.258378
0.182982
-0.136296
0.028438
-0.314573
0.179748
-0.073759
0.537093
-0.133297
0.610365
-0.323768
0.114546
-0.126332
0.330123
0.037404
0.535766
0.008949
0.569019
-0.134479
0.514774
-0.199247
0.032082
-0.246946
0.664782
-0.448836
0.543666
-0.200447
0.592882
-0.231934
0.624408
-0.111126
0.515446
-0.090274
0.283921
-0.463777
0.475100
-0.389037
0.667589
-0.143385
0.688273
-0.334954
0.810671
-0.480607
0.767800
-0.098193
0.129113
-0.346043
0.284859
-0.515106
0.667536
0.007073
0.070733
-0.649039
0.264298
-0.020625
0.416965
-0.103076
0.222359
-0.298978
0.361979
-0.130527
0.446820
-0.093844
0.281870
0.046068
0.712922
-0.575039
0.531779
-0.381275
0.388205
-0.184530
0.377076
-0.119735
0.340976
-0.204632
0.425173
-0.301185
0.689142
-0.639271
0.166232
-0.613297
0.653016
-0.223468
0.576899
-0.214181
0.244582
-0.283419
0.343017
-0.448775
0.619544
-0.621731
0.655022
-0.266431
0.181078
-0.056428
0.444167
-0.545519
0.333199
0.103243
0.646730
-0.302226
0.478266
-0.041567
0.654287
-0.656190
0.357737
-0.307274
0.309888
-0.304937
0.271721
-0.457397
0.229272
-0.221903
0.681040
-0.096345
0.456834
-0.196130
0.437373
0.001266
0.761365
-0.201326
0.125412
-0.500101
0.748230
0.078733
0.244260
-0.107314
0.204967
-0.143361
0.413462
-0.532531
0.658735
-0.035874
0.699010
-0.535132
0.050123
-0.312878
0.170919
-0.342761
0.627069
-0.440060
0.100170
-0.156291
0.671046
-0.056210
0.308184
-0.327008
0.395253
-0.563994
0.531662
-0.239476
0.351101
-0.305581
0.357487
-0.056694
0.630831
-0.181011
0.571259
-0.531217
0.524763
-0.108312
0.535898
-0.402718
0.202606
-0.490541
0.264618
-0.233821
0.112534
-0.432294
0.577168
-0.039772
0.174030
-0.663112
0.236380
-0.067361
0.129738
-0.389682
0.603549
-0.301046
0.519020
-0.131976
0.821689
-0.540152
0.118697
-0.073306
0.282797
-0.497692
0.469591
-0.644989
0.518839
-0.198867
0.119142
-0.312601
0.630733
-0.302090
0.109379
-0.192553
0.536940
-0.221579
0.626477
-0.400275
0.304848
-0.039937
0.443708
-0.402628
0.306054
-0.377685
0.318442
0.084136
0.275373
-0.525020
0.400623
-0.004615
0.690502
-0.333481
0.264953
-0.095714
0.285557
-0.645497
0.107692
-0.065189
0.176448
-0.203600
0.383416
-0.105589
0.506383
-0.492301
0.297168
-0.328233
0.052930
-0.176152
0.102247
-0.223426
0.403609
-0.355253
0.163578
-0.395066
0.334883
-0.160864
0.670386
-0.245168
0.256073
-0.222382
0.407758
-0.093058
0.662336
-0.614976
0.231499
-0.219885
0.586906
-0.321867
0.289812
-0.062739
0.525704
-0.673612
0.167154
-0.316642
0.496411
-0.429783
0.711765
-0.419274
0.772649
0.071245
0.179012
-0.184661
0.583718
-0.000818
0.212909
-0.611143
0.399019
-0.047862
0.318022
-0.510411
0.347122
-0.673780
0.638139
-0.291938
0.603687
-0.163691
0.513336
-0.490262
0.485575
-0.104156
0.551143
-0.299395
0.094712
0.002794
0.675243
-0.506855
0.550339
-0.508319
0.436626
-0.379778
0.741583
-0.290586
0.150316
-0.384648
0.498146
-0.225142
0.431920
-0.095413
0.330667
0.003300
0.636462
-0.665981
0.678866
-0.572422
0.257966
-0.582879
0.036140
-0.072158
0.372272
-0.520711
0.181742
-0.200142
0.162289
-0.215625
0.306218
0.028440
0.199219
0.043233
0.768028
-0.333959
0.563573
-0.619163
0.121789
-0.577575
0.386257
-0.559952
0.152046
-0.080995
0.677050
-0.473381
0.083693
-0.612683
0.439073
-0.062926
0.485119
-0.697556
0.648179
-0.510277
0.086209
-0.300712
0.365316
-0.207283
0.596429
-0.390501
0.560112
-0.043865
0.609394
-0.528926
0.165045
-0.513072
0.330531
-0.618175
0.499377
-0.395014
0.542571
-0.160542
0.265970
-0.688378
0.245070
-0.242027
0.461802
-0.328720
0.154803
-0.200552
0.402489
-0.618964
0.216306
-0.320345
0.478160
-0.248369
0.679568
-0.078612
0.528314
-0.471458
0.615598
-0.270662
0.625625
-0.407849
0.219924
-0.001700
0.281668
-0.489742
0.663420
-0.061801
0.191786
-0.503035
0.223891
-0.457296
0.491431
-0.468922
0.699329
-0.251514
0.105888
-0.149806
0.454197
-0.486802
0.098180
-0.646139
0.136100
-0.548114
0.226529
-0.074087
0.661796
-0.023415
0.594868
-0.535169
0.328398
-0.476513
0.266301
-0.519791
0.501512
-0.543033
0.312038
-0.463567
0.605369
-0.503805
0.266613
-0.129262
0.261101
-0.058041
0.598182
-0.260606
0.311263
-0.695448
0.416878
-0.063238
0.486397
-0.503666
0.025587
-0.606075
0.366263
-0.231860
0.699932
-0.320445
0.261536
-0.578818
0.155914
-0.593371
0.358645
-0.428513
0.412482
-0.159238
0.271613
-0.024537
0.622805
-0.176983
0.528342
-0.189417
0.306245
-0.089441
0.247482
-0.204375
0.349908
-0.558737
0.200287
-0.064268
0.624204
-0.685295
0.572649
-0.641453
0.597543
-0.235794
0.176892
-0.592251
0.557631
-0.440075
0.472079
-0.017776
0.333221
-0.130235
0.446315
-0.045703
0.017929
-0.070241
0.212278
-0.194912
0.598583
-0.401695
0.501157
-0.688026
0.649157
-0.005586
0.337893
-0.507895
0.204943
-0.404234
0.431959
-0.191208
0.274846
-0.373553
0.088422
-0.510662
0.550770
-0.680630
0.368417
-0.290995
0.452470
-0.386223
0.624216
-0.582705
0.132538
-0.669919
0.172178
-0.150467
0.040160
-0.384471
0.339993
-0.647635
0.073145
-0.151464
0.620000
-0.038667
0.148968
-0.271325
0.537284
-0.366732
0.657051
-0.279080
0.546820
-0.243976
0.647486
-0.636554
0.052145
-0.499817
0.618220
-0.420804
0.090543
-0.370690
0.107027
-0.014758
0.253395
-0.239567
0.684679
-0.425628
0.387207
-0.044089
0.077800
-0.068003
0.600289
-0.266811
0.109049
-0.680776
0.104852
-0.442014
0.059721
-0.137371
0.646822
-0.168986
0.310650
-0.566194
0.346623
-0.309929
0.473626
-0.416005
0.098244
-0.397012
0.136809
-0.188787
0.067702
-0.243872
0.203466
-0.323416
0.476126
-0.228885
-0.016078
-0.287090
0.036253
-0.363812
0.062138
-0.355978
0.172715
-0.494010
0.011002
-0.607885
-0.048691
-0.344563
0.526545
-0.113389
0.233140
-0.388947
0.518768
-0.011664
0.607829
-0.336896
0.423523
-0.005928
0.034310
-0.559074
0.206755
-0.105012
0.104208
-0.399395
0.399731
-0.690946
0.485985
-0.623040
-0.177957
-0.440018
0.311088
-0.430421
0.232820
-0.156660
0.906503
-0.079412
0.238814
-0.643923
0.552186
-0.142395
0.017481
-0.211518
0.421697
-0.563411
0.216603
-0.339076
0.197642
-0.643359
0.347895
-0.208777
0.519777
-0.468779
0.418591
-0.556754
0.172753
-0.269069
-0.032796
-0.716454
-0.065085
-0.677819
0.221385
-0.568667
0.114875
-0.286716
0.222487
0.042885
0.234767
-0.000819
0.223619
0.025399
0.315105
-0.071714
0.217646
-0.047120
0.632784
-0.429958
0.410279
-0.065345
0.448045
0.082757
0.478579
-0.109141
0.585421
-0.503626
0.096592
-0.016910
0.055818
-0.676322
0.273720
-0.396953
0.505145
-0.394751
0.484948
-0.338007
0.461582
-0.168482
0.757864
-0.325644
0.598390
0.003390
0.409998
-0.161369
0.071087
-0.601404
0.256070
0.086900
0.415689
-0.321514
0.315395
0.020968
0.603920
-0.377652
0.648532
-0.095408
0.458286
-0.546610
0.418884
-0.162912
0.285419
0.079881
0.653777
-0.358264
0.685062
-0.017218
0.496019
-0.018092
0.476551
-0.359772
0.560962
-0.241295
0.373382
-0.213719
0.506115
-0.393529
0.278403
-0.412589
0.456298
-0.502844
0.496609
-0.395198
0.750690
-0.394882
0.257988
-0.296348
0.319840
0.231000
0.512113
-0.043112
0.122086
-0.410526
0.315515
-0.376954
0.616650
-0.035542
0.493025
-0.178937
0.362497
-0.146597
0.573377
-0.133127
0.462380
-0.194582
0.412650
-0.202236
0.493500
-0.519034
0.170047
-0.347426
0.562053
-0.513190
0.180252
-0.212288
0.620326
-0.255095
0.381488
-0.548015
0.268424
-0.129514
0.037736
-0.138146
0.196945
-0.122627
0.567113
-0.527484
0.508246
-0.278406
0.048411
-0.085676
0.497222
-0.581865
0.123645
-0.262992
0.008315
-0.202225
0.164074
-0.232450
-0.041448
-0.383243
0.264242
0.432508
0.552099
-0.272479
0.101864
-0.375031
0.828219
-0.280483
0.046588
-0.290729
0.364613
-0.144461
0.205506
-0.608090
0.527498
-0.674819
0.478478
-0.252806
0.365036
-0.485447
0.350118
-0.739202
0.068141
-0.401634
-0.005741
-0.278989
0.324592
-0.468606
0.371316
0.074499
0.944313
0.079948
0.322022
-0.476938
0.206709
-0.527860
0.000188
-0.456259
0.239172
-0.576360
0.088193
-0.390862
0.112395
-0.205150
0.318709
-0.599884
0.316912
0.018862
0.285507
-0.287105
0.491038
-0.129252
0.508191
0.132176
0.348122
-0.601955
0.606726
-0.114463
0.551115
-0.055559
0.487500
-0.032557
0.082076
-0.792724
-0.369389
-0.851090
0.292449
-0.483326
0.375749
-0.466614
0.355433
-0.437623
0.165052
-0.453746
0.722813
-0.262124
0.640888
0.166488
0.623069
-0.605855
0.587361
-0.192363
0.041090
-0.379007
0.524113
-0.089859
0.474886
-0.094507
0.307615
-0.331339
0.225089
-0.262667
0.247995
-1.019056
0.112477
-0.711719
0.319314
-0.211080
0.445757
-0.001587
0.685112
-0.099989
0.451273
0.019431
0.827370
-0.013853
0.909772
0.110068
0.654103
-0.509419
0.229818
-0.556527
0.616492
-0.119016
0.379773
-0.169120
0.690783
-0.088564
0.858350
-0.057033
0.119894
-0.363337
0.093845
-0.724067
0.231427
-0.493982
0.675414
-0.558115
0.022379
-0.429729
0.470149
-0.851310
0.506616
-0.229815
0.288522
0.082743
0.484743
-0.152320
0.991765
-0.389115
0.425543
0.055863
0.609671
0.138640
0.756920
-0.078709
0.495497
-0.020773
0.313476
-0.637758
0.517404
-0.282416
0.227239
-0.074021
0.207719
-0.466776
0.611191
-0.221131
0.168379
-0.905779
0.178607
-0.589363
0.348749
-0.271064
0.820311
-0.143725
0.629314
-0.274505
0.656029
0.005930
0.577340
0.016528
0.610699
0.182390
0.817491
0.094395
0.565924
-0.063554
0.444503
-0.693460
0.635375
-0.454624
0.100119
-0.185426
0.580029
-0.289543
0.514643
-0.826000
-0.271842
-1.233133
-0.756409
-1.181328
-0.047575
-0.469119
-0.068293
-0.258735
0.136165
-0.155798
0.287074
0.069131
0.372225
-0.576758
0.118673
-0.732891
-0.058808
-0.427654
-0.193207
-0.681717
0.285610
-0.597046
0.439760
-0.255890
0.398485
-0.404095
0.430572
-0.624894
-0.599112
-1.507579
-0.967455
-2.217112
-1.501533
-1.303736
-0.795739
-1.107548
0.117369
-0.644373
0.127022
-0.509805
0.467248
-0.492068
0.166509
-0.517450
0.309525
-0.951812
-0.009212
-0.685113
0.289133
-0.275314
0.416595
-0.582668
0.209368
0.026351
0.314301
-0.603478
0.305245
-1.212027
-0.993438
-1.363704
-1.054476
-1.821967
-1.312787
-1.095733
-0.334983
-0.797406
-0.176929
-0.400459
-0.083893
-0.548594
0.432366
-0.348660
0.043978
-0.565695
0.271852
-0.138573
0.304850
-0.014564
0.651626
-0.588668
0.299713
-0.268142
0.638974
-0.504555
0.352500
-0.763866
0.184354
-0.763925
0.014356
-0.787019
-0.189084
-0.618880
-0.169962
-0.416916
-0.055930
-0.317263
0.296915
-0.660180
0.389762
-0.764223
0.237522
-0.604086
-0.006366
-0.687925
0.032210
-0.581558
0.069734
-0.333868
0.593174
0.026092
0.392720
-0.245219
0.167782
-0.635453
0.814296
-0.035206
0.675750
-0.171984
-0.064935
-0.581993
0.256920
-0.289280
0.116917
-0.656710
0.034484
-0.254371
0.087974
-0.658056
0.072823
-0.696662
0.414799
-0.610973
0.386949
-0.556224
0.591724
-0.415692
0.442858
-0.641417
0.157210
-0.295953
0.508176
-0.299933
0.583577
-0.050458
0.599814
-0.178820
0.523702
-0.416781
-0.159175
-0.669280
0.444924
-0.463636
0.495536
-0.462917
0.344124
-0.945065
0.465382
-0.738146
0.451491
-0.163904
0.650069
-0.245397
0.060204
-0.335550
0.102036
-0.611713
0.275007
-0.240241
0.761823
0.043955
0.171101
-0.279902
0.652191
-0.465183
0.227477
-0.835023
0.204203
-0.418847
-0.037350
-0.379208
0.066588
-0.073555
0.103522
-0.216151
0.237838
-0.142303
0.659905
-0.359492
0.097084
-0.466458
0.501694
-0.049376
0.016418
-0.493019
0.590976
0.238759
0.916363
-0.076878
0.731397
-0.266008
0.588843
-0.222310
0.203665
-0.215282
0.148992
-0.615711
0.090234
-0.606340
-0.130379
-0.527927
0.126178
-0.272854
0.184165
-0.676389
0.087355
-0.679281
0.063736
-0.097747
0.318788
-0.162623
0.564209
-0.101079
0.278958
-0.418680
0.918684
-0.268242
0.982327
-0.125038
0.685886
-0.271506
0.521033
0.124000
0.257498
-0.517403
0.305831
-0.288326
0.326107
-0.612078
0.030417
-0.479444
0.126701
-0.424945
0.602226
-0.370114
0.390882
-0.027687
0.344990
-0.454936
0.125434
-0.663841
0.632361
-0.663919
0.134740
-0.071865
0.612198
0.004128
0.118108
-0.479057
0.600579
-0.325962
0.532229
-0.054286
0.568286
-0.529308
0.641762
-0.230459
0.038336
-0.369760
0.046914
-0.137445
0.151609
-0.150649
0.572275
-0.057191
0.526485
-0.263336
0.084878
-0.171475
0.018335
-0.209585
0.136540
-0.632660
0.202990
-0.211748
0.078715
-0.058757
0.292233
-0.080927
0.638722
-0.128981
0.466654
-0.401199
0.251925
-0.277755
0.285764
-0.166769
0.492073
-0.342544
0.536444
-0.538819
0.479058
-0.688606
0.351333
-0.045797
0.515952
-0.614668
0.130675
-0.687427
0.632940
-0.340987
0.122679
-0.568770
0.540939
-0.342191
0.634336
-0.606214
0.628329
-0.026030
0.527486
-0.077293
0.477490
-0.246094
0.312238
-0.058911
0.531545
-0.479325
0.551794
-0.174669
0.315770
-0.390613
0.653727
-0.304376
0.380081
-0.305059
0.350173
-0.196030
0.220853
-0.479124
0.185503
-0.151842
0.126298
-0.289448
0.025416
-0.659102
0.638580
-0.671844
0.564054
-0.576499
0.681837
-0.396717
0.654152
-0.458846
0.643135
-0.266155
0.518027
-0.474491
0.045528
-0.369821
0.649160
-0.361297
0.060434
-0.602887
0.665674
-0.440504
0.210791
-0.307021
0.650447
-0.407051
0.139641
-0.082284
0.611400
-0.187247
0.451935
-0.592483
0.202475
-0.333048
0.581493
-0.022699
0.276134
-0.531365
0.448714
-0.203395
0.299533
-0.390460
0.471314
-0.116145
0.164957
-0.516842
0.485352
-0.114261
0.178144
-0.553747
0.011722
-0.133630
0.341235
-0.176721
0.511265
-0.188084
0.647000
-0.557725
0.351039
-0.512478
0.144924
0.025389
0.525149
-0.157721
0.515221
-0.234949
0.332205
-0.674404
0.142881
-0.053949
0.200577
-0.429241
0.444831
-0.671668
0.543260
-0.610488
0.484228
-0.352011
-0.002905
-0.695391
0.149807
-0.083194
0.025360
-0.607262
0.039067
-0.822715
0.344105
-0.506157
0.286690
-0.304984
0.086030
-0.459877
0.427013
-0.429425
0.123476
-0.095121
0.099436
-0.356136
0.140627
-0.208671
0.418737
-0.340912
0.638272
-0.169664
0.277119
-0.575070
-0.057828
-0.318664
-0.057468
-0.297855
-0.128996
-0.472599
-0.033099
-0.290994
-0.079004
-0.493188
-0.029334
-0.000684
0.721517
-0.326728
0.509865
-0.552338
0.429943
0.097865
0.519691
-0.307226
0.226670
-0.539031
0.698022
-0.364687
0.048109
-0.441891
-0.093600
-0.903558
0.276883
-0.627909
0.200983
-0.828132
0.267531
-0.529495
0.259061
-0.128800
0.546293
-0.020489
0.624904
-0.219914
0.577672
-0.011489
0.197650
-0.563804
0.680536
-0.437244
0.624954
-0.018780
0.037404
-0.254345
0.398009
-0.264811
0.087277
-0.456654
0.379530
-0.513138
-0.341853
-0.948375
-0.084230
-0.803538
0.233110
-0.512057
0.712139
-0.366377
0.816571
-0.253757
0.744074
-0.545917
0.199611
-0.439550
0.084819
-0.216877
0.425931
-0.277701
0.822034
-0.141317
0.450953
-0.385118
0.288936
-0.482990
0.625947
-0.833231
-0.322888
-0.528372
-0.105470
-1.010657
0.023483
-0.614426
0.380671
-0.617780
0.117496
-0.254826
0.285306
-0.069198
0.474339
-0.705966
0.272298
-0.590009
0.573182
-0.532478
0.246860
0.061484
0.255921
0.085621
0.595767
-0.593146
0.272388
-0.336475
0.246633
-0.741155
-0.282640
-0.726492
0.219448
-0.265517
0.228947
-0.332892
-0.099405
-0.527566
-0.199294
-0.314505
0.280564
-0.608958
0.108965
-0.436947
-0.068675
-0.362971
-0.012940
-0.783485
0.118612
0.025694
0.710140
-0.442406
0.136550
-0.613731
0.554507
-0.035528
0.450866
-0.343498
-0.034003
-0.450981
0.585897
-0.431435
0.416500
-0.325547
0.668189
-0.343454
0.036136
-0.691227
-0.489087
-0.726240
-0.362566
-0.724453
0.107035
-0.478038
0.152384
-0.244728
0.439340
-0.536164
0.166461
-0.040275
0.526209
-0.087659
0.554748
-0.687935
-0.072662
-0.617536
0.329178
-0.608172
0.660784
-0.062423
1.059929
-0.122982
0.486040
0.055127
0.020692
-0.998506
-0.895609
-0.978509
-0.156462
-0.442869
0.178358
-0.158541
0.592831
-0.400469
0.338086
-0.210056
0.678384
-0.199564
0.062902
-0.121828
0.245115
-0.621015
0.135683
-0.255099
0.367537
-0.167395
0.731068
-0.230552
0.414751
0.213779
0.636299
-0.016480
0.324627
-0.295226
0.094677
-0.475754
0.410145
-0.024536
0.360205
0.001618
0.805613
0.035852
0.729150
-0.148355
0.671856
-0.159967
0.687872
-0.530379
0.348001
-0.063249
0.587117
-0.721315
0.641350
0.076340
0.917911
-0.145405
0.799076
0.178496
1.089910
0.769054
1.171439
0.305300
0.822832
0.095476
0.456873
-0.138145
0.519244
-0.087958
0.242020
-0.304149
0.591208
-0.253764
0.656439
-0.083169
0.323771
-0.433963
0.228403
-0.316318
0.231601
-0.656074
0.374058
0.048887
0.845221
0.073240
0.766589
0.149396
1.134318
1.043050
1.193277
0.077217
0.733173
-0.124418
0.467406
-0.138539
-0.202394
-0.742272
0.478996
-0.263125
0.634303
-0.410171
0.695366
-0.161921
0.495077
-0.475258
0.220380
-0.129700
0.191854
-0.490902
0.519406
-0.024249
0.825056
0.460199
1.259634
0.531145
1.096356
0.452102
1.117977
-0.399683
0.343419
-0.064601
0.377238
-0.189156
0.161964
-0.514676
-0.188136
-0.899463
0.067595
-0.002902
0.088129
-0.055663
-0.000081
-0.696914
0.171864
-0.515901
0.456125
-0.412733
0.761192
-0.133817
0.851005
0.366585
1.123176
0.302678
1.198438
0.255211
0.734579
-0.415284
0.077105
-0.234256
0.095713
-0.439573
0.303506
-0.852772
0.208067
-0.783402
0.587548
-0.134292
0.207816
-0.202246
0.225944
-0.327656
0.161407
-0.263450
0.307280
-0.361172
0.248904
0.345665
0.750033
0.620800
0.704238
0.441868
1.071558
0.123705
0.616395
-0.410550
0.026060
-0.338923
0.471237
-0.243748
0.131038
-0.642489
-0.176992
-0.309686
0.106178
-0.713861
0.390698
-0.277789
0.112929
-0.699005
0.339879
-0.391578
0.307822
-0.570550
0.832956
-0.203981
0.738386
0.451857
0.542994
0.381183
0.668583
0.195151
0.176481
-0.648851
0.340507
-0.139641
0.557300
-0.148099
0.127911
-0.186350
0.298963
-0.407626
0.660005
-0.496616
0.328089
-0.279851
0.532293
-0.070388
0.445094
-0.697325
0.044887
-0.195445
0.443950
-0.025749
1.068753
0.017751
0.581858
0.261908
0.577464
-0.423590
-0.036454
-0.575824
0.299754
-0.453670
0.066403
-0.238655
0.364784
0.227289
0.564604
-0.095566
0.396069
-0.276126
0.416678
-0.291767
0.178073
-0.023581
0.518513
-0.028382
0.083954
-0.389105
-0.007155
0.102794
0.732990
-0.002201
0.784405
-0.144387
-0.040830
-0.460285
-0.050203
-0.474020
0.370677
-0.234552
0.085110
-0.247408
0.479994
0.075099
0.209591
-0.223543
0.344595
-0.631943
0.447666
-0.514583
0.299810
-0.136630
0.095372
-0.494273
0.155502
-0.692276
0.433640
-0.178683
0.341133
-0.301457
0.578609
-0.308867
0.306399
-0.400144
-0.040865
-0.312377
0.410920
-0.314063
0.373701
-0.301315
0.153727
-0.422699
0.816688
-0.154066
0.281903
-0.052423
0.623750
-0.406757
0.033137
-0.364631
0.231501
-0.342980
0.494312
-0.373317
0.037253
-0.798162
0.078756
-0.871065
0.170257
-0.250985
0.585933
-0.467089
0.319066
-0.176473
-0.024719
-0.477771
-0.022371
-0.631161
0.578132
-0.124823
0.314880
-0.517460
0.278719
-0.160864
0.297754
-0.308884
0.290337
-0.210835
0.039801
-0.326259
0.573053
-0.304195
0.548941
-0.578619
0.163213
-0.639085
0.096308
-0.105675
0.154927
-0.536716
0.358227
-0.817718
0.125637
-0.555168
0.150857
-0.823101
0.268021
-0.088767
0.694108
-0.100311
0.455092
0.029979
0.323599
-0.401811
0.308814
-0.604221
0.034673
-0.597669
0.115020
-0.094952
0.162266
-0.829413
0.082466
-0.481790
0.200072
-0.322924
0.282139
-0.237097
-0.013194
-0.737985
0.096417
-0.483077
0.055208
-0.338126
0.403962
0.113318
0.502843
0.171764
0.383957
0.011892
0.389617
-0.491028
0.193435
-0.699273
0.212512
-0.500961
0.603879
-0.250283
0.390143
-0.038433
0.278469
-0.665413
-0.062302
-0.702734
-0.080875
-0.687359
-0.043544
-0.613717
0.129380
-0.585874
0.154878
-0.208519
0.111989
-0.176283
0.716526
-0.292290
0.509379
-0.045011
0.525022
-0.625426
0.205242
-0.209567
0.430829
-0.398952
0.208840
-0.643140
0.220563
-0.083007
0.260236
-0.486360
0.294505
-0.311490
0.549930
-0.190050
0.559351
-0.666180
0.330758
-0.787563
0.240022
-0.325355
0.418172
-0.554916
0.406188
0.005286
0.025931
-0.276049
0.496074
-0.449224
0.377080
-0.322388
0.380127
-0.582329
0.531955
-0.110956
0.281280
-0.041483
0.056552
-0.464000
0.163601
-0.246336
0.377051
-0.317393
-0.001272
-0.258417
0.390587
-0.573475
0.086554
-0.332325
0.418471
-0.533312
0.406787
-0.416443
0.215760
-0.168089
0.432739
-0.264487
0.444106
-0.228812
0.121187
-0.551200
0.393838
-0.003516
0.383155
-0.504794
0.284796
-0.423950
0.559091
-0.065989
0.577080
-0.103915
0.444844
-0.163019
0.160932
-0.646561
0.585075
-0.697555
0.084222
-0.125365
0.525208
-0.574063
0.562721
-0.238188
0.097420
-0.029500
0.670927
-0.361907
0.473607
-0.199739
0.375618
-0.594793
0.050939
-0.069456
0.598310
-0.434881
0.564603
-0.188557
0.159040
-0.436734
0.246962
-0.043756
0.537554
-0.685053
0.214529
-0.700097
0.627854
-0.090699
0.687244
-0.042755
0.205898
-0.520651
0.599667
-0.069381
0.059130
-0.697087
0.098881
-0.030057
0.358993
-0.572494
0.229775
-0.034618
0.467136
-0.284251
0.089394
-0.361214
0.008697
-0.661886
0.560545
-0.195420
0.358607
-0.175328
0.128286
-0.340436
0.011027
-0.468462
0.198993
-0.084508
0.449841
-0.247375
0.077508
-0.678962
0.063765
-0.659261
0.061552
-0.122895
0.656352
-0.160143
0.152925
-0.314017
0.032959
-0.375224
0.348033
-0.440332
0.751733
-0.316690
0.293085
-0.620484
0.384291
-0.006862
0.204926
-0.158049
0.060040
-0.449915
0.279002
-0.326563
-0.016085
-0.671107
0.241721
-0.538121
0.182652
-0.298473
0.541077
-0.246578
0.257772
-0.601954
0.372476
-0.206879
0.057559
-0.528557
0.525771
-0.041559
0.341282
-0.075871
0.673719
-0.111443
0.751323
0.131349
0.324715
-0.195467
0.261939
-0.157916
0.525443
-0.288920
0.539007
-0.304744
0.346622
-0.027114
0.147470
-0.631843
0.569632
-0.325415
0.231776
-0.401121
0.584120
-0.487136
0.288930
-0.279931
-0.101813
-0.390780
0.149692
-0.442244
0.508408
-0.131088
0.147493
-0.118290
0.546923
-0.527465
0.541567
-0.467804
0.338312
-0.529902
0.034658
-0.337329
0.549656
-0.195027
0.318345
-0.389561
0.160898
-0.465632
0.321920
-0.019716
0.108882
-0.555108
0.398038
-0.735004
0.251831
0.014625
0.335409
-0.195687
0.594195
-0.038477
0.411181
-0.023376
0.528027
-0.407409
0.448795
-0.096166
0.262216
-0.290332
-0.052631
-0.751018
-0.162519
-0.437278
0.548353
-0.106269
0.482879
-0.186752
0.498063
-0.641694
0.674043
-0.140286
0.662525
-0.116156
0.644866
-0.277079
0.261227
0.043436
0.777341
0.094261
0.943171
-0.003582
0.497016
-0.365446
0.225624
-0.157361
0.433557
-0.229180
0.510352
-0.813449
0.228641
-0.214275
0.180640
-0.691814
0.394917
-0.060798
0.094053
-0.168729
0.277872
-0.570569
0.129360
-0.230686
0.088897
0.183783
0.512608
-0.299661
0.893952
0.107900
0.681991
0.118584
0.576160
-0.208890
0.537700
-0.051398
0.460379
-0.071494
0.635798
-1.021184
0.019195
-0.679119
0.421935
-0.346744
0.506941
-0.641972
0.332533
-0.163795
0.074601
-0.359447
0.435757
-0.211633
0.371509
-0.355968
0.518522
-0.141103
0.594264
0.034454
0.549632
-0.073554
0.347939
-0.481468
0.644922
-0.103489
0.171152
-0.315766
0.358730
-0.782697
0.277855
-0.298344
0.458423
-0.432731
0.578809
-0.226029
0.070408
-0.361021
0.211684
-0.404807
0.544500
-0.272185
0.074993
-0.435997
0.185010
-0.754733
-0.626251
-0.714555
0.040388
-0.523267
0.042805
-0.449006
0.319999
-0.366996
0.346247
-0.065573
0.600612
-0.439987
-0.014453
-0.084951
0.109520
-0.110865
0.141196
-0.608776
0.536010
-0.009439
0.135101
-0.765435
0.064451
-0.671657
-0.048634
-0.800787
-0.241477
-1.288445
-0.478044
-0.823856
0.385701
-0.347570
0.136923
-0.354971
0.719669
-0.157940
0.851206
0.042141
0.395664
-0.142652
0.648670
-0.058687
0.416870
-0.090193
0.077966
-0.548932
0.199591
-0.228338
0.408387
-0.415575
-0.374645
-1.150060
0.001501
-1.162487
-0.520455
-1.305463
-0.786233
-0.836568
1.184165
0.024081
-0.207014
-0.136720
0.217564
-0.166710
0.716102
-0.434277
0.236579
-0.444911
0.118155
-0.036588
0.294552
-0.157428
0.108111
-0.001006
0.251333
-0.184442
0.432025
-0.929762
-0.360121
-0.892877
0.028386
-0.913924
-0.275136
-1.013324
0.308390
0.096498
1.156263
-0.184566
0.033785
-0.549034
0.391884
-0.409967
0.156604
-0.309367
-0.006696
-0.808733
-0.070791
-0.186788
0.589973
-0.394779
0.210010
-0.142529
0.562306
-0.324632
-0.010885
-0.573306
-0.103830
-1.052772
0.263129
-0.421683
0.046327
-0.368773
0.451782
0.336411
0.578103
-0.028403
0.046031
-0.138235
0.109263
-0.692100
0.448394
-0.678249
-0.053842
-1.173976
0.345515
-0.185933
0.372506
-0.151989
0.301553
-0.197272
0.555757
-0.518125
0.264872
-0.641449
-0.219498
-0.765635
0.171417
-0.780677
0.362439
-0.394881
0.419632
0.606042
0.566923
-0.061334
0.522171
-0.254006
0.181670
-0.211189
-0.078774
-0.847986
0.088147
-0.556778
0.003042
-0.342496
0.099521
-0.168926
0.474050
-0.395444
0.325731
-0.056417
0.616902
-0.179320
0.408108
-0.451029
0.390823
-0.018671
0.059439
-0.332150
0.883586
-0.130684
0.454107
0.202437
0.782661
-0.132466
0.139861
-0.572054
0.045673
-0.358694
0.137918
-0.785237
0.484585
-0.310532
0.679219
-0.051762
0.040316
-0.659421
0.230065
-0.455189
0.445754
-0.462203
0.463906
-0.345601
0.038234
-0.473773
0.359457
-0.544937
0.773578
-0.118763
0.724743
0.050932
0.605692
-0.461626
0.372644
-0.308128
-0.193704
-0.560080
0.371727
-0.484553
0.398614
-0.203798
0.261413
-0.112327
0.059718
-0.111500
0.167817
-0.031274
0.167823
-0.262838
0.510144
-0.450582
0.197567
-0.707473
0.433737
-0.176450
0.512220
-0.006904
0.680394
0.319968
0.468241
-0.349016
0.452994
-0.507373
0.303108
-0.605413
0.497501
-0.503944
0.845887
-0.376526
0.302602
-0.157464
0.200252
-0.500417
0.285914
-0.180469
0.751468
-0.343644
0.257430
-0.599030
0.113886
-0.436925
0.140774
-0.566022
-0.015835
-0.221669
0.148471
-0.247594
0.291768
-0.046296
0.376174
-0.421237
0.204320
-0.379886
0.234744
0.097219
0.867083
-0.068358
0.707418
-0.513818
0.037914
-0.263458
0.695469
-0.107603
0.310105
-0.056080
0.603202
-0.477358
0.056516
-0.375847
0.279546
-0.574106
0.029970
-0.582539
0.360606
-0.712472
-0.088544
-0.701366
0.066006
-0.266257
0.167431
-0.561835
0.783405
-0.271836
0.422107
0.018858
0.697337
-0.081678
0.277832
-0.660796
0.607422
-0.226042
0.401609
-0.384173
0.787070
-0.041355
0.247625
-0.337537
0.120234
-0.485560
0.097561
-0.554599
-0.074314
-0.701019
0.263076
-0.460527
-0.093386
-0.691448
0.171285
-0.152660
0.348061
-0.336386
0.282513
-0.612300
0.480064
-0.281286
0.065987
-0.463793
0.366340
-0.308679
0.503744
-0.122065
0.918534
-0.316408
0.328406
-0.389929
0.202799
-0.440366
-0.113217
-0.759780
0.215128
-0.925800
-0.265384
-0.281777
0.245607
-0.567192
0.358285
-0.199793
0.630217
0.040918
0.550010
-0.602745
0.647227
-0.601553
0.611523
-0.424066
0.183554
-0.664741
0.224539
-0.500682
0.468780
-0.323239
0.383545
-0.152800
0.489960
-0.400485
-0.024380
-0.219140
0.416024
-0.332774
0.595212
-0.243402
0.339075
-0.535523
0.460837
-0.434081
0.514446
-0.243591
0.043854
-0.290339
0.313902
-0.493877
0.235619
-0.257657
0.394917
-0.151133
0.683614
-0.568836
0.178376
-0.066945
0.522448
-0.402153
0.093975
-0.461382
0.149624
-0.609899
0.080558
-0.074622
0.132947
-0.503347
0.454276
-0.587635
0.277659
-0.574372
0.524891
-0.110112
0.373963
-0.295734
0.345698
-0.376987
0.607545
-0.658227
0.170874
-0.148050
0.213522
-0.564818
0.302988
-0.181824
0.487674
-0.389246
0.388661
-0.095278
0.277091
-0.420042
0.040026
-0.117822
0.481397
0.055333
0.434183
-0.349648
0.088539
-0.674374
0.335409
-0.338880
0.605817
-0.165051
0.412969
-0.269243
0.468056
-0.058644
0.646230
-0.375654
0.016692
-0.118259
0.519636
-0.227930
0.709864
-0.074079
0.473100
-0.374426
0.570244
-0.044318
0.683767
-0.632846
0.589602
-0.539951
0.236836
-0.194581
0.713306
-0.468400
0.666247
-0.025078
0.471841
-0.312155
0.353478
-0.376896
0.477313
-0.066435
0.646139
-0.245369
0.125075
-0.592383
0.620897
-0.141857
0.009990
-0.435592
0.382917
-0.690073
0.551370
-0.104249
0.428088
-0.372454
0.204616
-0.315321
0.358657
-0.049074
0.213536
-0.531272
0.286871
-0.202433
0.312350
-0.251136
0.228740
-0.084133
0.582217
-0.461029
0.340604
-0.648653
0.407167
-0.585973
0.073732
-0.299536
0.506942
-0.215682
0.309000
-0.246675
0.589574
-0.303627
0.095477
-0.695450
0.022652
-0.468303
0.198064
-0.339881
0.126086
-0.247346
0.554515
-0.656629
0.534364
-0.056953
0.268979
-0.085500
0.285692
-0.353112
0.648791
-0.167910
0.114141
-0.289394
0.116554
-0.521950
0.171100
-0.190179
0.121148
-0.681491
0.397765
-0.431434
0.238872
-0.277973
0.032546
-0.325637
0.290712
-0.055121
0.092225
-0.489964
0.394201
-0.218815
0.037222
-0.248744
0.175481
-0.571586
0.305697
-0.444460
0.657086
-0.591421
0.097563
-0.605876
0.059300
-0.215902
0.182140
-0.192449
0.019928
-0.398262
0.342075
-0.170941
0.316726
-0.099235
0.538544
-0.616242
0.338368
-0.627206
0.199274
-0.672403
0.664461
-0.298960
0.449446
-0.364103
0.518016
-0.487407
0.612727
-0.693496
0.359329
-0.218176
0.437412
-0.316341
0.112819
-0.541319
0.205141
-0.206964
0.022240
-0.400369
0.404115
0.025997
0.207815
0.014974
0.117171
-0.473889
0.142531
-0.102766
0.344638
-0.468780
0.026948
-0.525539
0.406477
-0.002871
0.126551
-0.162253
0.366987
-0.646324
0.652869
-0.277186
0.644454
-0.318525
0.491281
-0.393406
0.577909
-0.676583
0.206704
-0.080159
0.175918
-0.063502
0.803991
-0.138024
0.511681
-0.539277
0.524641
-0.471097
0.472404
-0.414287
0.712878
-0.044721
0.287140
-0.013701
0.548134
-0.680240
0.029048
-0.672836
0.142680
-0.396172
0.613476
-0.124268
0.581286
-0.665125
0.270150
-0.463433
0.270467
-0.262295
0.361682
-0.438819
0.311163
-0.625474
-0.245819
-0.594702
-0.101208
-0.486407
0.278928
-0.548086
0.151861
-0.716077
0.441068
-0.174941
0.708695
-0.695839
0.245265
-0.540455
0.679117
-0.264233
0.525599
-0.071639
0.601166
-0.524185
0.335918
-0.374705
0.480242
-0.321574
0.687854
-0.144434
0.458054
0.083214
0.391368
-0.062756
0.367612
-0.326274
0.407221
0.046400
0.563271
-0.549632
0.807637
-0.054434
0.666706
-0.373357
0.386913
-0.609812
0.386615
-0.589167
0.536253
-0.200642
0.221632
-0.235940
0.665745
0.059271
0.844079
-0.391699
0.518412
0.037114
0.788258
-0.246460
0.246748
-0.036913
0.502995
-0.373080
0.503903
-0.252284
0.684151
-0.276904
0.832848
-0.468495
0.503902
-0.496979
0.096794
-0.363938
0.200379
-0.426928
0.408280
-0.416294
0.494297
-0.034736
0.376993
-0.520067
0.289977
0.087507
0.331956
-0.013952
0.267031
-0.123412
0.558231
-0.426184
0.268025
0.221640
0.414479
0.363212
0.611221
0.032178
0.863112
-0.209551
0.111673
-0.347795
0.320753
-0.520014
0.153709
-0.368690
0.231063
-0.216109
0.317897
-0.347633
0.395394
-0.527919
0.326570
-0.393633
0.403046
-0.051049
0.748978
-0.541580
0.237417
-0.119455
0.428013
-0.184235
0.681550
0.177662
0.596119
-0.169661
0.569234
0.211014
0.145085
-0.691877
0.408847
-0.150843
0.354559
0.025189
0.749819
-0.341161
0.602635
0.115658
0.351470
-0.539321
0.513563
-0.266301
0.472293
-0.118570
0.669437
-0.073568
0.413310
-0.318527
0.409336
-0.223371
0.609719
-0.082399
0.866268
0.157194
0.890583
0.048560
0.708979
-0.070995
0.174094
-0.025456
0.083215
-0.511849
0.325457
-0.184722
0.862059
0.270420
0.492889
-0.023631
0.589082
0.017503
0.615695
0.569383
1.177351
0.449889
0.506595
0.123688
0.510461
-0.512475
0.319027
0.283424
0.282996
-0.301697
0.660027
-0.459417
0.562413
-0.351254
0.101682
-0.467330
0.441414
-0.184919
0.696136
-0.170697
0.505741
-0.235119
0.390326
0.363056
0.708491
0.131117
0.869343
0.422128
1.295152
0.555099
0.212173
0.185018
0.296378
0.216673
0.633839
-0.254900
0.544929
-0.295329
0.608967
-0.594418
0.636862
-0.449255
0.573114
-0.449582
0.116816
-0.587720
0.436019
-0.342167
0.310288
0.045002
0.275778
-0.085862
0.343381
-0.100986
0.802969
0.471549
1.006168
0.399459
1.077365
0.058394
0.519913
-0.310857
0.695153
-0.096343
0.441664
-0.947763
0.088977
-0.447572
0.187520
-0.253525
0.368603
-0.114118
0.003884
-0.193876
0.665703
-0.118568
-0.047653
-0.522025
0.059501
-0.779869
-0.063017
-0.347066
0.253325
0.291895
0.711939
0.053314
0.611809
0.015654
0.273886
-0.063812
0.121539
-0.221763
-0.124811
-0.740284
0.549478
-0.670857
0.464710
-0.264501
0.365642
-0.667239
0.513643
-0.002069
0.102510
-0.700153
-0.136150
-1.359946
-0.306761
-1.306768
-0.417827
-1.018535
0.097375
-0.008841
0.416285
-0.020966
0.268949
-0.188539
0.460399
-0.310322
0.231529
-0.249195
0.589662
-0.199249
0.092853
-0.703926
0.573230
-0.190235
0.550188
-0.375440
0.472289
-0.159783
0.379504
-0.479459
-0.241210
-0.905674
-0.511853
-1.171110
-0.220229
-0.709972
-0.141290
-0.707696
0.402722
-0.534111
0.215653
-0.332271
-0.039513
-0.168090
0.366406
-0.513266
0.474920
-0.479237
0.396471
-0.584838
0.409054
-0.025071
0.350285
-0.340485
0.240454
-0.115165
0.046542
-0.839554
0.187016
-0.397610
0.079874
-0.851054
-0.405170
-0.928184
-0.018083
-0.868470
0.035143
-0.278819
-0.131120
-0.545814
0.293472
-0.135409
0.255265
-0.162134
0.078681
-0.782294
0.068463
-0.817063
0.300962
-0.138464
0.341705
-0.067509
0.207367
-0.521381
0.447078
-0.459855
0.267099
-0.364095
0.318432
-0.542055
-0.075624
-1.035881
-0.219915
-0.619038
-0.028821
-0.541786
0.210199
-0.739961
0.264552
-0.100161
0.271436
-0.488804
-0.046782
-0.870853
-0.289270
-0.393531
0.388457
-0.372477
0.138940
-0.014430
0.562513
-0.345776
0.125514
-0.596052
0.453009
-0.521609
0.223635
-0.509580
0.014353
-0.715005
-0.207497
-0.785913
0.187526
-0.652624
0.234360
-0.070481
-0.011144
-0.371234
0.203996
-0.681063
0.245804
-0.710773
-0.087332
-0.188114
0.596566
-0.426864
0.241313
-0.294732
0.121280
-0.347469
0.305762
-0.561034
0.174109
-0.276624
0.501349
-0.614395
-0.095556
-0.889352
0.088955
-0.649331
-0.068944
-0.611126
-0.210075
-0.247527
-0.051015
-0.641021
0.180804
-0.588662
-0.230946
-0.916770
-0.137855
-0.219660
0.533488
-0.562581
0.149775
-0.459072
0.279054
-0.415527
0.066435
-0.316302
0.292618
-0.257296
0.224047
-0.439461
-0.109179
-0.442709
0.020794
-0.456668
0.110873
-0.293836
-0.239788
-0.877934
0.160205
-0.270462
-0.019773
-0.317722
0.090912
-0.995569
0.154874
-0.197995
0.182351
-0.544417
0.283640
-0.043755
0.387757
-0.466879
0.461212
-0.626436
0.276362
-0.467569
0.256849
-0.463323
0.170760
-0.760235
0.339879
-0.346562
0.311842
-0.467328
0.530100
-0.629419
0.314638
-0.940918
0.263537
-0.786954
-0.316752
-0.346642
0.355612
-0.680396
0.572527
-0.115534
0.091587
-0.067623
0.651378
-0.385677
0.168181
-0.287800
0.231358
-0.501949
0.320418
-0.476126
0.141939
-0.292063
0.377383
0.335253
0.583297
0.214879
0.590208
0.041451
0.005982
-0.445329
-0.052381
-0.799439
0.198473
-0.759876
0.392268
-0.423897
0.015707
-0.216339
0.340907
-0.595043
0.337394
-0.404541
0.722745
-0.186035
0.343033
0.197478
0.920838
0.054431
1.052829
0.079013
0.953496
0.269989
1.027469
0.209415
0.808461
-0.031082
0.613394
0.035447
0.716260
-0.259987
0.600870
-0.644500
0.352168
-0.209223
0.625858
-0.099489
0.596798
-0.649482
0.315651
-0.224837
0.557472
-0.595914
0.761003
-0.337501
0.522699
0.297876
0.966855
0.259875
0.770979
-0.011105
0.998060
0.308695
0.698020
0.329658
0.702756
0.183993
0.836574
-0.340145
0.459288
-0.448365
0.244582
-0.207028
0.436970
-0.593670
0.402335
-0.368603
0.693159
-0.299110
0.318447
-0.307428
0.560426
-0.120255
0.309658
-0.441318
0.755105
-0.377466
0.688338
-0.393528
0.859838
-0.044504
0.558276
-0.331439
0.423448
0.065884
0.059670
-0.393711
0.250920
-0.584787
0.303097
-0.560955
0.364155
-0.535709
0.065472
-0.104098
0.429379
-0.467806
0.472701
-0.422398
0.067401
-0.089287
0.033288
-0.602054
0.256195
-0.278560
0.424508
-0.204263
0.106327
-0.277454
0.097743
-0.053730
0.494921
-0.488544
0.588769
-0.696855
0.571347
-0.595416
0.444165
-0.067149
0.489966
-0.046492
0.154120
-0.582201
0.693576
-0.258218
0.311580
-0.461382
0.030918
-0.034119
0.528320
-0.121704
0.065646
-0.432096
0.375999
-0.351913
0.142901
-0.598293
0.438418
-0.438686
0.672519
-0.517692
0.213773
-0.467644
0.412099
-0.212135
0.324237
-0.311119
0.656300
-0.391386
0.101085
-0.002793
0.319490
-0.255205
0.584994
-0.313065
0.519465
-0.187045
0.089995
-0.537765
0.233140
-0.601926
0.671050
-0.288699
0.335887
-0.339925
0.654017
-0.472322
0.242565
-0.383533
0.224347
-0.209580
0.206825
-0.430221
0.679599
-0.618428
0.642365
-0.303835
0.229547
-0.598665
0.695221
-0.331508
0.601158
-0.314202
0.595907
-0.463248
0.663033
-0.351146
0.747271
0.053214
0.342927
-0.094422
0.729778
-0.094719
0.593212
-0.196033
0.583931
-0.405368
0.076239
-0.044605
0.197479
-0.201366
0.321180
-0.355247
0.664317
-0.281778
0.273673
-0.606682
0.585613
-0.505257
0.505330
-0.575773
0.148706
-0.373148
0.263588
0.161333
0.330200
-0.019366
0.466730
-0.058975
0.346719
-0.339309
0.626333
0.079834
0.341125
0.019571
0.481791
0.193969
0.830242
-0.178618
0.175326
-0.121939
0.517116
-0.415389
0.464499
-0.486428
0.697138
-0.039654
0.385275
-0.590127
0.525003
-0.200491
0.504589
-0.546421
0.637799
-0.839233
0.482393
-0.250979
0.103153
-0.294254
0.349249
-0.299373
0.386148
-0.392012
0.562251
-0.256914
0.314621
-0.457402
0.486271
-0.187300
0.087671
-0.684760
0.234456
-0.619103
0.400300
-0.713979
0.367155
-0.459672
-0.059421
-0.194795
0.250667
-0.583891
0.009199
-0.473341
0.262735
-0.326205
0.140038
-0.498157
0.007839
-0.401393
0.123423
-0.392786
0.513942
-0.426572
0.554129
-0.677156
0.291768
-0.100768
0.324348
-0.359133
0.130550
-0.437992
0.342548
-0.398610
0.278231
-0.188874
0.189289
-0.159383
0.289277
-0.525361
-0.144606
-0.307068
-0.055551
-0.739567
0.049268
-0.264765
0.177185
-0.372980
0.410262
-0.321907
0.150240
-0.389583
-0.218448
-0.845922
-0.184276
-0.861792
0.210058
-0.675980
0.683059
-0.621092
0.326638
-0.163278
0.234471
-0.883265
0.330583
-0.096275
0.008834
-0.176840
-0.068144
-0.639543
0.127755
-0.552556
0.227721
-0.374085
0.342611
-0.771724
0.215069
-0.795168
0.332347
-0.611037
-0.182253
-0.543340
0.045433
-0.641206
0.466099
-0.678291
0.334942
-0.097148
0.620106
-0.373062
-0.081142
-0.388904
0.375297
-0.412145
0.262942
-0.107838
0.276559
-0.314254
0.341101
-0.248262
-0.077979
-0.297864
-0.266611
-0.649926
0.155579
-0.205108
0.115313
-0.822780
0.280842
-0.848106
-0.382038
-0.518579
0.249097
-0.616184
0.543996
-0.159931
0.558751
-0.201713
0.222133
-0.514297
0.530271
-0.225070
0.124392
-0.188827
0.554908
-0.223888
0.827110
-0.041701
0.663755
-0.137257
-0.126386
-0.881899
0.047982
-0.435308
0.114264
-0.895025
-0.290292
-0.687961
-0.210448
-0.539880
0.219237
-0.617678
0.290074
-0.679708
0.488027
-0.171017
0.098917
-0.345228
0.401746
-0.306213
0.311533
-0.067566
0.714746
-0.127176
0.437381
-0.494254
0.571705
-0.141173
-0.047263
-0.822270
-0.092624
-0.656639
0.073377
-0.521000
0.426601
-0.312133
-0.027046
-0.931574
0.044854
-0.173259
0.071552
-0.467735
0.058019
-0.384882
0.464296
-0.452769
0.658046
-0.376432
0.426684
-0.005515
0.299215
-0.374928
0.136963
-0.444075
0.627287
-0.365890
0.208907
-0.603135
0.574824
-0.371560
0.460840
0.330719
0.549477
-0.460221
0.537150
-0.128777
0.636666
-0.252797
0.699783
-0.114197
0.412862
-0.074963
0.620471
-0.401957
0.545106
-0.214800
0.338297
-0.202531
-0.105012
-0.924699
0.037735
-0.667799
0.432265
-0.165474
0.319834
-0.073499
0.553442
-0.090655
0.433174
0.347140
0.652896
0.025286
0.605777
-0.306971
0.247614
-0.352776
0.349458
-0.244393
0.601897
-0.339741
0.389853
-0.312501
0.382416
-0.307167
-0.051454
-0.293110
0.087221
-0.935188
-0.013302
-0.116579
0.545730
0.429222
0.789301
-0.523917
0.556044
0.016187
0.442766
0.201445
0.763518
0.103199
0.784218
-0.445826
0.561906
-0.434710
0.098144
-0.119844
0.086496
-0.432512
0.353455
-0.742364
0.136303
-0.161565
0.003976
-0.857418
-0.276558
-0.705263
0.290759
-0.044074
0.570254
0.155025
0.492406
-0.376296
0.196230
-0.452124
0.360440
-0.103329
0.421640
-0.357066
0.615322
-0.570524
0.066834
-0.513364
0.386070
-0.622881
0.241623
-0.467299
0.024479
-0.355539
0.352023
-0.387998
0.145299
-0.725526
0.064372
-0.697469
0.314823
-0.160268
1.149407
0.448734
0.467190
-0.379016
0.315126
-0.682132
0.002496
-0.228836
0.567314
-0.572434
0.405384
-0.104145
0.487052
-0.257323
0.044366
-0.558253
0.050513
-0.441192
0.427463
-0.354614
0.295057
-0.382538
0.696218
-0.379241
0.395920
0.372806
0.659370
0.170722
1.160811
0.265080
0.606515
-0.743121
-0.055259
-0.269206
0.080639
-0.454718
0.315519
-0.650324
0.239458
-0.322473
0.593224
-0.667812
0.496254
-0.407367
0.197586
-0.585777
0.128987
-0.505091
0.074093
-0.009106
0.816372
0.214797
1.562518
0.676909
1.233155
1.023294
1.079842
-0.065078
0.218634
-0.956841
-0.024872
-0.816907
0.012009
-0.532845
0.425896
-0.688581
0.282851
-0.416497
0.560685
-0.556116
0.098943
-0.490482
0.495719
-0.682798
-0.009850
-0.439085
-0.134039
-0.628351
0.488478
0.814670
1.650420
1.028113
1.582120
0.557450
0.567339
-0.127510
-0.098632
-0.612738
0.003103
-0.552715
0.430238
-0.393039
0.093413
-0.166880
0.374873
-0.256327
0.075161
-0.638055
0.031197
-0.657124
0.470328
-0.254214
0.182110
-0.745433
-0.549539
-0.910626
0.165452
-0.235184
0.769695
-0.101263
0.839341
0.074456
0.209378
-0.523544
0.154598
-0.446622
0.192738
-0.297556
0.508226
-0.703574
0.524109
-0.392328
0.146858
-0.187623
0.639556
-0.444277
0.522821
-0.014425
0.362712
-0.651738
0.429869
-0.446442
0.409220
-0.521308
0.157235
-0.292493
0.231440
-0.175818
0.464878
-0.160902
0.092572
-0.309731
0.098415
-0.431689
0.358248
-0.086136
0.073993
-0.034027
0.386844
-0.469219
0.101279
-0.221436
0.374337
-0.108529
0.481172
-0.307777
0.534593
-0.346630
0.185296
-0.420697
0.040760
-0.298239
0.276506
-0.164307
0.106419
-0.178750
0.154868
-0.337093
0.320192
-0.661075
0.416407
-0.461137
0.288006
-0.501944
0.327460
-0.459757
0.225184
-0.163011
0.118488
-0.379774
0.176438
-0.055118
0.655338
-0.549656
0.148042
-0.472367
0.066712
-0.076603
-0.006635
-0.407806
0.304829
-0.180834
0.192182
-0.143778
0.044285
-0.431695
0.031000
-0.553222
0.279285
-0.584321
0.576733
-0.053192
0.704076
-0.270940
0.278890
-0.019629
0.566656
-0.241624
0.382394
-0.574255
0.661785
-0.559215
0.628618
-0.652940
0.313085
-0.195756
0.281025
-0.577356
0.224356
-0.382153
0.236566
-0.609896
0.302303
-0.638174
0.105406
-0.469243
0.386949
-0.520304
0.139335
-0.111308
0.782048
-0.236955
0.535709
-0.365662
0.319171
-0.588650
0.510200
-0.141155
0.147718
-0.191935
0.015245
-0.136977
0.001207
-0.696250
-0.004538
-0.490724
0.025164
-0.466742
0.172308
-0.228015
0.117154
-0.670145
0.341817
-0.780466
0.326759
-0.200859
0.263986
-0.108361
0.267920
-0.091756
0.486237
0.013058
0.667163
-0.138887
0.427283
-0.274679
0.033413
-0.237147
0.415815
-0.181374
0.430059
-0.428252
0.312955
-0.467033
0.369628
-0.392074
0.112559
-0.563181
0.586226
-0.733660
0.371478
-0.187812
0.514056
-0.314137
0.128707
-0.142364
0.696792
-0.158403
0.427289
-0.024851
0.464577
-0.120137
0.046241
-0.428457
0.260410
-0.473517
0.003136
-0.293827
0.012155
-0.413909
0.487970
-0.424213
0.171972
-0.045789
0.245704
-0.503687
0.414431
-0.417939
0.307719
-0.369661
0.322557
-0.091001
0.482295
-0.142846
0.529634
-0.459500
0.403737
-0.393224
0.030667
-0.088704
0.429182
-0.495108
0.208843
-0.475420
0.223565
-0.469253
0.248926
-0.226741
0.062935
-0.259616
0.647464
-0.537669
0.696510
-0.100281
0.600150
-0.218463
0.633952
-0.283131
0.686611
-0.155591
0.668717
-0.306783
0.265733
-0.417232
0.478145
-0.061272
0.210332
-0.157994
0.459653
-0.240793
0.188836
-0.035901
0.455540
-0.664256
0.259466
-0.224793
0.213193
-0.486168
0.287870
-0.472794
0.431839
-0.125902
0.467308
-0.538303
0.029525
-0.691465
0.449850
-0.315991
0.671020
-0.612006
0.282824
-0.277324
0.178227
-0.001931
0.047930
-0.241013
0.212263
-0.205924
0.000667
-0.453056
0.452621
-0.189502
0.488958
-0.208161
0.149602
-0.054789
0.427705
-0.367857
0.534904
-0.020241
0.131886
-0.272860
0.146304
-0.624663
0.090432
-0.184385
0.594935
-0.557693
0.477233
-0.588194
0.454551
-0.075041
0.151695
-0.634240
0.076992
-0.199625
0.175253
-0.289255
0.405549
-0.175944
0.042132
-0.158207
0.362631
-0.540793
0.360264
-0.497232
0.602766
-0.071592
0.220539
-0.390471
0.096920
-0.394008
0.581485
-0.379894
0.086680
-0.223948
0.322915
-0.236056
0.564667
-0.265383
0.001637
-0.375641
0.310377
-0.167178
0.309136
-0.387369
0.366820
-0.484820
0.676184
-0.072548
0.662290
0.002500
0.303912
-0.186649
0.733538
-0.369306
0.355271
-0.313406
0.622885
-0.461220
-0.003427
-0.427804
0.202651
-0.564861
0.069963
-0.445246
0.012218
-0.214044
0.306809
-0.116642
0.357157
-0.351274
0.493557
-0.671839
0.518505
-0.103985
0.339003
-0.240170
0.531786
-0.349336
0.385937
-0.261988
0.654190
-0.081195
0.490136
-0.079323
0.470965
-0.181028
0.644532
-0.345908
0.389453
-0.507809
0.186549
-0.785251
0.049677
-0.268756
0.061589
-0.405297
0.308502
-0.436682
0.522400
-0.668025
0.087744
-0.323781
0.581071
-0.757422
0.296144
-0.228274
0.311227
-0.020138
0.788938
-0.146499
0.464971
0.013896
0.454451
0.012629
0.635747
-0.271891
0.496213
-0.770320
-0.061281
-0.668426
0.385372
-0.115709
0.413794
-0.021894
0.173364
-0.602929
0.416266
-0.487579
0.335784
-0.262627
0.353731
-0.587537
0.466150
-0.299665
0.488626
-0.041384
0.884287
-0.227736
0.752110
-0.568677
-0.021647
-0.108595
0.004250
-0.466550
-0.005922
-0.248624
-0.211961
-0.311203
0.477202
-0.313162
0.069786
-0.320282
0.204642
-0.705221
0.264503
-0.414785
0.601112
-0.691404
0.132676
-0.333199
0.202988
-0.552864
0.765964
0.079372
0.559537
-0.089464
0.404522
-0.359736
-0.240525
-0.510358
-0.014085
-0.532250
-0.031349
-0.565683
0.211505
-0.637518
0.604823
-0.280730
0.137015
-0.339523
0.522282
-0.418736
0.506200
-0.077385
0.424959
-0.077474
0.471548
-0.294890
0.083341
0.049738
0.569314
-0.157324
0.767574
-0.247506
0.547883
-0.223471
0.050367
-0.655968
0.552732
-0.263043
-0.042953
-0.270543
0.161733
-0.459323
0.237999
-0.318333
0.352099
-0.647443
0.046337
-0.613489
0.102265
-0.611454
0.347782
-0.554121
0.066732
0.065674
0.748552
-0.394435
0.402182
0.004284
0.583808
0.167851
0.687031
-0.235144
0.606792
-0.531259
0.365572
0.231334
0.709818
0.186228
0.357878
0.140880
0.610548
-0.127832
0.613806
-0.386286
0.044105
-0.320518
0.170730
-0.120702
0.253420
-0.229564
0.152401
-0.342098
0.360983
0.164397
0.825658
0.040137
0.735195
0.121521
0.539078
-0.348689
0.146384
-0.370841
0.441168
0.016778
0.553945
0.067119
0.795842
0.237603
0.717347
-0.266684
0.582472
-0.568421
0.176505
-0.423909
0.172128
-0.246100
0.061148
-0.287178
0.464827
-0.033720
0.882980
-0.063467
0.528959
0.093331
0.486904
-0.037183
0.040667
-0.872921
-0.301354
-0.560766
0.163138
-0.539289
0.067090
0.007819
0.983534
0.228937
1.051311
0.337182
0.451596
-0.616838
0.670621
-0.047452
0.516124
-0.151327
0.498009
-0.608003
0.526783
-0.302692
0.625607
0.293876
0.420282
-0.251424
0.195802
-0.665436
-0.333941
-0.976576
-0.460027
-0.985454
0.189680
-0.779223
-0.136063
0.163938
0.946822
0.279476
0.771845
0.347061
0.541300
-0.575366
0.124168
-0.610208
0.572168
-0.068451
0.687575
-0.336940
0.338193
-0.238276
0.666288
-0.225466
0.559682
-0.143785
-0.319477
-0.679376
-0.293875
-1.048147
-0.123524
-0.899705
-0.222444
-0.788665
0.237514
-0.125881
0.540870
-0.364799
0.552981
0.196583
0.578840
-0.397173
0.118304
-0.082175
0.334964
-0.203445
0.711077
-0.178436
0.373523
-0.388198
0.982999
-0.037757
0.634912
-0.422888
0.157691
-0.896207
-0.209573
-0.691222
-0.027360
-0.493802
0.447517
-0.413766
0.505933
-0.399467
0.444548
-0.268446
0.095142
-0.131786
0.184747
-0.213732
0.420203
-0.467149
0.672401
-0.496417
0.549796
-0.288516
0.756618
-0.243538
1.025828
0.318084
0.856440
-0.123540
0.089764
-0.542041
0.336292
-0.839846
-0.152534
-0.171184
0.409499
-0.123544
0.259385
-0.537090
-0.093362
-0.846635
0.278855
-0.048821
0.646055
-0.415508
0.549558
-0.534905
0.038828
-0.214725
0.283319
-0.031345
-0.002409
0.131532
0.851254
0.542196
0.585235
0.456769
0.634711
-0.423597
0.525428
-0.603991
0.454306
-0.332742
0.423510
0.148301
0.002157
-0.667815
-0.093496
-0.584663
0.146453
-0.508809
0.767070
-0.035948
0.168582
-0.358574
0.687655
-0.614657
0.179702
-0.092155
0.072352
-0.344568
0.335389
0.307775
1.226199
0.521475
0.883551
0.190952
0.983676
-0.083353
0.694010
0.034991
0.311580
-0.275696
0.112448
-0.532706
0.173877
-0.640727
-0.133887
-0.069734
0.644964
-0.253890
0.184081
-0.241572
0.655422
-0.208726
0.580965
-0.806731
-0.030720
-0.109519
0.619643
-0.116067
1.083552
0.694707
1.154910
0.128988
1.058187
0.133462
0.902508
0.010143
0.196821
-0.337170
0.357805
-0.546690
-0.179695
-0.942854
0.537493
0.223502
0.496643
-0.400332
0.269599
-0.543666
0.345601
-0.331183
0.062360
-0.451121
0.291588
-0.173089
-0.048484
-0.739220
0.208503
-0.097580
0.428860
0.142451
0.590988
-0.178133
0.890048
-0.332233
0.385104
-0.623007
-0.128418
-0.732311
0.067114
-0.617958
0.356997
-0.152552
0.727505
0.111437
0.525733
-0.622648
0.613519
-0.003188
0.455239
-0.354212
0.167913
-0.693220
0.341489
-0.360034
0.344857
-0.392009
0.005134
-0.087236
0.551271
-0.257803
0.240386
-0.169089
0.185139
-0.262636
0.156481
-0.608247
0.516668
-0.340004
0.845174
0.111997
0.480109
-0.592253
0.047584
-0.007108
0.007256
-0.523316
0.609612
-0.692661
0.331316
-0.456754
0.060420
-0.401383
0.060000
-0.146711
0.189973
-0.190722
0.025315
-0.458726
0.277354
-0.333115
-0.069509
-0.499271
0.110276
-0.445035
0.297933
-0.451374
0.528771
-0.136888
0.577302
0.008629
0.670901
-0.680229
0.693359
-0.012945
0.671327
-0.085615
0.356012
-0.704585
0.586676
-0.516104
0.194416
-0.203185
0.355187
-0.481554
0.283873
0.177437
0.383919
-0.220827
0.366730
-0.501437
-0.138777
-0.230477
0.606147
-0.104704
0.549899
-0.160919
0.371174
-0.577797
0.680582
-0.032155
0.605209
-0.650933
-0.006851
-0.686102
0.444883
-0.946337
0.401289
-0.692553
0.444673
-0.658532
0.017322
-0.341857
0.508403
-0.582209
0.246621
-0.249234
-0.131885
-0.466519
0.205608
-0.095741
0.633025
-0.229054
0.221754
-0.396942
0.705073
-0.478255
0.046699
-0.299156
0.369921
-0.029503
0.311556
-0.337782
0.579916
-0.480159
0.009715
-0.892127
0.092552
-0.415611
0.097277
-0.440802
0.400551
-0.709277
0.365513
-0.603108
0.523841
-0.680082
0.676368
0.076248
0.323166
-0.192764
0.128984
-0.110739
0.603372
-0.218029
0.580508
-0.598440
0.696375
-0.629972
0.196182
-0.377237
0.636808
-0.549855
0.617468
-0.670305
0.051402
-0.350913
0.274038
-0.631401
0.169563
-0.248167
0.182285
0.031507
0.368209
-0.415399
0.706540
-0.070961
0.601156
-0.454712
0.159411
-0.142016
0.004158
-0.258722
0.268646
-0.607470
0.474815
-0.149443
0.505910
-0.471061
0.076600
-0.016653
0.103326
-0.079510
0.483517
-0.171202
0.605812
0.024899
0.260142
-0.428079
0.684910
-0.252027
0.286723
-0.508391
0.522560
-0.395547
0.498091
-0.355128
0.554604
-0.379954
0.142268
-0.003849
0.526075
-0.145844
0.262412
-0.094716
0.053314
-0.037226
0.244159
-0.559443
0.508122
-0.323689
0.562869
-0.645520
0.360604
-0.394997
0.032649
-0.327476
0.413885
-0.206979
0.219077
-0.199586
0.623185
-0.383989
0.122083
-0.362388
0.122969
-0.614255
0.029487
-0.669617
0.294653
-0.171755
0.120728
-0.317599
0.235877
-0.215444
0.370914
-0.273104
0.459603
-0.230137
0.081520
-0.083176
0.092867
-0.027423
0.445965
-0.487807
0.051668
-0.086928
0.188158
-0.271144
0.291166
-0.408809
0.172426
-0.686740
0.528605
-0.538393
0.107592
-0.442861
0.567881
-0.077209
0.037514
-0.039636
0.050675
-0.158242
0.357235
-0.286550
0.375014
-0.026364
0.560694
-0.133449
0.260387
-0.628550
0.216532
-0.350532
0.657785
-0.681405
0.117292
-0.017069
0.057103
-0.315080
0.308530
-0.329948
0.036596
-0.464879
0.326914
-0.564731
0.302800
-0.434506
0.307591
-0.170681
0.511696
-0.345105
0.210371
-0.562318
0.504800
-0.555116
0.169017
-0.175760
0.621502
0.010401
0.318093
-0.114445
0.744646
-0.399035
0.596481
-0.549957
0.562558
-0.560348
0.720741
-0.466460
0.312295
-0.212207
0.189607
-0.307598
0.695595
-0.504988
0.172469
-0.298395
0.239451
-0.479992
0.469193
-0.060138
0.120455
-0.675041
0.628185
-0.613159
0.561534
-0.099725
0.060954
-0.411385
0.241577
-0.218772
0.637683
-0.022483
0.283202
-0.218891
0.852570
0.212341
0.455841
-0.502422
0.615991
-0.624803
0.108110
-0.047512
0.225414
-0.105273
0.552499
-0.398120
0.403573
-0.111070
0.152640
-0.192937
0.144459
-0.356214
0.014268
-0.277533
0.071483
-0.742318
-0.032727
-0.664743
0.180955
-0.371334
-0.018794
-0.198261
0.497143
-0.047407
0.184323
-0.071285
0.281740
-0.432218
0.024200
-0.196717
0.303852
-0.138831
0.244265
-0.530906
0.244410
-0.111957
0.200258
-0.661767
0.169693
-0.510129
-0.181429
-0.771746
-0.307639
-0.537778
0.130895
-0.430842
0.240810
-0.361244
0.773378
0.259796
0.776336
-0.548401
0.388969
-0.234269
0.135758
-0.497321
0.319943
-0.553299
0.078094
-0.389691
0.057551
-0.366972
0.537039
-0.282199
0.258996
0.045987
0.536338
-0.472379
-0.150862
-0.888818
-0.319948
-0.616698
-0.211247
-0.416458
0.358853
-0.467837
0.391509
-0.576561
0.226547
-0.386267
0.578741
-0.577893
-0.106568
-0.587752
0.511774
-0.439049
0.042545
-0.274618
0.290428
-0.062105
0.730218
-0.264342
0.633521
-0.236451
0.826499
0.123167
0.403227
-0.538375
0.334162
-0.723997
-0.096048
-0.884027
-0.153475
-0.353076
0.150595
-0.436745
-0.092004
-0.788911
0.121458
-0.279761
-0.435278
-0.798317
0.296816
-0.219613
0.077442
-0.316435
0.669620
-0.000223
0.734143
-0.048476
0.418343
-0.312840
0.637851
0.055756
0.374524
-0.322955
0.129969
-0.275956
-0.147238
-0.598440
0.097348
-0.131235
0.331965
-0.299018
0.293063
-0.840225
0.215607
-0.583924
-0.328184
-0.767529
0.130066
-0.213564
0.047433
-0.658648
0.461870
0.046368
0.533172
-0.128335
0.427859
-0.164216
0.441655
-0.496201
0.222364
-0.440607
0.592532
-0.376372
0.153146
-0.550967
0.671424
-0.091876
0.328622
-0.119303
0.152948
-0.453564
-0.105522
-0.726729
0.021347
-0.590107
0.530533
-0.047169
0.478141
-0.199082
0.294632
-0.382006
0.366968
-0.481913
0.685316
-0.461431
0.179636
-0.269887
0.089862
-0.269912
0.627276
0.059423
0.272208
-0.678099
0.496130
-0.306111
0.511932
-0.355440
0.252916
0.021086
0.711746
-0.598178
-0.063911
-0.528010
0.158777
-0.020700
0.384003
-0.167102
0.108652
-0.086414
0.456448
-0.246027
0.741996
-0.575188
0.118233
-0.565461
0.513398
-0.430699
0.278981
-0.512964
-0.223643
-0.672157
0.429424
-0.143363
0.608593
-0.190453
0.538057
0.122259
0.660975
-0.020927
0.329542
-0.396932
0.136928
-0.535463
0.438779
-0.398674
0.595244
-0.079378
0.586504
-0.556504
0.357019
-0.167787
0.270272
-0.116060
0.179381
-0.238485
0.533067
-0.921158
-0.783743
-0.649048
0.552246
0.005429
0.280593
-0.435892
0.161548
-0.133577
1.237893
-0.062716
0.872057
-0.227310
0.256237
-0.296934
0.380218
-0.458899
0.156630
-0.116074
0.152135
-0.552286
0.490192
0.176723
0.744299
-0.414289
0.540665
0.168491
0.082812
-1.460285
-0.438354
-0.314456
0.789551
-0.547656
0.329518
-0.675526
0.192497
-0.231891
1.176859
0.538758
0.410113
-0.431857
0.155062
-0.649231
0.591675
-0.456328
0.255955
-0.276633
0.247329
-0.052381
0.794000
0.110651
0.615985
-0.432412
0.629693
-0.001945
-0.085733
-1.385491
-0.581390
-0.567918
0.205358
-0.400714
0.163224
-0.061513
0.460029
0.266514
1.112737
0.526860
0.820948
-0.173533
0.485637
-0.437143
0.621094
-0.012475
0.388529
-0.494503
0.501804
-0.368659
0.365427
-0.219699
0.488246
-0.332799
0.492134
-0.746080
-0.370405
-1.325594
-0.393049
-0.176046
0.441214
0.049375
0.457491
-0.035441
0.686834
0.364604
0.823448
0.099763
0.415602
-0.512583
0.138517
-0.643518
0.633471
-0.029273
0.375011
-0.580277
0.014337
0.108278
0.587776
0.014329
1.101458
-0.189544
0.494696
-0.619696
-0.704894
-1.042655
0.025304
-0.386741
0.320402
-0.012197
0.591507
0.378797
0.786330
0.257144
0.589738
-0.316489
0.251350
-0.265806
0.503410
-0.456518
0.585660
-0.050582
0.389157
-0.613567
-0.019504
0.001299
0.410049
0.248026
0.767103
0.634176
0.949421
-0.409438
-0.159595
-0.710222
0.495977
0.044124
0.456475
-0.223727
0.885494
-0.227337
0.687541
0.118040
0.743113
-0.461818
-0.040925
-0.757161
0.350980
-0.401112
0.071247
-0.256232
0.139182
-0.779949
0.133678
-0.623066
0.133128
-0.513316
0.834346
0.382479
0.834552
-0.010043
0.001981
-0.418870
0.364018
-0.625905
0.338257
-0.152398
0.124854
-0.072811
0.117808
-0.583282
0.307450
-0.447665
-0.342164
-0.432489
0.519877
-0.169887
0.210841
-0.238941
0.537193
-0.394752
0.312456
-0.862160
-0.135251
-0.536953
0.120326
-0.253634
0.374911
-0.371017
0.069902
-0.313427
0.425720
-0.382821
0.163081
-0.351118
0.303874
-0.215585
0.166775
-0.420131
0.033165
-0.674249
0.124413
-0.166108
0.459148
-0.309469
0.391691
-0.320609
0.456407
-0.741287
0.335770
-0.488119
-0.087422
-0.638567
-0.149767
-0.832876
0.246266
-0.236446
0.590701
-0.099761
0.663656
-0.361769
0.654939
-0.039376
0.135678
-0.728834
-0.091888
-0.823831
-0.208228
-0.499540
0.144256
-0.490904
0.615565
-0.543024
0.574658
-0.398526
0.135819
-0.400612
-0.188974
-0.702151
-0.070766
-0.858934
-0.138352
-0.660260
0.221720
-0.159552
0.511958
0.290108
0.923375
-0.033726
0.631595
-0.115271
0.374143
-0.442162
0.232972
-1.037269
-0.198908
-0.825843
0.531570
-0.288977
0.202382
-0.127607
0.038085
-0.122167
0.655579
-0.690486
0.355730
-0.219786
0.056932
-0.670766
-0.204968
-0.616145
0.288273
-0.179667
0.179004
0.345099
0.367206
0.427677
0.288521
-0.598352
0.359781
-0.815868
-0.075762
-0.682066
0.327592
-0.402678
0.263800
-0.029268
0.259803
-0.194807
0.276125
-0.457910
0.307080
-0.344935
0.512379
-0.347147
0.182034
-0.355609
0.427801
-0.298146
0.330581
-0.335934
0.271367
-0.301385
0.299780
-0.020246
0.441879
-0.212772
-0.028785
-0.357960
-0.273506
-0.277988
0.245241
-0.522989
0.310952
-0.309612
0.038135
-0.667724
0.310353
-0.293159
0.155673
-0.593989
0.060322
-0.471366
0.255422
-0.542985
0.128479
-0.333210
0.483101
-0.292998
0.344783
-0.427431
0.183818
-0.379151
0.408362
-0.226778
0.213995
-0.656239
0.101876
-0.618795
0.419441
-0.485498
0.388509
-0.305855
0.126196
-0.072979
0.604819
-0.162964
0.039530
-0.221924
0.453293
-0.196877
0.138627
-0.443480
0.736169
-0.336292
0.334647
-0.046282
-0.073486
-0.234351
0.432751
-0.294385
0.506345
-0.237565
0.277876
-0.660216
0.116422
-0.794551
0.244768
-0.055591
0.265088
-0.238611
0.397502
-0.688970
0.542787
-0.523705
0.061949
-0.447568
0.684833
-0.099118
0.695134
-0.374158
0.281643
-0.243240
0.086631
-0.308300
0.366686
-0.705065
0.264998
-0.443478
0.029941
-0.219923
0.590698
-0.032404
0.243595
-0.270582
0.496246
-0.699594
0.106274
-0.163599
0.696261
-0.381202
0.402205
-0.393766
0.370172
-0.244992
0.217568
-0.431538
0.693504
-0.202570
0.537536
-0.651861
0.648990
-0.138029
0.015087
-0.192122
0.399577
-0.374193
0.219630
-0.053454
0.131515
-0.227172
0.307109
-0.646500
0.242921
-0.641219
0.155573
-0.060420
0.632918
-0.262316
0.629179
-0.643518
0.626228
-0.322945
0.313690
-0.171220
0.540416
-0.045811
0.163819
-0.044556
0.580584
-0.119197
0.691477
-0.021271
0.139003
-0.188407
0.455969
-0.525577
0.373647
-0.550951
0.608901
-0.617430
0.165882
-0.552653
0.166548
-0.107129
0.008226
-0.226968
0.040048
-0.270542
0.450992
-0.669227
0.214061
-0.377219
0.292044
-0.527552
0.549722
-0.131700
0.573829
-0.011690
0.177557
-0.454431
0.132308
-0.165864
0.475173
-0.270952
0.357018
-0.231798
0.094964
-0.031059
0.082219
-0.004928
0.648117
-0.248190
0.557591
-0.114665
0.355319
-0.565817
0.341633
-0.395367
0.136360
-0.092635
0.364448
-0.350602
0.469912
-0.652873
0.182192
-0.310981
0.097149
-0.042145
0.341137
-0.260383
0.507551
-0.461018
0.432243
-0.284813
0.029786
-0.094577
0.511126
-0.128535
0.122841
-0.594930
0.133434
-0.070976
0.143121
-0.691025
0.185641
-0.498441
0.556810
-0.527448
0.194759
-0.684097
0.630241
-0.552031
0.349959
-0.369099
0.544603
-0.489601
0.039615
-0.564581
0.604204
-0.324358
0.168430
-0.390147
0.094428
-0.610414
0.660038
-0.131807
0.698653
-0.473330
0.261533
-0.121177
0.368222
-0.394965
0.192147
-0.511331
0.386114
-0.377641
0.316448
-0.231144
0.222698
-0.482085
0.265430
-0.079096
0.406437
-0.531135
0.560356
-0.134560
0.431244
-0.503102
0.080717
-0.288742
0.143867
-0.267388
0.652824
-0.257141
0.157746
-0.614666
0.394935
-0.157161
0.388336
-0.656453
0.278346
-0.056327
0.351749
-0.469306
0.579825
-0.022230
0.183731
-0.115417
0.354418
-0.290274
0.727489
-0.460235
0.538196
-0.285174
0.424674
-0.270275
0.526405
-0.116533
0.096538
-0.600659
0.376474
-0.270514
0.150767
-0.326240
0.539285
-0.313614
0.241778
-0.233900
0.470682
-0.629668
0.194536
-0.041808
0.703297
-0.517576
0.566743
-0.472783
0.659630
-0.607392
0.084808
-0.095802
0.384851
0.055649
0.706911
-0.085033
0.360659
-0.390236
0.367367
-0.190157
0.472540
-0.505928
0.078283
-0.139378
0.086030
-0.233376
0.468192
-0.624076
0.547806
-0.008797
0.170536
-0.298627
0.667800
-0.297792
0.434700
-0.541972
0.260055
-0.139707
0.529899
-0.005360
0.228180
-0.444706
0.271580
-0.455500
0.525811
-0.210557
0.559057
-0.194545
0.571524
-0.273231
0.359611
-0.342282
0.078580
-0.440108
0.487154
-0.161874
0.675026
-0.252396
0.107532
-0.494434
0.308465
-0.172565
0.231711
-0.105715
0.661890
-0.445569
0.193078
-0.013600
0.752065
-0.561297
0.204333
-0.090798
0.452911
-0.371136
0.635804
-0.263768
0.578993
-0.514081
0.433487
-0.459660
0.072949
-0.097836
0.109569
-0.148276
0.539221
-0.593865
0.331501
-0.478727
0.196541
-0.325513
0.426645
-0.314519
0.702258
-0.406741
0.682312
-0.484842
0.322932
-0.011262
0.670781
-0.215216
0.708079
-0.031907
0.450790
-0.388432
0.451246
-0.365772
0.643416
-0.337976
0.166349
-0.380816
0.109995
-0.231287
0.480056
-0.213143
0.405320
-0.284176
0.154323
-0.614594
0.223284
-0.182806
0.453611
-0.389888
0.742330
-0.278514
0.303504
-0.492844
0.278116
-0.429999
0.736209
-0.021270
0.150193
-0.593546
0.169650
-0.532003
0.312050
-0.613853
0.196003
-0.254890
0.269096
-0.350554
0.636701
-0.366247
0.605390
-0.391705
0.618534
-0.199469
0.118093
0.056751
0.308778
-0.100803
0.353532
-0.553226
0.733004
-0.121687
0.436762
-0.021877
0.291331
-0.357427
0.738703
-0.094460
0.543071
-0.100199
0.043494
